<?xml version="1.0"?>
<opencv_storage>
<cascade>
  <stageType>BOOST</stageType>
  <featureType>HAAR</featureType>
  <height>20</height>
  <width>20</width>
  <stageParams>
    <boostType>GAB</boostType>
    <minHitRate>9.9500000476837158e-01</minHitRate>
    <maxFalseAlarm>5.0000000000000000e-01</maxFalseAlarm>
    <weightTrimRate>9.4999999999999996e-01</weightTrimRate>
    <maxDepth>1</maxDepth>
    <maxWeakCount>100</maxWeakCount></stageParams>
  <featureParams>
    <maxCatCount>0</maxCatCount>
    <featSize>1</featSize>
    <mode>BASIC</mode></featureParams>
  <stageNum>20</stageNum>
  <stages>
    <!-- stage 0 -->
    <_>
      <maxWeakCount>17</maxWeakCount>
      <stageThreshold>-1.6660727262496948e+00</stageThreshold>
      <weakClassifiers>
        <_>
          <internalNodes>
            0 -1 96 -1.5348798036575317e-01</internalNodes>
          <leafValues>
            -4.5743327587842941e-02 -7.9472380876541138e-01</leafValues></_>
        <_>
          <internalNodes>
            0 -1 30 1.0161863639950752e-02</internalNodes>
          <leafValues>
            -4.5592996478080750e-01 2.5065788626670837e-01</leafValues></_>
        <_>
          <internalNodes>
            0 -1 743 2.8004394844174385e-02</internalNodes>
          <leafValues>
            -2.2117558121681213e-01 4.7833788394927979e-01</leafValues></_>
        <_>
          <internalNodes>
            0 -1 51 1.9527444243431091e-01</internalNodes>
          <leafValues>
            1.1053271591663361e-01 -7.7263003587722778e-01</leafValues></_>
        <_>
          <internalNodes>
            0 -1 42 1.1985966935753822e-02</internalNodes>
          <leafValues>
            -1.2615630030632019e-01 4.6034663915634155e-01</leafValues></_>
        <_>
          <internalNodes>
            0 -1 447 5.1895502954721451e-02</internalNodes>
          <leafValues>
            -2.3085607588291168e-01 2.9212981462478638e-01</leafValues></_>
        <_>
          <internalNodes>
            0 -1 820 -3.6036245524883270e-02</internalNodes>
          <leafValues>
            4.8560291528701782e-01 -1.2030751258134842e-01</leafValues></_>
        <_>
          <internalNodes>
            0 -1 18 2.8179109096527100e-01</internalNodes>
          <leafValues>
            6.6750630736351013e-02 -8.2636255025863647e-01</leafValues></_>
        <_>
          <internalNodes>
            0 -1 23 1.9175538793206215e-02</internalNodes>
          <leafValues>
            -1.0810723155736923e-01 4.7911301255226135e-01</leafValues></_>
        <_>
          <internalNodes>
            0 -1 400 1.6473919153213501e-02</internalNodes>
          <leafValues>
            -1.1259827017784119e-01 4.0747213363647461e-01</leafValues></_>
        <_>
          <internalNodes>
            0 -1 0 7.9117016866803169e-04</internalNodes>
          <leafValues>
            1.2514902651309967e-01 -4.4049426913261414e-01</leafValues></_>
        <_>
          <internalNodes>
            0 -1 0 -1.9402106408961117e-04</internalNodes>
          <leafValues>
            -4.3207797408103943e-01 1.5778495371341705e-01</leafValues></_>
        <_>
          <internalNodes>
            0 -1 455 4.2504496872425079e-02</internalNodes>
          <leafValues>
            -8.3234280347824097e-02 5.7973653078079224e-01</leafValues></_>
        <_>
          <internalNodes>
            0 -1 661 -1.6015413403511047e-01</internalNodes>
          <leafValues>
            3.5169270634651184e-01 -1.2458092719316483e-01</leafValues></_>
        <_>
          <internalNodes>
            0 -1 687 -2.2296442184597254e-03</internalNodes>
          <leafValues>
            2.1622528135776520e-01 -2.3028574883937836e-01</leafValues></_>
        <_>
          <internalNodes>
            0 -1 217 8.1502366811037064e-03</internalNodes>
          <leafValues>
            -1.2693996727466583e-01 3.5426989197731018e-01</leafValues></_>
        <_>
          <internalNodes>
            0 -1 412 5.0303903408348560e-03</internalNodes>
          <leafValues>
            -1.4037488400936127e-01 3.0936273932456970e-01</leafValues></_></weakClassifiers></_>
    <!-- stage 1 -->
    <_>
      <maxWeakCount>26</maxWeakCount>
      <stageThreshold>-1.6914983987808228e+00</stageThreshold>
      <weakClassifiers>
        <_>
          <internalNodes>
            0 -1 794 -1.7503734678030014e-02</internalNodes>
          <leafValues>
            -1.3182674534618855e-02 -6.7597001791000366e-01</leafValues></_>
        <_>
          <internalNodes>
            0 -1 44 2.2295631468296051e-02</internalNodes>
          <leafValues>
            -2.9229670763015747e-01 2.9971191287040710e-01</leafValues></_>
        <_>
          <internalNodes>
            0 -1 261 6.1538256704807281e-02</internalNodes>
          <leafValues>
            -2.4615915119647980e-01 2.6933941245079041e-01</leafValues></_>
        <_>
          <internalNodes>
            0 -1 231 -2.4659555405378342e-02</internalNodes>
          <leafValues>
            5.0233501195907593e-01 -1.1649272590875626e-01</leafValues></_>
        <_>
          <internalNodes>
            0 -1 752 1.7359785735607147e-02</internalNodes>
          <leafValues>
            -1.7489168047904968e-01 3.2787308096885681e-01</leafValues></_>
        <_>
          <internalNodes>
            0 -1 229 -3.0064005404710770e-02</internalNodes>
          <leafValues>
            1.2076433748006821e-01 -3.9668598771095276e-01</leafValues></_>
        <_>
          <internalNodes>
            0 -1 119 3.9789415895938873e-03</internalNodes>
          <leafValues>
            -1.0133107006549835e-01 4.1615056991577148e-01</leafValues></_>
        <_>
          <internalNodes>
            0 -1 266 4.1603565216064453e-02</internalNodes>
          <leafValues>
            -1.9893991947174072e-01 2.2564870119094849e-01</leafValues></_>
        <_>
          <internalNodes>
            0 -1 1013 3.1869829399511218e-04</internalNodes>
          <leafValues>
            1.0826342552900314e-01 -3.8525828719139099e-01</leafValues></_>
        <_>
          <internalNodes>
            0 -1 802 -2.2459566593170166e-02</internalNodes>
          <leafValues>
            5.1738023757934570e-01 -8.0293133854866028e-02</leafValues></_>
        <_>
          <internalNodes>
            0 -1 1013 -5.3840072359889746e-04</internalNodes>
          <leafValues>
            -3.5346016287803650e-01 1.2076724320650101e-01</leafValues></_>
        <_>
          <internalNodes>
            0 -1 792 -1.0196922346949577e-02</internalNodes>
          <leafValues>
            3.7393021583557129e-01 -1.0959137976169586e-01</leafValues></_>
        <_>
          <internalNodes>
            0 -1 449 2.4599703028798103e-03</internalNodes>
          <leafValues>
            -1.8476881086826324e-01 2.4147085845470428e-01</leafValues></_>
        <_>
          <internalNodes>
            0 -1 49 1.3974566012620926e-02</internalNodes>
          <leafValues>
            1.1218879371881485e-01 -4.3247026205062866e-01</leafValues></_>
        <_>
          <internalNodes>
            0 -1 623 -3.7717834115028381e-02</internalNodes>
          <leafValues>
            6.0590499639511108e-01 -8.9757047593593597e-02</leafValues></_>
        <_>
          <internalNodes>
            0 -1 138 6.4992234110832214e-03</internalNodes>
          <leafValues>
            -1.3590131700038910e-01 2.9718241095542908e-01</leafValues></_>
        <_>
          <internalNodes>
            0 -1 72 8.5731204599142075e-03</internalNodes>
          <leafValues>
            -1.2447725981473923e-01 3.5005530714988708e-01</leafValues></_>
        <_>
          <internalNodes>
            0 -1 21 -2.6195603609085083e-01</internalNodes>
          <leafValues>
            -4.4459348917007446e-01 8.4093436598777771e-02</leafValues></_>
        <_>
          <internalNodes>
            0 -1 26 -3.3796916250139475e-04</internalNodes>
          <leafValues>
            -2.9548484086990356e-01 1.1858887970447540e-01</leafValues></_>
        <_>
          <internalNodes>
            0 -1 109 -2.4203759431838989e-01</internalNodes>
          <leafValues>
            -8.2090383768081665e-01 3.0824726447463036e-02</leafValues></_>
        <_>
          <internalNodes>
            0 -1 784 2.6487765717320144e-04</internalNodes>
          <leafValues>
            1.2249177694320679e-01 -3.0828389525413513e-01</leafValues></_>
        <_>
          <internalNodes>
            0 -1 1034 -3.8705971091985703e-03</internalNodes>
          <leafValues>
            3.8586008548736572e-01 -1.0224069654941559e-01</leafValues></_>
        <_>
          <internalNodes>
            0 -1 605 -9.7623981535434723e-02</internalNodes>
          <leafValues>
            3.0367273092269897e-01 -1.2610238790512085e-01</leafValues></_>
        <_>
          <internalNodes>
            0 -1 712 -5.5634848773479462e-02</internalNodes>
          <leafValues>
            6.3190096616744995e-01 -7.6162956655025482e-02</leafValues></_>
        <_>
          <internalNodes>
            0 -1 9 -2.0589126646518707e-01</internalNodes>
          <leafValues>
            -7.5083881616592407e-01 6.2499031424522400e-02</leafValues></_>
        <_>
          <internalNodes>
            0 -1 424 8.2206791266798973e-03</internalNodes>
          <leafValues>
            6.0937535017728806e-02 -5.7931363582611084e-01</leafValues></_></weakClassifiers></_>
    <!-- stage 2 -->
    <_>
      <maxWeakCount>33</maxWeakCount>
      <stageThreshold>-1.5441246032714844e+00</stageThreshold>
      <weakClassifiers>
        <_>
          <internalNodes>
            0 -1 950 -6.9261314347386360e-03</internalNodes>
          <leafValues>
            -1.6821639239788055e-01 -6.3933265209197998e-01</leafValues></_>
        <_>
          <internalNodes>
            0 -1 702 -6.9289673119783401e-03</internalNodes>
          <leafValues>
            1.5918393433094025e-01 -3.1481692194938660e-01</leafValues></_>
        <_>
          <internalNodes>
            0 -1 85 5.1612230017781258e-03</internalNodes>
          <leafValues>
            -1.6238754987716675e-01 3.0564796924591064e-01</leafValues></_>
        <_>
          <internalNodes>
            0 -1 99 -2.9266902711242437e-03</internalNodes>
          <leafValues>
            3.6087244749069214e-01 -1.2213782221078873e-01</leafValues></_>
        <_>
          <internalNodes>
            0 -1 21 -3.8566595315933228e-01</internalNodes>
          <leafValues>
            -7.2383594512939453e-01 5.8724276721477509e-02</leafValues></_>
        <_>
          <internalNodes>
            0 -1 892 9.1859046369791031e-03</internalNodes>
          <leafValues>
            -1.4878688752651215e-01 2.6227498054504395e-01</leafValues></_>
        <_>
          <internalNodes>
            0 -1 203 5.9757782146334648e-03</internalNodes>
          <leafValues>
            -1.8491478264331818e-01 2.2443649172782898e-01</leafValues></_>
        <_>
          <internalNodes>
            0 -1 97 -1.2909001111984253e-01</internalNodes>
          <leafValues>
            1.7585824429988861e-01 -2.7882921695709229e-01</leafValues></_>
        <_>
          <internalNodes>
            0 -1 491 -3.3389108721166849e-03</internalNodes>
          <leafValues>
            3.3523756265640259e-01 -1.3643944263458252e-01</leafValues></_>
        <_>
          <internalNodes>
            0 -1 977 -4.7717115376144648e-04</internalNodes>
          <leafValues>
            -3.2222664356231689e-01 1.5159365534782410e-01</leafValues></_>
        <_>
          <internalNodes>
            0 -1 977 2.7304934337735176e-04</internalNodes>
          <leafValues>
            1.2811817228794098e-01 -4.3252748250961304e-01</leafValues></_>
        <_>
          <internalNodes>
            0 -1 533 1.9018986821174622e-01</internalNodes>
          <leafValues>
            4.4414438307285309e-02 -8.5540699958801270e-01</leafValues></_>
        <_>
          <internalNodes>
            0 -1 490 -4.0802937000989914e-03</internalNodes>
          <leafValues>
            3.9418122172355652e-01 -1.0859321802854538e-01</leafValues></_>
        <_>
          <internalNodes>
            0 -1 218 7.8530274331569672e-03</internalNodes>
          <leafValues>
            -1.1024045199155807e-01 3.5120511054992676e-01</leafValues></_>
        <_>
          <internalNodes>
            0 -1 285 -1.6995556652545929e-02</internalNodes>
          <leafValues>
            3.9218360185623169e-01 -9.4200365245342255e-02</leafValues></_>
        <_>
          <internalNodes>
            0 -1 15 7.3453851044178009e-02</internalNodes>
          <leafValues>
            5.8233525604009628e-02 -6.5505212545394897e-01</leafValues></_>
        <_>
          <internalNodes>
            0 -1 8 2.9479617252945900e-02</internalNodes>
          <leafValues>
            -1.3964122533798218e-01 2.6957088708877563e-01</leafValues></_>
        <_>
          <internalNodes>
            0 -1 155 -7.0088231004774570e-03</internalNodes>
          <leafValues>
            3.2306718826293945e-01 -1.1523413658142090e-01</leafValues></_>
        <_>
          <internalNodes>
            0 -1 289 2.4261670187115669e-02</internalNodes>
          <leafValues>
            -1.0147204995155334e-01 3.4855529665946960e-01</leafValues></_>
        <_>
          <internalNodes>
            0 -1 190 5.4121535504236817e-04</internalNodes>
          <leafValues>
            1.2056290358304977e-01 -3.0670896172523499e-01</leafValues></_>
        <_>
          <internalNodes>
            0 -1 190 -4.8727850662544370e-04</internalNodes>
          <leafValues>
            -3.7484669685363770e-01 9.6876755356788635e-02</leafValues></_>
        <_>
          <internalNodes>
            0 -1 114 1.0181730613112450e-02</internalNodes>
          <leafValues>
            -1.1841548234224319e-01 3.2296976447105408e-01</leafValues></_>
        <_>
          <internalNodes>
            0 -1 952 -1.9247412681579590e-02</internalNodes>
          <leafValues>
            4.6697011590003967e-01 -6.1605565249919891e-02</leafValues></_>
        <_>
          <internalNodes>
            0 -1 954 8.1813223659992218e-03</internalNodes>
          <leafValues>
            -1.3589209318161011e-01 2.5680330395698547e-01</leafValues></_>
        <_>
          <internalNodes>
            0 -1 659 -1.1980109661817551e-01</internalNodes>
          <leafValues>
            4.6157878637313843e-01 -7.3868781328201294e-02</leafValues></_>
        <_>
          <internalNodes>
            0 -1 669 -4.5678939670324326e-02</internalNodes>
          <leafValues>
            4.8572775721549988e-01 -6.2423996627330780e-02</leafValues></_>
        <_>
          <internalNodes>
            0 -1 958 -1.7821379005908966e-02</internalNodes>
          <leafValues>
            3.6608150601387024e-01 -9.5726087689399719e-02</leafValues></_>
        <_>
          <internalNodes>
            0 -1 422 1.6659742221236229e-02</internalNodes>
          <leafValues>
            6.2508925795555115e-02 -5.6361961364746094e-01</leafValues></_>
        <_>
          <internalNodes>
            0 -1 426 -4.7473935410380363e-03</internalNodes>
          <leafValues>
            3.9793527126312256e-01 -9.8035402595996857e-02</leafValues></_>
        <_>
          <internalNodes>
            0 -1 483 -4.2383754625916481e-03</internalNodes>
          <leafValues>
            6.5859812498092651e-01 -4.3206982314586639e-02</leafValues></_>
        <_>
          <internalNodes>
            0 -1 179 8.6907923221588135e-02</internalNodes>
          <leafValues>
            5.6978330016136169e-02 -6.0690897703170776e-01</leafValues></_>
        <_>
          <internalNodes>
            0 -1 639 7.0382235571742058e-03</internalNodes>
          <leafValues>
            -1.4997504651546478e-01 2.2833894193172455e-01</leafValues></_>
        <_>
          <internalNodes>
            0 -1 45 7.4111133813858032e-02</internalNodes>
          <leafValues>
            3.7427142262458801e-02 -8.2278102636337280e-01</leafValues></_></weakClassifiers></_>
    <!-- stage 3 -->
    <_>
      <maxWeakCount>42</maxWeakCount>
      <stageThreshold>-1.4324215650558472e+00</stageThreshold>
      <weakClassifiers>
        <_>
          <internalNodes>
            0 -1 260 4.3214112520217896e-02</internalNodes>
          <leafValues>
            -6.4863729476928711e-01 -2.8049534559249878e-01</leafValues></_>
        <_>
          <internalNodes>
            0 -1 204 2.8960265219211578e-02</internalNodes>
          <leafValues>
            -2.3219692707061768e-01 1.7651137709617615e-01</leafValues></_>
        <_>
          <internalNodes>
            0 -1 1044 1.4044436393305659e-03</internalNodes>
          <leafValues>
            8.3611957728862762e-02 -4.4201987981796265e-01</leafValues></_>
        <_>
          <internalNodes>
            0 -1 1044 -5.1995692774653435e-04</internalNodes>
          <leafValues>
            -3.0938479304313660e-01 1.6725191473960876e-01</leafValues></_>
        <_>
          <internalNodes>
            0 -1 957 -8.3305565640330315e-03</internalNodes>
          <leafValues>
            2.5032040476799011e-01 -1.4292213320732117e-01</leafValues></_>
        <_>
          <internalNodes>
            0 -1 981 5.4576709866523743e-02</internalNodes>
          <leafValues>
            9.1237030923366547e-02 -4.8745083808898926e-01</leafValues></_>
        <_>
          <internalNodes>
            0 -1 515 2.0519834011793137e-02</internalNodes>
          <leafValues>
            -1.1043743789196014e-01 3.6622500419616699e-01</leafValues></_>
        <_>
          <internalNodes>
            0 -1 701 -1.8403802067041397e-02</internalNodes>
          <leafValues>
            4.3345317244529724e-01 -5.2335474640130997e-02</leafValues></_>
        <_>
          <internalNodes>
            0 -1 225 1.7067186534404755e-02</internalNodes>
          <leafValues>
            -8.9408814907073975e-02 3.4237754344940186e-01</leafValues></_>
        <_>
          <internalNodes>
            0 -1 795 -1.1334541253745556e-02</internalNodes>
          <leafValues>
            1.5886174142360687e-01 -1.9135610759258270e-01</leafValues></_>
        <_>
          <internalNodes>
            0 -1 0 -2.6347304810769856e-04</internalNodes>
          <leafValues>
            -3.1384989619255066e-01 1.0301515460014343e-01</leafValues></_>
        <_>
          <internalNodes>
            0 -1 0 8.1403588410466909e-04</internalNodes>
          <leafValues>
            1.1587246507406235e-01 -4.6774289011955261e-01</leafValues></_>
        <_>
          <internalNodes>
            0 -1 6 1.2739632278680801e-02</internalNodes>
          <leafValues>
            -1.3167153298854828e-01 3.3865734934806824e-01</leafValues></_>
        <_>
          <internalNodes>
            0 -1 130 -2.9871016740798950e-03</internalNodes>
          <leafValues>
            3.1770995259284973e-01 -1.0410023480653763e-01</leafValues></_>
        <_>
          <internalNodes>
            0 -1 991 1.1441742535680532e-03</internalNodes>
          <leafValues>
            -1.4395767450332642e-01 2.1074764430522919e-01</leafValues></_>
        <_>
          <internalNodes>
            0 -1 375 -1.6921153292059898e-04</internalNodes>
          <leafValues>
            -2.7156972885131836e-01 1.0943294316530228e-01</leafValues></_>
        <_>
          <internalNodes>
            0 -1 375 6.6433288156986237e-04</internalNodes>
          <leafValues>
            1.0212522000074387e-01 -3.0036944150924683e-01</leafValues></_>
        <_>
          <internalNodes>
            0 -1 59 1.6677588224411011e-02</internalNodes>
          <leafValues>
            -1.4744763076305389e-01 2.2837466001510620e-01</leafValues></_>
        <_>
          <internalNodes>
            0 -1 54 4.1847839020192623e-03</internalNodes>
          <leafValues>
            -1.1170240491628647e-01 2.5369402766227722e-01</leafValues></_>
        <_>
          <internalNodes>
            0 -1 550 -1.8208785355091095e-01</internalNodes>
          <leafValues>
            1.6932179033756256e-01 -1.7719346284866333e-01</leafValues></_>
        <_>
          <internalNodes>
            0 -1 973 -6.2567354179918766e-03</internalNodes>
          <leafValues>
            3.1074973940849304e-01 -1.0099762678146362e-01</leafValues></_>
        <_>
          <internalNodes>
            0 -1 282 4.1360288858413696e-02</internalNodes>
          <leafValues>
            -6.0346629470586777e-02 4.4249147176742554e-01</leafValues></_>
        <_>
          <internalNodes>
            0 -1 968 2.5010937824845314e-03</internalNodes>
          <leafValues>
            -1.2231991440057755e-01 2.3526158928871155e-01</leafValues></_>
        <_>
          <internalNodes>
            0 -1 325 -5.2938479930162430e-03</internalNodes>
          <leafValues>
            2.2976307570934296e-01 -1.2206826359033585e-01</leafValues></_>
        <_>
          <internalNodes>
            0 -1 445 5.1622027531266212e-03</internalNodes>
          <leafValues>
            -1.0553700476884842e-01 2.8881475329399109e-01</leafValues></_>
        <_>
          <internalNodes>
            0 -1 917 3.3250864362344146e-04</internalNodes>
          <leafValues>
            9.3176297843456268e-02 -3.1449741125106812e-01</leafValues></_>
        <_>
          <internalNodes>
            0 -1 917 -3.9379307418130338e-04</internalNodes>
          <leafValues>
            -3.0682551860809326e-01 1.4276951551437378e-01</leafValues></_>
        <_>
          <internalNodes>
            0 -1 810 2.7580514550209045e-02</internalNodes>
          <leafValues>
            -7.9239517450332642e-02 3.9948579668998718e-01</leafValues></_>
        <_>
          <internalNodes>
            0 -1 491 -1.2048459611833096e-03</internalNodes>
          <leafValues>
            2.3970402777194977e-01 -1.2433486431837082e-01</leafValues></_>
        <_>
          <internalNodes>
            0 -1 458 -6.1147307860665023e-05</internalNodes>
          <leafValues>
            -2.2559794783592224e-01 1.2154318392276764e-01</leafValues></_>
        <_>
          <internalNodes>
            0 -1 65 -4.0786229074001312e-03</internalNodes>
          <leafValues>
            2.6899072527885437e-01 -9.6648342907428741e-02</leafValues></_>
        <_>
          <internalNodes>
            0 -1 618 -1.2799599207937717e-03</internalNodes>
          <leafValues>
            -2.8654190897941589e-01 8.8508501648902893e-02</leafValues></_>
        <_>
          <internalNodes>
            0 -1 617 5.4419670050265267e-05</internalNodes>
          <leafValues>
            1.1487701535224915e-01 -2.2488087415695190e-01</leafValues></_>
        <_>
          <internalNodes>
            0 -1 760 -2.6007866859436035e-01</internalNodes>
          <leafValues>
            -9.2403692007064819e-01 2.5753542780876160e-02</leafValues></_>
        <_>
          <internalNodes>
            0 -1 12 2.6373139023780823e-01</internalNodes>
          <leafValues>
            2.1660985425114632e-02 -8.1060701608657837e-01</leafValues></_>
        <_>
          <internalNodes>
            0 -1 111 -1.0146236745640635e-03</internalNodes>
          <leafValues>
            -3.0098220705986023e-01 7.9468667507171631e-02</leafValues></_>
        <_>
          <internalNodes>
            0 -1 115 8.9333485811948776e-04</internalNodes>
          <leafValues>
            1.0140036046504974e-01 -2.5761130452156067e-01</leafValues></_>
        <_>
          <internalNodes>
            0 -1 570 7.7152818441390991e-02</internalNodes>
          <leafValues>
            -4.2859841138124466e-02 5.8497786521911621e-01</leafValues></_>
        <_>
          <internalNodes>
            0 -1 691 1.3252499047666788e-03</internalNodes>
          <leafValues>
            8.8832035660743713e-02 -3.0172222852706909e-01</leafValues></_>
        <_>
          <internalNodes>
            0 -1 50 -1.6574862599372864e-01</internalNodes>
          <leafValues>
            -5.5140691995620728e-01 4.4879477471113205e-02</leafValues></_>
        <_>
          <internalNodes>
            0 -1 688 -2.7226045494899154e-04</internalNodes>
          <leafValues>
            -2.5189012289047241e-01 1.1012187600135803e-01</leafValues></_>
        <_>
          <internalNodes>
            0 -1 485 -7.5410809367895126e-03</internalNodes>
          <leafValues>
            1.9764839112758636e-01 -1.3260291516780853e-01</leafValues></_></weakClassifiers></_>
    <!-- stage 4 -->
    <_>
      <maxWeakCount>46</maxWeakCount>
      <stageThreshold>-1.4469885826110840e+00</stageThreshold>
      <weakClassifiers>
        <_>
          <internalNodes>
            0 -1 31 3.3765319734811783e-02</internalNodes>
          <leafValues>
            -6.5056085586547852e-01 -2.9250892996788025e-01</leafValues></_>
        <_>
          <internalNodes>
            0 -1 200 6.0264393687248230e-03</internalNodes>
          <leafValues>
            -2.9468324780464172e-01 1.0935779660940170e-01</leafValues></_>
        <_>
          <internalNodes>
            0 -1 939 3.8119824603199959e-04</internalNodes>
          <leafValues>
            8.8420040905475616e-02 -3.3104357123374939e-01</leafValues></_>
        <_>
          <internalNodes>
            0 -1 939 -3.0558326398022473e-04</internalNodes>
          <leafValues>
            -2.7070489525794983e-01 1.9762027263641357e-01</leafValues></_>
        <_>
          <internalNodes>
            0 -1 881 -2.0660825073719025e-02</internalNodes>
          <leafValues>
            1.8080279231071472e-01 -2.0571540296077728e-01</leafValues></_>
        <_>
          <internalNodes>
            0 -1 593 1.9818628206849098e-03</internalNodes>
          <leafValues>
            -1.4241787791252136e-01 2.3153539001941681e-01</leafValues></_>
        <_>
          <internalNodes>
            0 -1 0 -7.7370618237182498e-04</internalNodes>
          <leafValues>
            -3.9563065767288208e-01 6.2644056975841522e-02</leafValues></_>
        <_>
          <internalNodes>
            0 -1 275 -3.7474636919796467e-03</internalNodes>
          <leafValues>
            3.8617062568664551e-01 -6.9322235882282257e-02</leafValues></_>
        <_>
          <internalNodes>
            0 -1 0 4.8875703942030668e-04</internalNodes>
          <leafValues>
            9.5276355743408203e-02 -2.8077381849288940e-01</leafValues></_>
        <_>
          <internalNodes>
            0 -1 292 4.0042214095592499e-03</internalNodes>
          <leafValues>
            -1.0722769796848297e-01 2.5732496380805969e-01</leafValues></_>
        <_>
          <internalNodes>
            0 -1 397 1.7690235748887062e-02</internalNodes>
          <leafValues>
            -9.7047917544841766e-02 3.2044458389282227e-01</leafValues></_>
        <_>
          <internalNodes>
            0 -1 545 -6.2839324527885765e-05</internalNodes>
          <leafValues>
            -2.1431788802146912e-01 1.3706164062023163e-01</leafValues></_>
        <_>
          <internalNodes>
            0 -1 764 -6.1792772263288498e-02</internalNodes>
          <leafValues>
            2.0843867957592010e-01 -1.2815696001052856e-01</leafValues></_>
        <_>
          <internalNodes>
            0 -1 791 -5.6818760931491852e-03</internalNodes>
          <leafValues>
            3.6600503325462341e-01 -7.7580116689205170e-02</leafValues></_>
        <_>
          <internalNodes>
            0 -1 839 3.7872204557061195e-03</internalNodes>
          <leafValues>
            -8.6546346545219421e-02 3.0265170335769653e-01</leafValues></_>
        <_>
          <internalNodes>
            0 -1 1029 -3.9463918656110764e-03</internalNodes>
          <leafValues>
            2.1189391613006592e-01 -1.2134694308042526e-01</leafValues></_>
        <_>
          <internalNodes>
            0 -1 1046 9.4127701595425606e-04</internalNodes>
          <leafValues>
            8.1474132835865021e-02 -3.1607288122177124e-01</leafValues></_>
        <_>
          <internalNodes>
            0 -1 548 -4.2577590793371201e-03</internalNodes>
          <leafValues>
            3.6094909906387329e-01 -6.7000024020671844e-02</leafValues></_>
        <_>
          <internalNodes>
            0 -1 459 2.0036749541759491e-02</internalNodes>
          <leafValues>
            -5.3744848817586899e-02 4.4129174947738647e-01</leafValues></_>
        <_>
          <internalNodes>
            0 -1 29 2.4855015799403191e-02</internalNodes>
          <leafValues>
            -1.2100739032030106e-01 2.1369193494319916e-01</leafValues></_>
        <_>
          <internalNodes>
            0 -1 390 -2.3307183384895325e-01</internalNodes>
          <leafValues>
            2.7279046177864075e-01 -1.0725304484367371e-01</leafValues></_>
        <_>
          <internalNodes>
            0 -1 894 -2.6613902300596237e-02</internalNodes>
          <leafValues>
            3.6899295449256897e-01 -7.0586822926998138e-02</leafValues></_>
        <_>
          <internalNodes>
            0 -1 931 8.0363247543573380e-03</internalNodes>
          <leafValues>
            -1.0643277317285538e-01 2.3591402173042297e-01</leafValues></_>
        <_>
          <internalNodes>
            0 -1 371 -1.4673798345029354e-02</internalNodes>
          <leafValues>
            4.0704166889190674e-01 -6.3145920634269714e-02</leafValues></_>
        <_>
          <internalNodes>
            0 -1 186 3.4285653382539749e-03</internalNodes>
          <leafValues>
            -1.2410955131053925e-01 2.1758416295051575e-01</leafValues></_>
        <_>
          <internalNodes>
            0 -1 829 8.7866501417011023e-04</internalNodes>
          <leafValues>
            6.7887760698795319e-02 -3.5179567337036133e-01</leafValues></_>
        <_>
          <internalNodes>
            0 -1 351 1.1287713423371315e-02</internalNodes>
          <leafValues>
            -7.2248324751853943e-02 3.3823525905609131e-01</leafValues></_>
        <_>
          <internalNodes>
            0 -1 166 7.8970668837428093e-03</internalNodes>
          <leafValues>
            4.6578608453273773e-02 -5.3362733125686646e-01</leafValues></_>
        <_>
          <internalNodes>
            0 -1 168 -1.2301685288548470e-02</internalNodes>
          <leafValues>
            -3.8218137621879578e-01 6.7245602607727051e-02</leafValues></_>
        <_>
          <internalNodes>
            0 -1 521 7.0426359772682190e-02</internalNodes>
          <leafValues>
            -4.7523763030767441e-02 6.0721641778945923e-01</leafValues></_>
        <_>
          <internalNodes>
            0 -1 56 -3.9439722895622253e-03</internalNodes>
          <leafValues>
            2.5298222899436951e-01 -8.9774206280708313e-02</leafValues></_>
        <_>
          <internalNodes>
            0 -1 347 2.3545537143945694e-02</internalNodes>
          <leafValues>
            -7.3561690747737885e-02 3.0732575058937073e-01</leafValues></_>
        <_>
          <internalNodes>
            0 -1 817 -7.8080724924802780e-03</internalNodes>
          <leafValues>
            9.2084504663944244e-02 -2.5254312157630920e-01</leafValues></_>
        <_>
          <internalNodes>
            0 -1 771 7.7967077493667603e-02</internalNodes>
          <leafValues>
            -4.3250661343336105e-02 6.7170149087905884e-01</leafValues></_>
        <_>
          <internalNodes>
            0 -1 660 -6.5070122480392456e-02</internalNodes>
          <leafValues>
            5.1890486478805542e-01 -4.1941162198781967e-02</leafValues></_>
        <_>
          <internalNodes>
            0 -1 450 6.3320614397525787e-02</internalNodes>
          <leafValues>
            -1.0609272122383118e-01 2.3354801535606384e-01</leafValues></_>
        <_>
          <internalNodes>
            0 -1 922 -2.2779205441474915e-01</internalNodes>
          <leafValues>
            -7.1942609548568726e-01 3.5676825791597366e-02</leafValues></_>
        <_>
          <internalNodes>
            0 -1 748 9.5338681712746620e-03</internalNodes>
          <leafValues>
            2.4580545723438263e-02 -7.9744237661361694e-01</leafValues></_>
        <_>
          <internalNodes>
            0 -1 927 5.1330504938960075e-03</internalNodes>
          <leafValues>
            -9.7404830157756805e-02 2.5837454199790955e-01</leafValues></_>
        <_>
          <internalNodes>
            0 -1 1013 3.9003489655442536e-04</internalNodes>
          <leafValues>
            8.1657893955707550e-02 -2.9189974069595337e-01</leafValues></_>
        <_>
          <internalNodes>
            0 -1 879 5.2912272512912750e-03</internalNodes>
          <leafValues>
            -9.9290080368518829e-02 2.4763913452625275e-01</leafValues></_>
        <_>
          <internalNodes>
            0 -1 737 -4.6622444642707705e-04</internalNodes>
          <leafValues>
            -2.7054268121719360e-01 9.1520942747592926e-02</leafValues></_>
        <_>
          <internalNodes>
            0 -1 783 -1.7374602612107992e-04</internalNodes>
          <leafValues>
            1.6664443910121918e-01 -1.5327450633049011e-01</leafValues></_>
        <_>
          <internalNodes>
            0 -1 444 1.0657904203981161e-03</internalNodes>
          <leafValues>
            -1.6546893119812012e-01 1.4295548200607300e-01</leafValues></_>
        <_>
          <internalNodes>
            0 -1 1013 -7.3217099998146296e-04</internalNodes>
          <leafValues>
            -3.2576960325241089e-01 8.1904031336307526e-02</leafValues></_>
        <_>
          <internalNodes>
            0 -1 71 4.2865807190537453e-03</internalNodes>
          <leafValues>
            -9.1362766921520233e-02 2.6184055209159851e-01</leafValues></_></weakClassifiers></_>
    <!-- stage 5 -->
    <_>
      <maxWeakCount>51</maxWeakCount>
      <stageThreshold>-1.4285329580307007e+00</stageThreshold>
      <weakClassifiers>
        <_>
          <internalNodes>
            0 -1 195 1.4690393581986427e-02</internalNodes>
          <leafValues>
            -6.4944058656692505e-01 -3.6787563562393188e-01</leafValues></_>
        <_>
          <internalNodes>
            0 -1 321 -2.2258650278672576e-04</internalNodes>
          <leafValues>
            -3.4512698650360107e-01 3.2214611768722534e-02</leafValues></_>
        <_>
          <internalNodes>
            0 -1 264 6.7446948960423470e-03</internalNodes>
          <leafValues>
            -1.4497920870780945e-01 1.8591620028018951e-01</leafValues></_>
        <_>
          <internalNodes>
            0 -1 321 2.4396699154749513e-04</internalNodes>
          <leafValues>
            1.7038519680500031e-01 -2.0052656531333923e-01</leafValues></_>
        <_>
          <internalNodes>
            0 -1 873 -2.8118705376982689e-03</internalNodes>
          <leafValues>
            3.3977407217025757e-01 -7.8805916011333466e-02</leafValues></_>
        <_>
          <internalNodes>
            0 -1 740 1.8355729989707470e-03</internalNodes>
          <leafValues>
            -1.1662299931049347e-01 2.7025121450424194e-01</leafValues></_>
        <_>
          <internalNodes>
            0 -1 118 -1.6077017411589622e-02</internalNodes>
          <leafValues>
            9.7622521221637726e-02 -2.9680323600769043e-01</leafValues></_>
        <_>
          <internalNodes>
            0 -1 37 4.0750318765640259e-01</internalNodes>
          <leafValues>
            5.1645871251821518e-02 -6.1246645450592041e-01</leafValues></_>
        <_>
          <internalNodes>
            0 -1 829 -3.3987738424912095e-04</internalNodes>
          <leafValues>
            -2.4186062812805176e-01 1.0814534872770309e-01</leafValues></_>
        <_>
          <internalNodes>
            0 -1 55 9.5455572009086609e-03</internalNodes>
          <leafValues>
            -1.0615549981594086e-01 2.1981319785118103e-01</leafValues></_>
        <_>
          <internalNodes>
            0 -1 578 -4.2356428457424045e-04</internalNodes>
          <leafValues>
            -2.3821374773979187e-01 9.5752917230129242e-02</leafValues></_>
        <_>
          <internalNodes>
            0 -1 809 -2.1108593791723251e-02</internalNodes>
          <leafValues>
            3.1165990233421326e-01 -7.5281716883182526e-02</leafValues></_>
        <_>
          <internalNodes>
            0 -1 923 6.9876299239695072e-03</internalNodes>
          <leafValues>
            -8.7351746857166290e-02 2.7788966894149780e-01</leafValues></_>
        <_>
          <internalNodes>
            0 -1 767 1.8215723335742950e-02</internalNodes>
          <leafValues>
            -8.9529417455196381e-02 2.8802707791328430e-01</leafValues></_>
        <_>
          <internalNodes>
            0 -1 355 -1.1691038496792316e-02</internalNodes>
          <leafValues>
            2.2028754651546478e-01 -1.0470456629991531e-01</leafValues></_>
        <_>
          <internalNodes>
            0 -1 466 1.7225876450538635e-02</internalNodes>
          <leafValues>
            3.2024044543504715e-02 -7.0936155319213867e-01</leafValues></_>
        <_>
          <internalNodes>
            0 -1 88 -8.8710412383079529e-03</internalNodes>
          <leafValues>
            2.7487522363662720e-01 -8.4414981305599213e-02</leafValues></_>
        <_>
          <internalNodes>
            0 -1 0 -2.2326387988869101e-04</internalNodes>
          <leafValues>
            -2.7962794899940491e-01 8.3563253283500671e-02</leafValues></_>
        <_>
          <internalNodes>
            0 -1 608 -1.0000621841754764e-04</internalNodes>
          <leafValues>
            -1.8495878577232361e-01 1.1881623417139053e-01</leafValues></_>
        <_>
          <internalNodes>
            0 -1 595 -9.2784501612186432e-03</internalNodes>
          <leafValues>
            3.0524173378944397e-01 -7.7569067478179932e-02</leafValues></_>
        <_>
          <internalNodes>
            0 -1 201 7.4196361005306244e-02</internalNodes>
          <leafValues>
            -1.5829475224018097e-01 1.5561828017234802e-01</leafValues></_>
        <_>
          <internalNodes>
            0 -1 432 7.7656670473515987e-03</internalNodes>
          <leafValues>
            -4.0346119552850723e-02 6.2148183584213257e-01</leafValues></_>
        <_>
          <internalNodes>
            0 -1 194 -4.9306908622384071e-03</internalNodes>
          <leafValues>
            2.7339649200439453e-01 -7.8771196305751801e-02</leafValues></_>
        <_>
          <internalNodes>
            0 -1 1 1.0053012520074844e-03</internalNodes>
          <leafValues>
            7.5271621346473694e-02 -3.0488783121109009e-01</leafValues></_>
        <_>
          <internalNodes>
            0 -1 696 4.0772929787635803e-03</internalNodes>
          <leafValues>
            -8.5179604589939117e-02 2.6315537095069885e-01</leafValues></_>
        <_>
          <internalNodes>
            0 -1 20 -3.3753779530525208e-01</internalNodes>
          <leafValues>
            -8.8133096694946289e-01 2.5002501904964447e-02</leafValues></_>
        <_>
          <internalNodes>
            0 -1 808 3.5221152007579803e-02</internalNodes>
          <leafValues>
            -6.4100772142410278e-02 3.6483177542686462e-01</leafValues></_>
        <_>
          <internalNodes>
            0 -1 897 -4.9508854746818542e-02</internalNodes>
          <leafValues>
            4.0997055172920227e-01 -5.2181344479322433e-02</leafValues></_>
        <_>
          <internalNodes>
            0 -1 19 2.4114838242530823e-01</internalNodes>
          <leafValues>
            4.2397052049636841e-02 -5.7809543609619141e-01</leafValues></_>
        <_>
          <internalNodes>
            0 -1 840 -8.9391488581895828e-03</internalNodes>
          <leafValues>
            2.3997180163860321e-01 -1.0384231060743332e-01</leafValues></_>
        <_>
          <internalNodes>
            0 -1 755 1.0456892661750317e-02</internalNodes>
          <leafValues>
            5.6626651436090469e-02 -4.6362647414207458e-01</leafValues></_>
        <_>
          <internalNodes>
            0 -1 321 4.0828032069839537e-05</internalNodes>
          <leafValues>
            -1.5773127973079681e-01 1.3857616484165192e-01</leafValues></_>
        <_>
          <internalNodes>
            0 -1 175 2.0838685333728790e-02</internalNodes>
          <leafValues>
            3.1411483883857727e-02 -6.7247337102890015e-01</leafValues></_>
        <_>
          <internalNodes>
            0 -1 439 -2.0538386888802052e-03</internalNodes>
          <leafValues>
            -4.7305345535278320e-01 4.0789190679788589e-02</leafValues></_>
        <_>
          <internalNodes>
            0 -1 636 -2.1434325724840164e-02</internalNodes>
          <leafValues>
            3.1727758049964905e-01 -6.8970367312431335e-02</leafValues></_>
        <_>
          <internalNodes>
            0 -1 727 8.8939666748046875e-03</internalNodes>
          <leafValues>
            -1.1800440400838852e-01 1.9103492796421051e-01</leafValues></_>
        <_>
          <internalNodes>
            0 -1 867 6.3907336443662643e-03</internalNodes>
          <leafValues>
            3.6273337900638580e-02 -5.6685858964920044e-01</leafValues></_>
        <_>
          <internalNodes>
            0 -1 1020 -9.2516129370778799e-04</internalNodes>
          <leafValues>
            -2.2957889735698700e-01 8.6606636643409729e-02</leafValues></_>
        <_>
          <internalNodes>
            0 -1 66 9.1416118666529655e-03</internalNodes>
          <leafValues>
            -5.5019196122884750e-02 3.8506010174751282e-01</leafValues></_>
        <_>
          <internalNodes>
            0 -1 765 -1.1179061606526375e-02</internalNodes>
          <leafValues>
            4.8517778515815735e-01 -3.8759764283895493e-02</leafValues></_>
        <_>
          <internalNodes>
            0 -1 190 -3.4330852213315666e-04</internalNodes>
          <leafValues>
            -2.4811458587646484e-01 8.0565340816974640e-02</leafValues></_>
        <_>
          <internalNodes>
            0 -1 746 -6.3774860464036465e-03</internalNodes>
          <leafValues>
            4.4922116398811340e-01 -4.3798256665468216e-02</leafValues></_>
        <_>
          <internalNodes>
            0 -1 652 -8.7450727820396423e-02</internalNodes>
          <leafValues>
            2.1044953167438507e-01 -9.5116019248962402e-02</leafValues></_>
        <_>
          <internalNodes>
            0 -1 668 7.3331724852323532e-03</internalNodes>
          <leafValues>
            -1.0083451122045517e-01 2.4325497448444366e-01</leafValues></_>
        <_>
          <internalNodes>
            0 -1 345 5.0544884055852890e-02</internalNodes>
          <leafValues>
            -6.4061537384986877e-02 3.8082301616668701e-01</leafValues></_>
        <_>
          <internalNodes>
            0 -1 516 -2.8924585785716772e-04</internalNodes>
          <leafValues>
            -2.1545627713203430e-01 1.2561018764972687e-01</leafValues></_>
        <_>
          <internalNodes>
            0 -1 1028 -3.6142566241323948e-03</internalNodes>
          <leafValues>
            2.2252431511878967e-01 -1.0192157328128815e-01</leafValues></_>
        <_>
          <internalNodes>
            0 -1 330 -2.5754901580512524e-03</internalNodes>
          <leafValues>
            2.1562312543392181e-01 -9.9440276622772217e-02</leafValues></_>
        <_>
          <internalNodes>
            0 -1 717 -2.6730482932180166e-04</internalNodes>
          <leafValues>
            -1.8941886723041534e-01 1.1027962714433670e-01</leafValues></_>
        <_>
          <internalNodes>
            0 -1 719 -1.9073093426413834e-04</internalNodes>
          <leafValues>
            -1.7523659765720367e-01 1.1646697670221329e-01</leafValues></_>
        <_>
          <internalNodes>
            0 -1 714 -1.0660379484761506e-04</internalNodes>
          <leafValues>
            -1.7831298708915710e-01 1.2004937231540680e-01</leafValues></_></weakClassifiers></_>
    <!-- stage 6 -->
    <_>
      <maxWeakCount>60</maxWeakCount>
      <stageThreshold>-1.4406681060791016e+00</stageThreshold>
      <weakClassifiers>
        <_>
          <internalNodes>
            0 -1 48 1.7578832805156708e-02</internalNodes>
          <leafValues>
            -5.9334719181060791e-01 -3.5924765467643738e-01</leafValues></_>
        <_>
          <internalNodes>
            0 -1 137 1.3453710125759244e-03</internalNodes>
          <leafValues>
            -1.6635607182979584e-01 1.5266054868698120e-01</leafValues></_>
        <_>
          <internalNodes>
            0 -1 190 7.7721418347209692e-04</internalNodes>
          <leafValues>
            7.3897831141948700e-02 -3.0682352185249329e-01</leafValues></_>
        <_>
          <internalNodes>
            0 -1 1032 -1.9101926591247320e-03</internalNodes>
          <leafValues>
            2.3279753327369690e-01 -7.5447946786880493e-02</leafValues></_>
        <_>
          <internalNodes>
            0 -1 1030 4.4161854311823845e-03</internalNodes>
          <leafValues>
            -8.2492858171463013e-02 2.6284462213516235e-01</leafValues></_>
        <_>
          <internalNodes>
            0 -1 190 -5.9761361626442522e-05</internalNodes>
          <leafValues>
            -2.0062205195426941e-01 1.2269318848848343e-01</leafValues></_>
        <_>
          <internalNodes>
            0 -1 425 8.1416219472885132e-03</internalNodes>
          <leafValues>
            2.5399511680006981e-02 -5.4159158468246460e-01</leafValues></_>
        <_>
          <internalNodes>
            0 -1 435 -1.1909850873053074e-02</internalNodes>
          <leafValues>
            3.0060049891471863e-01 -8.1784717738628387e-02</leafValues></_>
        <_>
          <internalNodes>
            0 -1 108 1.1905675753951073e-02</internalNodes>
          <leafValues>
            7.7387042343616486e-02 -4.1726738214492798e-01</leafValues></_>
        <_>
          <internalNodes>
            0 -1 372 -4.1081854142248631e-03</internalNodes>
          <leafValues>
            1.9183628261089325e-01 -1.3572256267070770e-01</leafValues></_>
        <_>
          <internalNodes>
            0 -1 672 -4.8250529915094376e-02</internalNodes>
          <leafValues>
            1.5421091020107269e-01 -1.5364618599414825e-01</leafValues></_>
        <_>
          <internalNodes>
            0 -1 227 -3.7121737003326416e-01</internalNodes>
          <leafValues>
            -5.8055311441421509e-01 3.8872860372066498e-02</leafValues></_>
        <_>
          <internalNodes>
            0 -1 61 2.7351272106170654e-01</internalNodes>
          <leafValues>
            2.7609162032604218e-02 -7.9025524854660034e-01</leafValues></_>
        <_>
          <internalNodes>
            0 -1 542 8.5662808269262314e-03</internalNodes>
          <leafValues>
            -1.2749044597148895e-01 1.7851915955543518e-01</leafValues></_>
        <_>
          <internalNodes>
            0 -1 339 1.6093917191028595e-02</internalNodes>
          <leafValues>
            -1.0566362738609314e-01 2.1448044478893280e-01</leafValues></_>
        <_>
          <internalNodes>
            0 -1 591 -1.9619046151638031e-01</internalNodes>
          <leafValues>
            -7.1055328845977783e-01 3.6234587430953979e-02</leafValues></_>
        <_>
          <internalNodes>
            0 -1 590 -5.0193341448903084e-03</internalNodes>
          <leafValues>
            1.3858529925346375e-01 -1.7195761203765869e-01</leafValues></_>
        <_>
          <internalNodes>
            0 -1 772 -3.2174130319617689e-04</internalNodes>
          <leafValues>
            -1.9695530831813812e-01 1.1108422279357910e-01</leafValues></_>
        <_>
          <internalNodes>
            0 -1 623 -3.2191336154937744e-02</internalNodes>
          <leafValues>
            3.8962659239768982e-01 -6.7859403789043427e-02</leafValues></_>
        <_>
          <internalNodes>
            0 -1 872 -6.9411314325407147e-04</internalNodes>
          <leafValues>
            -2.7182888984680176e-01 8.0441318452358246e-02</leafValues></_>
        <_>
          <internalNodes>
            0 -1 872 1.1273824202362448e-04</internalNodes>
          <leafValues>
            1.1231399327516556e-01 -2.3321206867694855e-01</leafValues></_>
        <_>
          <internalNodes>
            0 -1 430 -7.9379994422197342e-03</internalNodes>
          <leafValues>
            2.1692690253257751e-01 -1.0041544586420059e-01</leafValues></_>
        <_>
          <internalNodes>
            0 -1 597 -6.4744366682134569e-05</internalNodes>
          <leafValues>
            -1.8920698761940002e-01 1.1438713967800140e-01</leafValues></_>
        <_>
          <internalNodes>
            0 -1 338 -1.6391307115554810e-02</internalNodes>
          <leafValues>
            3.4752425551414490e-01 -6.2355473637580872e-02</leafValues></_>
        <_>
          <internalNodes>
            0 -1 125 -1.4122201502323151e-01</internalNodes>
          <leafValues>
            -4.1914471983909607e-01 4.9775846302509308e-02</leafValues></_>
        <_>
          <internalNodes>
            0 -1 84 6.0090366750955582e-03</internalNodes>
          <leafValues>
            -1.1300673335790634e-01 1.8532022833824158e-01</leafValues></_>
        <_>
          <internalNodes>
            0 -1 187 2.0944527350366116e-03</internalNodes>
          <leafValues>
            5.2585903555154800e-02 -4.2642483115196228e-01</leafValues></_>
        <_>
          <internalNodes>
            0 -1 187 -1.7504487186670303e-03</internalNodes>
          <leafValues>
            -4.1900247335433960e-01 5.0977773964405060e-02</leafValues></_>
        <_>
          <internalNodes>
            0 -1 775 -1.6850031912326813e-02</internalNodes>
          <leafValues>
            2.8817623853683472e-01 -8.0226831138134003e-02</leafValues></_>
        <_>
          <internalNodes>
            0 -1 538 -5.7856035709846765e-05</internalNodes>
          <leafValues>
            -1.8618172407150269e-01 1.2632885575294495e-01</leafValues></_>
        <_>
          <internalNodes>
            0 -1 665 -3.1955823302268982e-02</internalNodes>
          <leafValues>
            2.7266186475753784e-01 -8.6576171219348907e-02</leafValues></_>
        <_>
          <internalNodes>
            0 -1 508 -4.5859924284741282e-05</internalNodes>
          <leafValues>
            -1.7622357606887817e-01 1.2162648886442184e-01</leafValues></_>
        <_>
          <internalNodes>
            0 -1 176 -1.8798657692968845e-03</internalNodes>
          <leafValues>
            2.7266058325767517e-01 -7.6376833021640778e-02</leafValues></_>
        <_>
          <internalNodes>
            0 -1 414 -2.1457742899656296e-02</internalNodes>
          <leafValues>
            2.4988020956516266e-01 -8.5628040134906769e-02</leafValues></_>
        <_>
          <internalNodes>
            0 -1 155 -4.1506774723529816e-03</internalNodes>
          <leafValues>
            2.0176202058792114e-01 -1.0231824964284897e-01</leafValues></_>
        <_>
          <internalNodes>
            0 -1 154 2.2206522990018129e-03</internalNodes>
          <leafValues>
            -1.2633052468299866e-01 1.6823667287826538e-01</leafValues></_>
        <_>
          <internalNodes>
            0 -1 149 5.5570565164089203e-03</internalNodes>
          <leafValues>
            3.8643036037683487e-02 -5.5708676576614380e-01</leafValues></_>
        <_>
          <internalNodes>
            0 -1 949 -8.4840562194585800e-03</internalNodes>
          <leafValues>
            1.6761735081672668e-01 -1.2561284005641937e-01</leafValues></_>
        <_>
          <internalNodes>
            0 -1 1024 -5.4889628663659096e-03</internalNodes>
          <leafValues>
            2.4692350625991821e-01 -8.4138847887516022e-02</leafValues></_>
        <_>
          <internalNodes>
            0 -1 1049 3.3975113183259964e-04</internalNodes>
          <leafValues>
            9.7997941076755524e-02 -2.0240192115306854e-01</leafValues></_>
        <_>
          <internalNodes>
            0 -1 909 7.1093067526817322e-03</internalNodes>
          <leafValues>
            3.5638216882944107e-02 -5.4116594791412354e-01</leafValues></_>
        <_>
          <internalNodes>
            0 -1 733 1.8456956371665001e-02</internalNodes>
          <leafValues>
            -9.1458693146705627e-02 2.6025870442390442e-01</leafValues></_>
        <_>
          <internalNodes>
            0 -1 826 1.3104208046570420e-03</internalNodes>
          <leafValues>
            7.3683515191078186e-02 -3.6542364954948425e-01</leafValues></_>
        <_>
          <internalNodes>
            0 -1 382 -7.4942843057215214e-03</internalNodes>
          <leafValues>
            3.5892617702484131e-01 -5.7454515248537064e-02</leafValues></_>
        <_>
          <internalNodes>
            0 -1 935 -1.5128139057196677e-04</internalNodes>
          <leafValues>
            -1.6303719580173492e-01 1.2182342261075974e-01</leafValues></_>
        <_>
          <internalNodes>
            0 -1 79 -2.5804592296481133e-03</internalNodes>
          <leafValues>
            2.8367081284523010e-01 -7.3074392974376678e-02</leafValues></_>
        <_>
          <internalNodes>
            0 -1 644 6.8023771746084094e-04</internalNodes>
          <leafValues>
            -1.2591783702373505e-01 1.6710217297077179e-01</leafValues></_>
        <_>
          <internalNodes>
            0 -1 683 -3.3470737980678678e-04</internalNodes>
          <leafValues>
            -2.0420648157596588e-01 1.0032244026660919e-01</leafValues></_>
        <_>
          <internalNodes>
            0 -1 673 2.0419664680957794e-02</internalNodes>
          <leafValues>
            3.1720861792564392e-02 -6.4107900857925415e-01</leafValues></_>
        <_>
          <internalNodes>
            0 -1 868 3.1842533499002457e-03</internalNodes>
          <leafValues>
            -8.5675112903118134e-02 2.4143756926059723e-01</leafValues></_>
        <_>
          <internalNodes>
            0 -1 364 -1.1463332921266556e-02</internalNodes>
          <leafValues>
            -4.9669635295867920e-01 4.1423153132200241e-02</leafValues></_>
        <_>
          <internalNodes>
            0 -1 769 -8.6860507726669312e-03</internalNodes>
          <leafValues>
            3.4895583987236023e-01 -5.7401306927204132e-02</leafValues></_>
        <_>
          <internalNodes>
            0 -1 853 -9.8656862974166870e-02</internalNodes>
          <leafValues>
            1.3730503618717194e-01 -1.3338254392147064e-01</leafValues></_>
        <_>
          <internalNodes>
            0 -1 541 8.5380915552377701e-03</internalNodes>
          <leafValues>
            -8.2646518945693970e-02 2.5182110071182251e-01</leafValues></_>
        <_>
          <internalNodes>
            0 -1 551 -4.8975882236845791e-05</internalNodes>
          <leafValues>
            -1.7258691787719727e-01 1.1825235933065414e-01</leafValues></_>
        <_>
          <internalNodes>
            0 -1 496 -4.9158455803990364e-03</internalNodes>
          <leafValues>
            2.6024359464645386e-01 -7.6680168509483337e-02</leafValues></_>
        <_>
          <internalNodes>
            0 -1 497 -8.0072470009326935e-03</internalNodes>
          <leafValues>
            2.2265654802322388e-01 -8.5470102727413177e-02</leafValues></_>
        <_>
          <internalNodes>
            0 -1 481 3.5538496449589729e-03</internalNodes>
          <leafValues>
            -7.4912674725055695e-02 2.4859143793582916e-01</leafValues></_>
        <_>
          <internalNodes>
            0 -1 318 -1.6078506596386433e-03</internalNodes>
          <leafValues>
            1.8946018815040588e-01 -1.1692176014184952e-01</leafValues></_>
        <_>
          <internalNodes>
            0 -1 607 -1.0025184019468725e-04</internalNodes>
          <leafValues>
            -1.9222646951675415e-01 1.1321473121643066e-01</leafValues></_></weakClassifiers></_>
    <!-- stage 7 -->
    <_>
      <maxWeakCount>59</maxWeakCount>
      <stageThreshold>-1.3028784990310669e+00</stageThreshold>
      <weakClassifiers>
        <_>
          <internalNodes>
            0 -1 297 2.0019152760505676e-01</internalNodes>
          <leafValues>
            -5.1461243629455566e-01 3.8461539149284363e-01</leafValues></_>
        <_>
          <internalNodes>
            0 -1 615 -6.9983907043933868e-02</internalNodes>
          <leafValues>
            1.0385167598724365e-01 -1.8710058927536011e-01</leafValues></_>
        <_>
          <internalNodes>
            0 -1 589 -1.1261409148573875e-02</internalNodes>
          <leafValues>
            3.2788336277008057e-01 -6.2813878059387207e-02</leafValues></_>
        <_>
          <internalNodes>
            0 -1 112 6.8268151953816414e-03</internalNodes>
          <leafValues>
            -6.9617517292499542e-02 2.8080162405967712e-01</leafValues></_>
        <_>
          <internalNodes>
            0 -1 119 -5.2898279391229153e-03</internalNodes>
          <leafValues>
            3.0738583207130432e-01 -6.4955040812492371e-02</leafValues></_>
        <_>
          <internalNodes>
            0 -1 1013 1.0319238062947989e-03</internalNodes>
          <leafValues>
            5.4445277899503708e-02 -3.7071350216865540e-01</leafValues></_>
        <_>
          <internalNodes>
            0 -1 1013 1.1148006888106465e-03</internalNodes>
          <leafValues>
            -2.8985890094190836e-04 6.0728853940963745e-01</leafValues></_>
        <_>
          <internalNodes>
            0 -1 1013 1.0486205574125051e-03</internalNodes>
          <leafValues>
            1.0815497953444719e-03 -5.4530668258666992e-01</leafValues></_>
        <_>
          <internalNodes>
            0 -1 877 9.0663414448499680e-03</internalNodes>
          <leafValues>
            -6.6268309950828552e-02 2.4090750515460968e-01</leafValues></_>
        <_>
          <internalNodes>
            0 -1 560 -1.4496206305921078e-02</internalNodes>
          <leafValues>
            3.5430264472961426e-01 -5.9653121978044510e-02</leafValues></_>
        <_>
          <internalNodes>
            0 -1 446 4.8543848097324371e-02</internalNodes>
          <leafValues>
            -1.5071408450603485e-01 1.2378897517919540e-01</leafValues></_>
        <_>
          <internalNodes>
            0 -1 389 -7.1944162249565125e-02</internalNodes>
          <leafValues>
            2.2242338955402374e-01 -8.4705069661140442e-02</leafValues></_>
        <_>
          <internalNodes>
            0 -1 133 1.2232113629579544e-02</internalNodes>
          <leafValues>
            -1.2363839894533157e-01 1.8585719168186188e-01</leafValues></_>
        <_>
          <internalNodes>
            0 -1 1035 -3.3734631724655628e-03</internalNodes>
          <leafValues>
            3.8068294525146484e-01 -5.4268807172775269e-02</leafValues></_>
        <_>
          <internalNodes>
            0 -1 36 -4.3141819536685944e-02</internalNodes>
          <leafValues>
            -7.3378962278366089e-01 3.3096853643655777e-02</leafValues></_>
        <_>
          <internalNodes>
            0 -1 723 -1.7090003530029207e-04</internalNodes>
          <leafValues>
            -1.6557773947715759e-01 1.0950209945440292e-01</leafValues></_>
        <_>
          <internalNodes>
            0 -1 358 3.8726611819583923e-05</internalNodes>
          <leafValues>
            -1.3326060771942139e-01 1.3341590762138367e-01</leafValues></_>
        <_>
          <internalNodes>
            0 -1 1023 8.6888596415519714e-03</internalNodes>
          <leafValues>
            -7.6845638453960419e-02 2.5484922528266907e-01</leafValues></_>
        <_>
          <internalNodes>
            0 -1 664 -1.0082671360578388e-04</internalNodes>
          <leafValues>
            -1.7961463332176208e-01 1.1000250279903412e-01</leafValues></_>
        <_>
          <internalNodes>
            0 -1 977 -5.4448074661195278e-04</internalNodes>
          <leafValues>
            -2.5646558403968811e-01 7.1338854730129242e-02</leafValues></_>
        <_>
          <internalNodes>
            0 -1 978 -4.0880331653170288e-05</internalNodes>
          <leafValues>
            1.5822835266590118e-01 -1.7152927815914154e-01</leafValues></_>
        <_>
          <internalNodes>
            0 -1 171 -4.4162431731820107e-03</internalNodes>
          <leafValues>
            2.4649703502655029e-01 -7.5984232127666473e-02</leafValues></_>
        <_>
          <internalNodes>
            0 -1 953 -3.1296624802052975e-03</internalNodes>
          <leafValues>
            4.0715351700782776e-01 -4.6135582029819489e-02</leafValues></_>
        <_>
          <internalNodes>
            0 -1 492 -5.5738743394613266e-03</internalNodes>
          <leafValues>
            2.6924109458923340e-01 -6.7678220570087433e-02</leafValues></_>
        <_>
          <internalNodes>
            0 -1 1039 1.9973611051682383e-04</internalNodes>
          <leafValues>
            9.3037918210029602e-02 -2.0474129915237427e-01</leafValues></_>
        <_>
          <internalNodes>
            0 -1 904 9.5606967806816101e-03</internalNodes>
          <leafValues>
            4.1539203375577927e-02 -4.8076608777046204e-01</leafValues></_>
        <_>
          <internalNodes>
            0 -1 967 -1.3903737068176270e-02</internalNodes>
          <leafValues>
            4.3275156617164612e-01 -4.8127014189958572e-02</leafValues></_>
        <_>
          <internalNodes>
            0 -1 933 -4.0656320750713348e-02</internalNodes>
          <leafValues>
            3.4402480721473694e-01 -6.2662668526172638e-02</leafValues></_>
        <_>
          <internalNodes>
            0 -1 11 1.9309782981872559e-01</internalNodes>
          <leafValues>
            2.2483374923467636e-02 -8.4945684671401978e-01</leafValues></_>
        <_>
          <internalNodes>
            0 -1 782 -5.5677170166745782e-04</internalNodes>
          <leafValues>
            -2.1849669516086578e-01 7.7768512070178986e-02</leafValues></_>
        <_>
          <internalNodes>
            0 -1 142 4.3522724881768227e-03</internalNodes>
          <leafValues>
            -1.0376058518886566e-01 1.6895249485969543e-01</leafValues></_>
        <_>
          <internalNodes>
            0 -1 845 -5.4718588216928765e-05</internalNodes>
          <leafValues>
            -1.7558982968330383e-01 1.0484246164560318e-01</leafValues></_>
        <_>
          <internalNodes>
            0 -1 308 4.3819835409522057e-03</internalNodes>
          <leafValues>
            4.6338882297277451e-02 -3.8539659976959229e-01</leafValues></_>
        <_>
          <internalNodes>
            0 -1 558 -1.9508561119437218e-02</internalNodes>
          <leafValues>
            3.4638836979866028e-01 -5.9811126440763474e-02</leafValues></_>
        <_>
          <internalNodes>
            0 -1 340 -1.9955185055732727e-01</internalNodes>
          <leafValues>
            -6.1729723215103149e-01 3.1769398599863052e-02</leafValues></_>
        <_>
          <internalNodes>
            0 -1 824 -5.9559784131124616e-04</internalNodes>
          <leafValues>
            -2.3539894819259644e-01 7.4143320322036743e-02</leafValues></_>
        <_>
          <internalNodes>
            0 -1 585 4.7594038769602776e-03</internalNodes>
          <leafValues>
            -8.1199407577514648e-02 2.3809619247913361e-01</leafValues></_>
        <_>
          <internalNodes>
            0 -1 1013 -1.7333101714029908e-03</internalNodes>
          <leafValues>
            -3.9408233761787415e-01 4.8131249845027924e-02</leafValues></_>
        <_>
          <internalNodes>
            0 -1 951 6.2729716300964355e-03</internalNodes>
          <leafValues>
            -1.0741014033555984e-01 1.8173243105411530e-01</leafValues></_>
        <_>
          <internalNodes>
            0 -1 988 -2.3241552989929914e-03</internalNodes>
          <leafValues>
            2.0993603765964508e-01 -1.0052061825990677e-01</leafValues></_>
        <_>
          <internalNodes>
            0 -1 269 4.6784046571701765e-04</internalNodes>
          <leafValues>
            -1.4419266581535339e-01 1.4133608341217041e-01</leafValues></_>
        <_>
          <internalNodes>
            0 -1 552 -2.9167026281356812e-02</internalNodes>
          <leafValues>
            1.5132477879524231e-01 -1.2108410149812698e-01</leafValues></_>
        <_>
          <internalNodes>
            0 -1 504 -3.9693139493465424e-02</internalNodes>
          <leafValues>
            4.4370424747467041e-01 -6.0849733650684357e-02</leafValues></_>
        <_>
          <internalNodes>
            0 -1 408 -1.5632012218702585e-04</internalNodes>
          <leafValues>
            -1.8739892542362213e-01 1.0347489267587662e-01</leafValues></_>
        <_>
          <internalNodes>
            0 -1 518 1.1825910210609436e-01</internalNodes>
          <leafValues>
            -3.3924393355846405e-02 6.2536948919296265e-01</leafValues></_>
        <_>
          <internalNodes>
            0 -1 223 5.2260067313909531e-03</internalNodes>
          <leafValues>
            -9.2796593904495239e-02 2.0517648756504059e-01</leafValues></_>
        <_>
          <internalNodes>
            0 -1 120 3.7561147473752499e-03</internalNodes>
          <leafValues>
            -1.0656419396400452e-01 1.6979512572288513e-01</leafValues></_>
        <_>
          <internalNodes>
            0 -1 423 -4.5829517766833305e-03</internalNodes>
          <leafValues>
            -3.2907855510711670e-01 5.4638419300317764e-02</leafValues></_>
        <_>
          <internalNodes>
            0 -1 436 -8.4268506616353989e-03</internalNodes>
          <leafValues>
            2.1709989011287689e-01 -8.6507901549339294e-02</leafValues></_>
        <_>
          <internalNodes>
            0 -1 480 -1.3169548474252224e-03</internalNodes>
          <leafValues>
            -2.3266342282295227e-01 8.0313719809055328e-02</leafValues></_>
        <_>
          <internalNodes>
            0 -1 637 -4.2180363379884511e-05</internalNodes>
          <leafValues>
            1.1542864888906479e-01 -1.5591639280319214e-01</leafValues></_>
        <_>
          <internalNodes>
            0 -1 631 -2.4085077457129955e-03</internalNodes>
          <leafValues>
            1.6453760862350464e-01 -1.0166239738464355e-01</leafValues></_>
        <_>
          <internalNodes>
            0 -1 273 2.2152832150459290e-01</internalNodes>
          <leafValues>
            3.2138377428054810e-02 -5.5953663587570190e-01</leafValues></_>
        <_>
          <internalNodes>
            0 -1 375 -1.8092340324074030e-03</internalNodes>
          <leafValues>
            -4.6037042140960693e-01 3.6454800516366959e-02</leafValues></_>
        <_>
          <internalNodes>
            0 -1 925 5.2847582846879959e-03</internalNodes>
          <leafValues>
            -6.9337360560894012e-02 2.8994151949882507e-01</leafValues></_>
        <_>
          <internalNodes>
            0 -1 507 -3.1818121671676636e-01</internalNodes>
          <leafValues>
            1.8278805911540985e-01 -1.0921496897935867e-01</leafValues></_>
        <_>
          <internalNodes>
            0 -1 78 -6.4132952690124512e-01</internalNodes>
          <leafValues>
            -4.7892981767654419e-01 4.3092969805002213e-02</leafValues></_>
        <_>
          <internalNodes>
            0 -1 150 3.2414169982075691e-03</internalNodes>
          <leafValues>
            -8.9030258357524872e-02 2.1125887334346771e-01</leafValues></_>
        <_>
          <internalNodes>
            0 -1 300 8.4578186273574829e-02</internalNodes>
          <leafValues>
            -3.0851108953356743e-02 5.9891796112060547e-01</leafValues></_></weakClassifiers></_>
    <!-- stage 8 -->
    <_>
      <maxWeakCount>64</maxWeakCount>
      <stageThreshold>-1.2816394567489624e+00</stageThreshold>
      <weakClassifiers>
        <_>
          <internalNodes>
            0 -1 387 1.3536653481423855e-02</internalNodes>
          <leafValues>
            -5.7358622550964355e-01 -3.1830009818077087e-01</leafValues></_>
        <_>
          <internalNodes>
            0 -1 323 -4.6356897801160812e-03</internalNodes>
          <leafValues>
            2.3843352496623993e-01 -1.1354856193065643e-01</leafValues></_>
        <_>
          <internalNodes>
            0 -1 998 4.1627008467912674e-02</internalNodes>
          <leafValues>
            3.3359963446855545e-02 -5.1493608951568604e-01</leafValues></_>
        <_>
          <internalNodes>
            0 -1 998 4.1121564805507660e-02</internalNodes>
          <leafValues>
            -2.8096705209463835e-03 9.1184437274932861e-01</leafValues></_>
        <_>
          <internalNodes>
            0 -1 998 4.1627008467912674e-02</internalNodes>
          <leafValues>
            1.0938220657408237e-04 -7.4708807468414307e-01</leafValues></_>
        <_>
          <internalNodes>
            0 -1 998 4.2859319597482681e-02</internalNodes>
          <leafValues>
            -4.0796914254315197e-04 9.4612997770309448e-01</leafValues></_>
        <_>
          <internalNodes>
            0 -1 998 4.1632384061813354e-02</internalNodes>
          <leafValues>
            4.0796911343932152e-04 -8.1449526548385620e-01</leafValues></_>
        <_>
          <internalNodes>
            0 -1 1044 1.4168311608955264e-03</internalNodes>
          <leafValues>
            5.3134780377149582e-02 -3.3532357215881348e-01</leafValues></_>
        <_>
          <internalNodes>
            0 -1 1044 3.8433296140283346e-05</internalNodes>
          <leafValues>
            -1.2804453074932098e-01 1.8184337019920349e-01</leafValues></_>
        <_>
          <internalNodes>
            0 -1 1005 2.5995378382503986e-03</internalNodes>
          <leafValues>
            -7.8332751989364624e-02 2.5150990486145020e-01</leafValues></_>
        <_>
          <internalNodes>
            0 -1 1036 -1.0457958560436964e-03</internalNodes>
          <leafValues>
            -2.3784993588924408e-01 6.0780726373195648e-02</leafValues></_>
        <_>
          <internalNodes>
            0 -1 938 1.4325636439025402e-03</internalNodes>
          <leafValues>
            5.8117140084505081e-02 -3.1043156981468201e-01</leafValues></_>
        <_>
          <internalNodes>
            0 -1 937 5.7033437769860029e-04</internalNodes>
          <leafValues>
            -1.2067361176013947e-01 1.7396679520606995e-01</leafValues></_>
        <_>
          <internalNodes>
            0 -1 22 -1.7203114926815033e-01</internalNodes>
          <leafValues>
            -5.4519611597061157e-01 3.9626222103834152e-02</leafValues></_>
        <_>
          <internalNodes>
            0 -1 601 -1.8784347921609879e-02</internalNodes>
          <leafValues>
            2.2250865399837494e-01 -8.3094708621501923e-02</leafValues></_>
        <_>
          <internalNodes>
            0 -1 711 4.2512910440564156e-03</internalNodes>
          <leafValues>
            -8.3328500390052795e-02 2.1623960137367249e-01</leafValues></_>
        <_>
          <internalNodes>
            0 -1 2 -1.4500475663226098e-04</internalNodes>
          <leafValues>
            -1.8123507499694824e-01 9.2787958681583405e-02</leafValues></_>
        <_>
          <internalNodes>
            0 -1 2 6.6545011941343546e-04</internalNodes>
          <leafValues>
            8.5096701979637146e-02 -2.9223912954330444e-01</leafValues></_>
        <_>
          <internalNodes>
            0 -1 5 1.9852332770824432e-02</internalNodes>
          <leafValues>
            -7.0702947676181793e-02 2.8869080543518066e-01</leafValues></_>
        <_>
          <internalNodes>
            0 -1 513 2.0725494250655174e-02</internalNodes>
          <leafValues>
            -6.7496679723262787e-02 2.8627794981002808e-01</leafValues></_>
        <_>
          <internalNodes>
            0 -1 146 -8.8221719488501549e-03</internalNodes>
          <leafValues>
            -3.9806830883026123e-01 4.9816127866506577e-02</leafValues></_>
        <_>
          <internalNodes>
            0 -1 530 1.9639410078525543e-02</internalNodes>
          <leafValues>
            1.6151493415236473e-02 -8.5562735795974731e-01</leafValues></_>
        <_>
          <internalNodes>
            0 -1 471 -4.1397466702619568e-05</internalNodes>
          <leafValues>
            1.1181017011404037e-01 -1.4648267626762390e-01</leafValues></_>
        <_>
          <internalNodes>
            0 -1 502 3.8805904332548380e-03</internalNodes>
          <leafValues>
            -9.3780457973480225e-02 1.8991887569427490e-01</leafValues></_>
        <_>
          <internalNodes>
            0 -1 394 1.8980741500854492e-02</internalNodes>
          <leafValues>
            -6.0635179281234741e-02 3.1529757380485535e-01</leafValues></_>
        <_>
          <internalNodes>
            0 -1 987 6.1764055863022804e-03</internalNodes>
          <leafValues>
            -5.8483719825744629e-02 3.2602256536483765e-01</leafValues></_>
        <_>
          <internalNodes>
            0 -1 917 4.3402571463957429e-04</internalNodes>
          <leafValues>
            6.9055862724781036e-02 -2.8835576772689819e-01</leafValues></_>
        <_>
          <internalNodes>
            0 -1 917 -1.5008299669716507e-04</internalNodes>
          <leafValues>
            -1.9094857573509216e-01 1.1758687347173691e-01</leafValues></_>
        <_>
          <internalNodes>
            0 -1 384 1.8754728138446808e-02</internalNodes>
          <leafValues>
            -1.4812465012073517e-01 1.3317613303661346e-01</leafValues></_>
        <_>
          <internalNodes>
            0 -1 729 4.4864807277917862e-03</internalNodes>
          <leafValues>
            -9.3485958874225616e-02 2.1149674057960510e-01</leafValues></_>
        <_>
          <internalNodes>
            0 -1 307 2.4500321596860886e-02</internalNodes>
          <leafValues>
            -5.9922691434621811e-02 2.9630923271179199e-01</leafValues></_>
        <_>
          <internalNodes>
            0 -1 454 -1.4386204071342945e-02</internalNodes>
          <leafValues>
            1.4191666245460510e-01 -1.4656133949756622e-01</leafValues></_>
        <_>
          <internalNodes>
            0 -1 993 -1.8849837360903621e-03</internalNodes>
          <leafValues>
            2.7752628922462463e-01 -7.1044117212295532e-02</leafValues></_>
        <_>
          <internalNodes>
            0 -1 478 -4.1368992242496461e-05</internalNodes>
          <leafValues>
            1.2465722113847733e-01 -1.4134599268436432e-01</leafValues></_>
        <_>
          <internalNodes>
            0 -1 842 -5.6062135845422745e-03</internalNodes>
          <leafValues>
            2.4275335669517517e-01 -7.3053814470767975e-02</leafValues></_>
        <_>
          <internalNodes>
            0 -1 801 4.8984833993017673e-03</internalNodes>
          <leafValues>
            -7.5099870562553406e-02 2.4052186310291290e-01</leafValues></_>
        <_>
          <internalNodes>
            0 -1 511 -1.0263473086524755e-04</internalNodes>
          <leafValues>
            -1.6270680725574493e-01 1.0514122247695923e-01</leafValues></_>
        <_>
          <internalNodes>
            0 -1 929 1.3777017593383789e-02</internalNodes>
          <leafValues>
            3.6067090928554535e-02 -4.5273691415786743e-01</leafValues></_>
        <_>
          <internalNodes>
            0 -1 907 9.7316515166312456e-04</internalNodes>
          <leafValues>
            -1.0159065574407578e-01 1.6161128878593445e-01</leafValues></_>
        <_>
          <internalNodes>
            0 -1 356 3.4030403941869736e-02</internalNodes>
          <leafValues>
            2.3574151098728180e-02 -6.8135643005371094e-01</leafValues></_>
        <_>
          <internalNodes>
            0 -1 302 -1.6468148678541183e-03</internalNodes>
          <leafValues>
            -2.1199414134025574e-01 7.6047569513320923e-02</leafValues></_>
        <_>
          <internalNodes>
            0 -1 134 1.5132039785385132e-02</internalNodes>
          <leafValues>
            3.0102314427495003e-02 -6.1278396844863892e-01</leafValues></_>
        <_>
          <internalNodes>
            0 -1 174 -2.7119403705000877e-02</internalNodes>
          <leafValues>
            2.4561887979507446e-01 -7.8435428440570831e-02</leafValues></_>
        <_>
          <internalNodes>
            0 -1 680 -1.8481768667697906e-02</internalNodes>
          <leafValues>
            2.9164621233940125e-01 -6.5681926906108856e-02</leafValues></_>
        <_>
          <internalNodes>
            0 -1 179 -7.5367651879787445e-02</internalNodes>
          <leafValues>
            -4.7451937198638916e-01 4.0636967867612839e-02</leafValues></_>
        <_>
          <internalNodes>
            0 -1 299 -1.9943179562687874e-02</internalNodes>
          <leafValues>
            1.6024199128150940e-01 -1.1410152912139893e-01</leafValues></_>
        <_>
          <internalNodes>
            0 -1 335 9.8649058490991592e-03</internalNodes>
          <leafValues>
            -9.5792435109615326e-02 2.3928233981132507e-01</leafValues></_>
        <_>
          <internalNodes>
            0 -1 15 7.3426708579063416e-02</internalNodes>
          <leafValues>
            3.0758190900087357e-02 -5.7665342092514038e-01</leafValues></_>
        <_>
          <internalNodes>
            0 -1 574 -2.0392665173858404e-03</internalNodes>
          <leafValues>
            -3.6218342185020447e-01 4.5785505324602127e-02</leafValues></_>
        <_>
          <internalNodes>
            0 -1 123 8.8425334542989731e-03</internalNodes>
          <leafValues>
            6.2700338661670685e-02 -2.6725456118583679e-01</leafValues></_>
        <_>
          <internalNodes>
            0 -1 328 6.7043891176581383e-03</internalNodes>
          <leafValues>
            -1.0888046026229858e-01 1.8495079874992371e-01</leafValues></_>
        <_>
          <internalNodes>
            0 -1 976 2.2929399274289608e-03</internalNodes>
          <leafValues>
            8.1108309328556061e-02 -2.0908996462821960e-01</leafValues></_>
        <_>
          <internalNodes>
            0 -1 703 -9.1233342885971069e-02</internalNodes>
          <leafValues>
            -8.2142543792724609e-01 1.9919510930776596e-02</leafValues></_>
        <_>
          <internalNodes>
            0 -1 800 -1.4855593326501548e-04</internalNodes>
          <leafValues>
            -1.8861134350299835e-01 8.5329830646514893e-02</leafValues></_>
        <_>
          <internalNodes>
            0 -1 38 -4.9701530952006578e-04</internalNodes>
          <leafValues>
            1.6458079218864441e-01 -1.0788078606128693e-01</leafValues></_>
        <_>
          <internalNodes>
            0 -1 81 -2.9725069180130959e-03</internalNodes>
          <leafValues>
            2.3725661635398865e-01 -7.9020135104656219e-02</leafValues></_>
        <_>
          <internalNodes>
            0 -1 749 -6.3716164731886238e-05</internalNodes>
          <leafValues>
            -1.5790392458438873e-01 1.1143661290407181e-01</leafValues></_>
        <_>
          <internalNodes>
            0 -1 650 1.3682582974433899e-01</internalNodes>
          <leafValues>
            2.8350217267870903e-02 -6.0843753814697266e-01</leafValues></_>
        <_>
          <internalNodes>
            0 -1 789 2.6505701243877411e-03</internalNodes>
          <leafValues>
            -7.0155605673789978e-02 2.5752887129783630e-01</leafValues></_>
        <_>
          <internalNodes>
            0 -1 728 -1.7667979700490832e-03</internalNodes>
          <leafValues>
            -2.3279589414596558e-01 7.9614877700805664e-02</leafValues></_>
        <_>
          <internalNodes>
            0 -1 526 -3.4126907587051392e-02</internalNodes>
          <leafValues>
            4.4019809365272522e-01 -4.3836183845996857e-02</leafValues></_>
        <_>
          <internalNodes>
            0 -1 83 -4.8503787256777287e-03</internalNodes>
          <leafValues>
            2.0709556341171265e-01 -8.7692864239215851e-02</leafValues></_>
        <_>
          <internalNodes>
            0 -1 777 -3.4596547484397888e-03</internalNodes>
          <leafValues>
            -2.7382701635360718e-01 7.7453531324863434e-02</leafValues></_>
        <_>
          <internalNodes>
            0 -1 625 2.2657588124275208e-02</internalNodes>
          <leafValues>
            2.7481254190206528e-02 -6.2229454517364502e-01</leafValues></_></weakClassifiers></_>
    <!-- stage 9 -->
    <_>
      <maxWeakCount>69</maxWeakCount>
      <stageThreshold>-1.3476549386978149e+00</stageThreshold>
      <weakClassifiers>
        <_>
          <internalNodes>
            0 -1 274 -2.0007942803204060e-03</internalNodes>
          <leafValues>
            -2.2404371201992035e-01 -5.4390031099319458e-01</leafValues></_>
        <_>
          <internalNodes>
            0 -1 744 1.1611592955887318e-02</internalNodes>
          <leafValues>
            -2.1256516873836517e-01 7.6337873935699463e-02</leafValues></_>
        <_>
          <internalNodes>
            0 -1 81 4.9250843003392220e-03</internalNodes>
          <leafValues>
            -5.4605230689048767e-02 3.1243565678596497e-01</leafValues></_>
        <_>
          <internalNodes>
            0 -1 1017 2.2174212790559977e-04</internalNodes>
          <leafValues>
            8.1102900207042694e-02 -2.1812422573566437e-01</leafValues></_>
        <_>
          <internalNodes>
            0 -1 1017 -5.4688792442902923e-04</internalNodes>
          <leafValues>
            -1.9087962806224823e-01 1.2203574925661087e-01</leafValues></_>
        <_>
          <internalNodes>
            0 -1 1017 -3.6857971281278878e-05</internalNodes>
          <leafValues>
            1.6045384109020233e-01 -1.4982494711875916e-01</leafValues></_>
        <_>
          <internalNodes>
            0 -1 1017 4.2703304643509910e-05</internalNodes>
          <leafValues>
            -1.1942778527736664e-01 1.8701872229576111e-01</leafValues></_>
        <_>
          <internalNodes>
            0 -1 1013 -3.8562677218578756e-05</internalNodes>
          <leafValues>
            1.3910800218582153e-01 -1.2815982103347778e-01</leafValues></_>
        <_>
          <internalNodes>
            0 -1 1014 1.9040962797589600e-04</internalNodes>
          <leafValues>
            7.5146250426769257e-02 -2.1209417283535004e-01</leafValues></_>
        <_>
          <internalNodes>
            0 -1 648 -5.4118661209940910e-03</internalNodes>
          <leafValues>
            2.3775462806224823e-01 -8.0455087125301361e-02</leafValues></_>
        <_>
          <internalNodes>
            0 -1 830 3.8538961671292782e-03</internalNodes>
          <leafValues>
            -5.9342887252569199e-02 2.9396378993988037e-01</leafValues></_>
        <_>
          <internalNodes>
            0 -1 836 -2.9569171601906419e-04</internalNodes>
          <leafValues>
            -1.7633095383644104e-01 1.1684927344322205e-01</leafValues></_>
        <_>
          <internalNodes>
            0 -1 836 3.2797822495922446e-04</internalNodes>
          <leafValues>
            8.0595530569553375e-02 -2.5911512970924377e-01</leafValues></_>
        <_>
          <internalNodes>
            0 -1 196 -5.4325959645211697e-03</internalNodes>
          <leafValues>
            2.1860522031784058e-01 -9.0859197080135345e-02</leafValues></_>
        <_>
          <internalNodes>
            0 -1 720 -2.3136923846323043e-04</internalNodes>
          <leafValues>
            -1.5548965334892273e-01 1.1958806961774826e-01</leafValues></_>
        <_>
          <internalNodes>
            0 -1 837 3.0581350438296795e-04</internalNodes>
          <leafValues>
            -1.2815105915069580e-01 1.3277560472488403e-01</leafValues></_>
        <_>
          <internalNodes>
            0 -1 874 -9.3453247100114822e-03</internalNodes>
          <leafValues>
            -5.3140574693679810e-01 3.2012075185775757e-02</leafValues></_>
        <_>
          <internalNodes>
            0 -1 126 1.2150064110755920e-02</internalNodes>
          <leafValues>
            2.9595447704195976e-02 -4.8645326495170593e-01</leafValues></_>
        <_>
          <internalNodes>
            0 -1 107 5.3651528432965279e-03</internalNodes>
          <leafValues>
            -7.5883068144321442e-02 2.3430998623371124e-01</leafValues></_>
        <_>
          <internalNodes>
            0 -1 158 2.1848632395267487e-01</internalNodes>
          <leafValues>
            1.8970875069499016e-02 -8.9203989505767822e-01</leafValues></_>
        <_>
          <internalNodes>
            0 -1 117 1.5580749139189720e-02</internalNodes>
          <leafValues>
            2.4624373763799667e-02 -5.2653104066848755e-01</leafValues></_>
        <_>
          <internalNodes>
            0 -1 716 -3.7820667028427124e-02</internalNodes>
          <leafValues>
            3.1303122639656067e-01 -5.2451323717832565e-02</leafValues></_>
        <_>
          <internalNodes>
            0 -1 725 -3.7621182855218649e-03</internalNodes>
          <leafValues>
            2.4543575942516327e-01 -7.3268808424472809e-02</leafValues></_>
        <_>
          <internalNodes>
            0 -1 653 -1.7742124199867249e-01</internalNodes>
          <leafValues>
            2.4865020811557770e-01 -6.3071027398109436e-02</leafValues></_>
        <_>
          <internalNodes>
            0 -1 255 2.8363682329654694e-02</internalNodes>
          <leafValues>
            -4.7879509627819061e-02 3.6527711153030396e-01</leafValues></_>
        <_>
          <internalNodes>
            0 -1 469 -1.9154805690050125e-02</internalNodes>
          <leafValues>
            9.1008678078651428e-02 -1.9400295615196228e-01</leafValues></_>
        <_>
          <internalNodes>
            0 -1 316 1.7531302291899920e-03</internalNodes>
          <leafValues>
            -7.8734651207923889e-02 2.4042284488677979e-01</leafValues></_>
        <_>
          <internalNodes>
            0 -1 847 3.5605765879154205e-02</internalNodes>
          <leafValues>
            -5.9327919036149979e-02 2.9467213153839111e-01</leafValues></_>
        <_>
          <internalNodes>
            0 -1 768 -1.1239427840337157e-03</internalNodes>
          <leafValues>
            -2.0823614299297333e-01 7.9900123178958893e-02</leafValues></_>
        <_>
          <internalNodes>
            0 -1 813 7.0741153322160244e-03</internalNodes>
          <leafValues>
            -8.5950158536434174e-02 1.9684760272502899e-01</leafValues></_>
        <_>
          <internalNodes>
            0 -1 211 2.6391780376434326e-01</internalNodes>
          <leafValues>
            3.4135665744543076e-02 -5.0336432456970215e-01</leafValues></_>
        <_>
          <internalNodes>
            0 -1 287 5.6724436581134796e-02</internalNodes>
          <leafValues>
            -5.0396762788295746e-02 3.8977712392807007e-01</leafValues></_>
        <_>
          <internalNodes>
            0 -1 606 2.3353081196546555e-03</internalNodes>
          <leafValues>
            -1.2186709046363831e-01 1.4186330139636993e-01</leafValues></_>
        <_>
          <internalNodes>
            0 -1 464 1.8855437636375427e-02</internalNodes>
          <leafValues>
            -7.6216012239456177e-02 2.4771572649478912e-01</leafValues></_>
        <_>
          <internalNodes>
            0 -1 666 7.8109127935022116e-04</internalNodes>
          <leafValues>
            -1.3570800423622131e-01 1.2574112415313721e-01</leafValues></_>
        <_>
          <internalNodes>
            0 -1 709 5.3121722885407507e-05</internalNodes>
          <leafValues>
            1.0678963363170624e-01 -1.8217451870441437e-01</leafValues></_>
        <_>
          <internalNodes>
            0 -1 1042 -4.3165544047951698e-03</internalNodes>
          <leafValues>
            -4.1617295145988464e-01 3.8150321692228317e-02</leafValues></_>
        <_>
          <internalNodes>
            0 -1 1030 -9.8924394696950912e-03</internalNodes>
          <leafValues>
            3.6763116717338562e-01 -5.4074533283710480e-02</leafValues></_>
        <_>
          <internalNodes>
            0 -1 1037 -7.6811388134956360e-04</internalNodes>
          <leafValues>
            1.6138102114200592e-01 -1.0683996230363846e-01</leafValues></_>
        <_>
          <internalNodes>
            0 -1 376 1.2260058429092169e-03</internalNodes>
          <leafValues>
            6.1301223933696747e-02 -2.6129603385925293e-01</leafValues></_>
        <_>
          <internalNodes>
            0 -1 945 -9.3157459050416946e-03</internalNodes>
          <leafValues>
            2.7887299656867981e-01 -6.1143599450588226e-02</leafValues></_>
        <_>
          <internalNodes>
            0 -1 1008 -3.9785215631127357e-03</internalNodes>
          <leafValues>
            3.4355559945106506e-01 -4.5453719794750214e-02</leafValues></_>
        <_>
          <internalNodes>
            0 -1 26 7.6097948476672173e-04</internalNodes>
          <leafValues>
            7.1071356534957886e-02 -2.1949237585067749e-01</leafValues></_>
        <_>
          <internalNodes>
            0 -1 315 -4.4404750951798633e-05</internalNodes>
          <leafValues>
            1.3364842534065247e-01 -1.2205523997545242e-01</leafValues></_>
        <_>
          <internalNodes>
            0 -1 178 7.8921020030975342e-03</internalNodes>
          <leafValues>
            -9.5981538295745850e-02 2.3045298457145691e-01</leafValues></_>
        <_>
          <internalNodes>
            0 -1 378 1.0764775797724724e-03</internalNodes>
          <leafValues>
            -1.1467494815587997e-01 1.3976161181926727e-01</leafValues></_>
        <_>
          <internalNodes>
            0 -1 305 1.8815804272890091e-02</internalNodes>
          <leafValues>
            2.7353469282388687e-02 -6.3204586505889893e-01</leafValues></_>
        <_>
          <internalNodes>
            0 -1 796 -5.4373900638893247e-05</internalNodes>
          <leafValues>
            -1.6539458930492401e-01 9.7014665603637695e-02</leafValues></_>
        <_>
          <internalNodes>
            0 -1 738 -2.2137835912872106e-04</internalNodes>
          <leafValues>
            1.6022066771984100e-01 -1.1051984876394272e-01</leafValues></_>
        <_>
          <internalNodes>
            0 -1 863 1.1379132047295570e-02</internalNodes>
          <leafValues>
            3.7609502673149109e-02 -4.4923093914985657e-01</leafValues></_>
        <_>
          <internalNodes>
            0 -1 1026 -5.8240573853254318e-03</internalNodes>
          <leafValues>
            2.7729585766792297e-01 -6.3576079905033112e-02</leafValues></_>
        <_>
          <internalNodes>
            0 -1 991 1.1435999767854810e-03</internalNodes>
          <leafValues>
            -1.1716158688068390e-01 1.5284767746925354e-01</leafValues></_>
        <_>
          <internalNodes>
            0 -1 74 1.0565824806690216e-02</internalNodes>
          <leafValues>
            4.3205209076404572e-02 -3.7001737952232361e-01</leafValues></_>
        <_>
          <internalNodes>
            0 -1 284 -1.3478777371346951e-02</internalNodes>
          <leafValues>
            3.0023986101150513e-01 -5.5154196918010712e-02</leafValues></_>
        <_>
          <internalNodes>
            0 -1 258 -1.5611823648214340e-02</internalNodes>
          <leafValues>
            -3.3591789007186890e-01 5.5334281176328659e-02</leafValues></_>
        <_>
          <internalNodes>
            0 -1 484 -5.8262282982468605e-03</internalNodes>
          <leafValues>
            3.8685989379882812e-01 -4.7225818037986755e-02</leafValues></_>
        <_>
          <internalNodes>
            0 -1 401 1.6460150480270386e-02</internalNodes>
          <leafValues>
            -5.7553879916667938e-02 2.7082651853561401e-01</leafValues></_>
        <_>
          <internalNodes>
            0 -1 941 9.8895458504557610e-03</internalNodes>
          <leafValues>
            4.8194393515586853e-02 -3.4938141703605652e-01</leafValues></_>
        <_>
          <internalNodes>
            0 -1 939 -1.0945958783850074e-03</internalNodes>
          <leafValues>
            -2.9467448592185974e-01 5.3986907005310059e-02</leafValues></_>
        <_>
          <internalNodes>
            0 -1 409 -1.4951177872717381e-02</internalNodes>
          <leafValues>
            3.4443286061286926e-01 -4.9396239221096039e-02</leafValues></_>
        <_>
          <internalNodes>
            0 -1 619 -3.6287296097725630e-04</internalNodes>
          <leafValues>
            -1.7390342056751251e-01 1.0073501616716385e-01</leafValues></_>
        <_>
          <internalNodes>
            0 -1 620 1.0211221873760223e-02</internalNodes>
          <leafValues>
            4.8868242651224136e-02 -3.4287995100021362e-01</leafValues></_>
        <_>
          <internalNodes>
            0 -1 963 3.2072272151708603e-03</internalNodes>
          <leafValues>
            -5.9951215982437134e-02 3.0609130859375000e-01</leafValues></_>
        <_>
          <internalNodes>
            0 -1 0 4.1303566831629723e-05</internalNodes>
          <leafValues>
            -1.3383838534355164e-01 1.2414040416479111e-01</leafValues></_>
        <_>
          <internalNodes>
            0 -1 0 2.7928507188335061e-04</internalNodes>
          <leafValues>
            9.0632982552051544e-02 -2.0599074661731720e-01</leafValues></_>
        <_>
          <internalNodes>
            0 -1 67 4.2412355542182922e-03</internalNodes>
          <leafValues>
            -9.3761943280696869e-02 1.7485599219799042e-01</leafValues></_>
        <_>
          <internalNodes>
            0 -1 69 -6.5223528072237968e-03</internalNodes>
          <leafValues>
            2.5202840566635132e-01 -6.9387212395668030e-02</leafValues></_>
        <_>
          <internalNodes>
            0 -1 747 1.0124628897756338e-03</internalNodes>
          <leafValues>
            -1.2196830660104752e-01 1.2664361298084259e-01</leafValues></_>
        <_>
          <internalNodes>
            0 -1 603 -1.0840409231605008e-04</internalNodes>
          <leafValues>
            -1.6608646512031555e-01 9.3240231275558472e-02</leafValues></_></weakClassifiers></_>
    <!-- stage 10 -->
    <_>
      <maxWeakCount>68</maxWeakCount>
      <stageThreshold>-1.2662360668182373e+00</stageThreshold>
      <weakClassifiers>
        <_>
          <internalNodes>
            0 -1 280 -2.5502252392470837e-03</internalNodes>
          <leafValues>
            -1.6289593279361725e-01 -5.4187744855880737e-01</leafValues></_>
        <_>
          <internalNodes>
            0 -1 488 1.3978930655866861e-03</internalNodes>
          <leafValues>
            -1.4354495704174042e-01 1.2875439226627350e-01</leafValues></_>
        <_>
          <internalNodes>
            0 -1 490 -5.6279208511114120e-03</internalNodes>
          <leafValues>
            3.4755697846412659e-01 -6.7341282963752747e-02</leafValues></_>
        <_>
          <internalNodes>
            0 -1 169 1.4054477214813232e-02</internalNodes>
          <leafValues>
            3.5880263894796371e-02 -4.7138062119483948e-01</leafValues></_>
        <_>
          <internalNodes>
            0 -1 169 1.4003371819853783e-02</internalNodes>
          <leafValues>
            -4.1634429362602532e-04 8.1276828050613403e-01</leafValues></_>
        <_>
          <internalNodes>
            0 -1 169 1.3951084576547146e-02</internalNodes>
          <leafValues>
            5.0068035488948226e-04 -6.9080978631973267e-01</leafValues></_>
        <_>
          <internalNodes>
            0 -1 322 -2.2593042813241482e-03</internalNodes>
          <leafValues>
            -3.3480769395828247e-01 6.2033180147409439e-02</leafValues></_>
        <_>
          <internalNodes>
            0 -1 365 -3.3852909691631794e-03</internalNodes>
          <leafValues>
            3.3455267548561096e-01 -4.0323946624994278e-02</leafValues></_>
        <_>
          <internalNodes>
            0 -1 182 7.3975947452709079e-04</internalNodes>
          <leafValues>
            -1.3195541501045227e-01 1.6314159333705902e-01</leafValues></_>
        <_>
          <internalNodes>
            0 -1 427 2.2351185325533152e-03</internalNodes>
          <leafValues>
            -8.8147476315498352e-02 2.1117883920669556e-01</leafValues></_>
        <_>
          <internalNodes>
            0 -1 528 -2.1086476408527233e-05</internalNodes>
          <leafValues>
            1.1361118406057358e-01 -1.6333679854869843e-01</leafValues></_>
        <_>
          <internalNodes>
            0 -1 26 -5.5782718118280172e-04</internalNodes>
          <leafValues>
            -2.1768629550933838e-01 8.4673263132572174e-02</leafValues></_>
        <_>
          <internalNodes>
            0 -1 921 -4.3002599850296974e-03</internalNodes>
          <leafValues>
            1.1694341897964478e-01 -1.4104361832141876e-01</leafValues></_>
        <_>
          <internalNodes>
            0 -1 294 -1.0020332410931587e-03</internalNodes>
          <leafValues>
            -2.0742009580135345e-01 7.5727008283138275e-02</leafValues></_>
        <_>
          <internalNodes>
            0 -1 205 3.2058930955827236e-03</internalNodes>
          <leafValues>
            -7.1270093321800232e-02 2.2849972546100616e-01</leafValues></_>
        <_>
          <internalNodes>
            0 -1 202 -2.5536894798278809e-01</internalNodes>
          <leafValues>
            -5.7764649391174316e-01 3.0133817344903946e-02</leafValues></_>
        <_>
          <internalNodes>
            0 -1 786 -8.8641034380998462e-05</internalNodes>
          <leafValues>
            1.1400865018367767e-01 -1.3789977133274078e-01</leafValues></_>
        <_>
          <internalNodes>
            0 -1 0 4.1439838241785765e-05</internalNodes>
          <leafValues>
            -1.2927764654159546e-01 1.2016918510198593e-01</leafValues></_>
        <_>
          <internalNodes>
            0 -1 843 -1.9368660287000239e-04</internalNodes>
          <leafValues>
            -1.6133837401866913e-01 9.7748875617980957e-02</leafValues></_>
        <_>
          <internalNodes>
            0 -1 750 -6.2936572358012199e-03</internalNodes>
          <leafValues>
            2.4180795252323151e-01 -7.3587998747825623e-02</leafValues></_>
        <_>
          <internalNodes>
            0 -1 942 2.5874236598610878e-03</internalNodes>
          <leafValues>
            5.1333684474229813e-02 -3.2752311229705811e-01</leafValues></_>
        <_>
          <internalNodes>
            0 -1 948 -1.8377478700131178e-03</internalNodes>
          <leafValues>
            2.7465707063674927e-01 -6.7903660237789154e-02</leafValues></_>
        <_>
          <internalNodes>
            0 -1 199 2.5939375162124634e-01</internalNodes>
          <leafValues>
            4.6085283160209656e-02 -3.8194671273231506e-01</leafValues></_>
        <_>
          <internalNodes>
            0 -1 486 -7.0183994248509407e-03</internalNodes>
          <leafValues>
            2.1774272620677948e-01 -7.4395343661308289e-02</leafValues></_>
        <_>
          <internalNodes>
            0 -1 694 1.0001440532505512e-03</internalNodes>
          <leafValues>
            6.0337800532579422e-02 -3.1121918559074402e-01</leafValues></_>
        <_>
          <internalNodes>
            0 -1 692 -3.4718690440058708e-03</internalNodes>
          <leafValues>
            -3.3911794424057007e-01 5.0445225089788437e-02</leafValues></_>
        <_>
          <internalNodes>
            0 -1 910 -1.1294180294498801e-03</internalNodes>
          <leafValues>
