<?xml version="1.0"?>
<opencv_storage>
<cascade>
  <stageType>BOOST</stageType>
  <featureType>HAAR</featureType>
  <height>20</height>
  <width>20</width>
  <stageParams>
    <boostType>GAB</boostType>
    <minHitRate>9.9500000476837158e-01</minHitRate>
    <maxFalseAlarm>5.0000000000000000e-01</maxFalseAlarm>
    <weightTrimRate>9.4999999999999996e-01</weightTrimRate>
    <maxDepth>1</maxDepth>
    <maxWeakCount>100</maxWeakCount></stageParams>
  <featureParams>
    <maxCatCount>0</maxCatCount>
    <featSize>1</featSize>
    <mode>BASIC</mode></featureParams>
  <stageNum>14</stageNum>
  <stages>
    <!-- stage 0 -->
    <_>
      <maxWeakCount>4</maxWeakCount>
      <stageThreshold>-1.6547915935516357e+00</stageThreshold>
      <weakClassifiers>
        <_>
          <internalNodes>
            0 -1 264 -5.9603594243526459e-02</internalNodes>
          <leafValues>
            5.0065702199935913e-01 -8.1935900449752808e-01</leafValues></_>
        <_>
          <internalNodes>
            0 -1 92 -8.6534425616264343e-02</internalNodes>
          <leafValues>
            4.9618729948997498e-01 -8.0542761087417603e-01</leafValues></_>
        <_>
          <internalNodes>
            0 -1 10 3.5287067294120789e-02</internalNodes>
          <leafValues>
            -6.4671450853347778e-01 5.3230631351470947e-01</leafValues></_>
        <_>
          <internalNodes>
            0 -1 137 2.2061320021748543e-02</internalNodes>
          <leafValues>
            -4.1035994887351990e-01 6.1670953035354614e-01</leafValues></_></weakClassifiers></_>
    <!-- stage 1 -->
    <_>
      <maxWeakCount>7</maxWeakCount>
      <stageThreshold>-1.8694415092468262e+00</stageThreshold>
      <weakClassifiers>
        <_>
          <internalNodes>
            0 -1 278 -2.6189453899860382e-02</internalNodes>
          <leafValues>
            3.8717338442802429e-01 -8.2313829660415649e-01</leafValues></_>
        <_>
          <internalNodes>
            0 -1 50 1.8660825490951538e-01</internalNodes>
          <leafValues>
            -6.4770615100860596e-01 4.9391621351242065e-01</leafValues></_>
        <_>
          <internalNodes>
            0 -1 12 2.7965772897005081e-02</internalNodes>
          <leafValues>
            -5.2365046739578247e-01 5.1888781785964966e-01</leafValues></_>
        <_>
          <internalNodes>
            0 -1 208 -4.8388067632913589e-02</internalNodes>
          <leafValues>
            3.2506996393203735e-01 -6.4102244377136230e-01</leafValues></_>
        <_>
          <internalNodes>
            0 -1 221 3.9515350013971329e-02</internalNodes>
          <leafValues>
            -2.6758855581283569e-01 6.6839003562927246e-01</leafValues></_>
        <_>
          <internalNodes>
            0 -1 81 1.5659853816032410e-01</internalNodes>
          <leafValues>
            -5.1776838302612305e-01 3.4177780151367188e-01</leafValues></_>
        <_>
          <internalNodes>
            0 -1 176 1.6213208436965942e-02</internalNodes>
          <leafValues>
            -2.7420586347579956e-01 6.0271012783050537e-01</leafValues></_></weakClassifiers></_>
    <!-- stage 2 -->
    <_>
      <maxWeakCount>11</maxWeakCount>
      <stageThreshold>-1.9701045751571655e+00</stageThreshold>
      <weakClassifiers>
        <_>
          <internalNodes>
            0 -1 261 -5.3477343171834946e-02</internalNodes>
          <leafValues>
            1.6973811388015747e-01 -8.2476055622100830e-01</leafValues></_>
        <_>
          <internalNodes>
            0 -1 52 2.0242430269718170e-02</internalNodes>
          <leafValues>
            -5.7740217447280884e-01 3.6384350061416626e-01</leafValues></_>
        <_>
          <internalNodes>
            0 -1 94 -1.0092450678348541e-01</internalNodes>
          <leafValues>
            3.0779150128364563e-01 -4.9211567640304565e-01</leafValues></_>
        <_>
          <internalNodes>
            0 -1 255 -1.4328164979815483e-02</internalNodes>
          <leafValues>
            4.1961225867271423e-01 -3.8371765613555908e-01</leafValues></_>
        <_>
          <internalNodes>
            0 -1 265 2.8581030666828156e-02</internalNodes>
          <leafValues>
            -1.5678356587886810e-01 6.6783529520034790e-01</leafValues></_>
        <_>
          <internalNodes>
            0 -1 38 3.0441220849752426e-02</internalNodes>
          <leafValues>
            -2.4949219822883606e-01 4.6459674835205078e-01</leafValues></_>
        <_>
          <internalNodes>
            0 -1 24 1.0173523798584938e-02</internalNodes>
          <leafValues>
            -5.3867805004119873e-01 2.2107473015785217e-01</leafValues></_>
        <_>
          <internalNodes>
            0 -1 226 4.6364866197109222e-02</internalNodes>
          <leafValues>
            -1.9604864716529846e-01 6.2397825717926025e-01</leafValues></_>
        <_>
          <internalNodes>
            0 -1 71 -5.4548434913158417e-02</internalNodes>
          <leafValues>
            2.5784453749656677e-01 -6.1542409658432007e-01</leafValues></_>
        <_>
          <internalNodes>
            0 -1 130 3.0835123732686043e-02</internalNodes>
          <leafValues>
            -2.1620884537696838e-01 5.5976378917694092e-01</leafValues></_>
        <_>
          <internalNodes>
            0 -1 217 6.8454947322607040e-03</internalNodes>
          <leafValues>
            -2.4969725310802460e-01 4.2455983161926270e-01</leafValues></_></weakClassifiers></_>
    <!-- stage 3 -->
    <_>
      <maxWeakCount>16</maxWeakCount>
      <stageThreshold>-2.0247371196746826e+00</stageThreshold>
      <weakClassifiers>
        <_>
          <internalNodes>
            0 -1 84 5.0462767481803894e-02</internalNodes>
          <leafValues>
            -8.1932586431503296e-01 -2.0123076438903809e-01</leafValues></_>
        <_>
          <internalNodes>
            0 -1 258 -5.1719397306442261e-02</internalNodes>
          <leafValues>
            1.9859495759010315e-01 -5.8609998226165771e-01</leafValues></_>
        <_>
          <internalNodes>
            0 -1 114 -9.4519838690757751e-02</internalNodes>
          <leafValues>
            2.6724776625633240e-01 -5.5764096975326538e-01</leafValues></_>
        <_>
          <internalNodes>
            0 -1 13 3.9877299219369888e-02</internalNodes>
          <leafValues>
            -3.4271642565727234e-01 4.3326732516288757e-01</leafValues></_>
        <_>
          <internalNodes>
            0 -1 243 -5.8796238154172897e-03</internalNodes>
          <leafValues>
            4.3511345982551575e-01 -2.6657286286354065e-01</leafValues></_>
        <_>
          <internalNodes>
            0 -1 247 2.3705994710326195e-02</internalNodes>
          <leafValues>
            -2.0879037678241730e-01 5.0432038307189941e-01</leafValues></_>
        <_>
          <internalNodes>
            0 -1 69 1.6645286232233047e-02</internalNodes>
          <leafValues>
            -3.0615627765655518e-01 3.4196060895919800e-01</leafValues></_>
        <_>
          <internalNodes>
            0 -1 206 4.0506359189748764e-02</internalNodes>
          <leafValues>
            -1.7825134098529816e-01 6.2586516141891479e-01</leafValues></_>
        <_>
          <internalNodes>
            0 -1 213 1.9005600363016129e-02</internalNodes>
          <leafValues>
            -2.9132851958274841e-01 3.4039437770843506e-01</leafValues></_>
        <_>
          <internalNodes>
            0 -1 30 1.3250837102532387e-02</internalNodes>
          <leafValues>
            1.7981302738189697e-01 -5.7331120967864990e-01</leafValues></_>
        <_>
          <internalNodes>
            0 -1 173 1.9857842475175858e-02</internalNodes>
          <leafValues>
            -2.1386861801147461e-01 4.2321404814720154e-01</leafValues></_>
        <_>
          <internalNodes>
            0 -1 113 6.8595185875892639e-02</internalNodes>
          <leafValues>
            -1.4190042018890381e-01 6.5780973434448242e-01</leafValues></_>
        <_>
          <internalNodes>
            0 -1 250 -1.5072034671902657e-02</internalNodes>
          <leafValues>
            1.5516661107540131e-01 -5.9954583644866943e-01</leafValues></_>
        <_>
          <internalNodes>
            0 -1 11 -3.3963713794946671e-02</internalNodes>
          <leafValues>
            5.1248395442962646e-01 -1.7044804990291595e-01</leafValues></_>
        <_>
          <internalNodes>
            0 -1 22 1.2752193026244640e-02</internalNodes>
          <leafValues>
            -1.9533689320087433e-01 4.4643598794937134e-01</leafValues></_>
        <_>
          <internalNodes>
            0 -1 97 -3.4702010452747345e-02</internalNodes>
          <leafValues>
            4.6210816502571106e-01 -1.7397542297840118e-01</leafValues></_></weakClassifiers></_>
    <!-- stage 4 -->
    <_>
      <maxWeakCount>16</maxWeakCount>
      <stageThreshold>-1.6461282968521118e+00</stageThreshold>
      <weakClassifiers>
        <_>
          <internalNodes>
            0 -1 284 -3.1087361276149750e-02</internalNodes>
          <leafValues>
            -8.8825218379497528e-02 -7.3385655879974365e-01</leafValues></_>
        <_>
          <internalNodes>
            0 -1 83 7.1930810809135437e-02</internalNodes>
          <leafValues>
            -4.4051524996757507e-01 3.3141884207725525e-01</leafValues></_>
        <_>
          <internalNodes>
            0 -1 4 1.2153562158346176e-02</internalNodes>
          <leafValues>
            -5.8574408292770386e-01 1.6244094073772430e-01</leafValues></_>
        <_>
          <internalNodes>
            0 -1 132 -2.3684114217758179e-02</internalNodes>
          <leafValues>
            3.7589064240455627e-01 -2.8553950786590576e-01</leafValues></_>
        <_>
          <internalNodes>
            0 -1 224 2.9727909713983536e-02</internalNodes>
          <leafValues>
            -1.8281413614749908e-01 5.4325693845748901e-01</leafValues></_>
        <_>
          <internalNodes>
            0 -1 89 -7.3559898883104324e-03</internalNodes>
          <leafValues>
            2.2005477547645569e-01 -4.4904541969299316e-01</leafValues></_>
        <_>
          <internalNodes>
            0 -1 248 1.6337474808096886e-02</internalNodes>
          <leafValues>
            -1.9384546577930450e-01 4.9496018886566162e-01</leafValues></_>
        <_>
          <internalNodes>
            0 -1 166 3.3180389553308487e-02</internalNodes>
          <leafValues>
            -2.2708784043788910e-01 3.7902960181236267e-01</leafValues></_>
        <_>
          <internalNodes>
            0 -1 270 1.2348586693406105e-02</internalNodes>
          <leafValues>
            -1.6504180431365967e-01 4.9494147300720215e-01</leafValues></_>
        <_>
          <internalNodes>
            0 -1 106 1.8515681847929955e-02</internalNodes>
          <leafValues>
            -1.3171347975730896e-01 4.7642764449119568e-01</leafValues></_>
        <_>
          <internalNodes>
            0 -1 163 2.0411942154169083e-02</internalNodes>
          <leafValues>
            -1.2400250881910324e-01 5.5831539630889893e-01</leafValues></_>
        <_>
          <internalNodes>
            0 -1 101 1.1041414923965931e-02</internalNodes>
          <leafValues>
            -2.5083920359611511e-01 2.9778590798377991e-01</leafValues></_>
        <_>
          <internalNodes>
            0 -1 88 -7.0451900362968445e-02</internalNodes>
          <leafValues>
            1.6541279852390289e-01 -4.0376025438308716e-01</leafValues></_>
        <_>
          <internalNodes>
            0 -1 193 5.0312737002968788e-03</internalNodes>
          <leafValues>
            -1.3833023607730865e-01 5.4716932773590088e-01</leafValues></_>
        <_>
          <internalNodes>
            0 -1 201 -2.9201973229646683e-02</internalNodes>
          <leafValues>
            5.1977568864822388e-01 -1.2540170550346375e-01</leafValues></_>
        <_>
          <internalNodes>
            0 -1 239 -6.1577711254358292e-02</internalNodes>
          <leafValues>
            2.2545588016510010e-01 -3.4344056248664856e-01</leafValues></_></weakClassifiers></_>
    <!-- stage 5 -->
    <_>
      <maxWeakCount>19</maxWeakCount>
      <stageThreshold>-1.7059071063995361e+00</stageThreshold>
      <weakClassifiers>
        <_>
          <internalNodes>
            0 -1 121 3.9606057107448578e-02</internalNodes>
          <leafValues>
            -7.0247936248779297e-01 -1.8275539577007294e-01</leafValues></_>
        <_>
          <internalNodes>
            0 -1 286 -2.3206353187561035e-02</internalNodes>
          <leafValues>
            2.8392261266708374e-01 -3.7991550564765930e-01</leafValues></_>
        <_>
          <internalNodes>
            0 -1 8 5.7592444121837616e-02</internalNodes>
          <leafValues>
            -4.4653648138046265e-01 2.5875243544578552e-01</leafValues></_>
        <_>
          <internalNodes>
            0 -1 133 -3.9543129503726959e-02</internalNodes>
          <leafValues>
            3.4206771850585938e-01 -2.3688226938247681e-01</leafValues></_>
        <_>
          <internalNodes>
            0 -1 87 -8.8295936584472656e-03</internalNodes>
          <leafValues>
            3.9703208208084106e-01 -1.5009951591491699e-01</leafValues></_>
        <_>
          <internalNodes>
            0 -1 64 1.1098355054855347e-01</internalNodes>
          <leafValues>
            -5.4994040727615356e-01 1.3707287609577179e-01</leafValues></_>
        <_>
          <internalNodes>
            0 -1 226 4.6104758977890015e-02</internalNodes>
          <leafValues>
            -1.5657038986682892e-01 4.8732513189315796e-01</leafValues></_>
        <_>
          <internalNodes>
            0 -1 225 -2.9657658189535141e-02</internalNodes>
          <leafValues>
            6.2824463844299316e-01 -1.1161904036998749e-01</leafValues></_>
        <_>
          <internalNodes>
            0 -1 255 -1.8159238621592522e-02</internalNodes>
          <leafValues>
            2.4743148684501648e-01 -2.5545537471771240e-01</leafValues></_>
        <_>
          <internalNodes>
            0 -1 29 -1.1263929307460785e-01</internalNodes>
          <leafValues>
            -6.8137729167938232e-01 8.0418869853019714e-02</leafValues></_>
        <_>
          <internalNodes>
            0 -1 6 -5.7461753487586975e-02</internalNodes>
          <leafValues>
            -5.5037248134613037e-01 1.1253389716148376e-01</leafValues></_>
        <_>
          <internalNodes>
            0 -1 157 -5.4000675678253174e-02</internalNodes>
          <leafValues>
            1.7187233269214630e-01 -3.7005949020385742e-01</leafValues></_>
        <_>
          <internalNodes>
            0 -1 154 -2.1534178406000137e-02</internalNodes>
          <leafValues>
            7.5684791803359985e-01 -8.6473695933818817e-02</leafValues></_>
        <_>
          <internalNodes>
            0 -1 223 -3.7872277200222015e-02</internalNodes>
          <leafValues>
            7.9992830753326416e-01 -6.2055476009845734e-02</leafValues></_>
        <_>
          <internalNodes>
            0 -1 21 -1.9838148355484009e-01</internalNodes>
          <leafValues>
            1.8394014239311218e-01 -3.5185810923576355e-01</leafValues></_>
        <_>
          <internalNodes>
            0 -1 253 4.2313663288950920e-03</internalNodes>
          <leafValues>
            -1.8966484069824219e-01 3.0329546332359314e-01</leafValues></_>
        <_>
          <internalNodes>
            0 -1 205 4.2410507798194885e-02</internalNodes>
          <leafValues>
            -1.2929719686508179e-01 4.5331364870071411e-01</leafValues></_>
        <_>
          <internalNodes>
            0 -1 195 -1.9457403570413589e-02</internalNodes>
          <leafValues>
            4.4093000888824463e-01 -1.3595457375049591e-01</leafValues></_>
        <_>
          <internalNodes>
            0 -1 159 -1.2372656725347042e-02</internalNodes>
          <leafValues>
            6.3868319988250732e-01 -8.8983163237571716e-02</leafValues></_></weakClassifiers></_>
    <!-- stage 6 -->
    <_>
      <maxWeakCount>21</maxWeakCount>
      <stageThreshold>-1.6026277542114258e+00</stageThreshold>
      <weakClassifiers>
        <_>
          <internalNodes>
            0 -1 220 6.2202475965023041e-02</internalNodes>
          <leafValues>
            -6.0325646400451660e-01 4.4242423772811890e-01</leafValues></_>
        <_>
          <internalNodes>
            0 -1 82 3.3979505300521851e-02</internalNodes>
          <leafValues>
            -5.1420861482620239e-01 1.2021336704492569e-01</leafValues></_>
        <_>
          <internalNodes>
            0 -1 229 -8.6564816534519196e-02</internalNodes>
          <leafValues>
            2.0701965689659119e-01 -4.2297556996345520e-01</leafValues></_>
        <_>
          <internalNodes>
            0 -1 18 2.2306684404611588e-02</internalNodes>
          <leafValues>
            -3.2599315047264099e-01 2.9366457462310791e-01</leafValues></_>
        <_>
          <internalNodes>
            0 -1 190 -6.1354640871286392e-02</internalNodes>
          <leafValues>
            1.4609470963478088e-01 -4.9375113844871521e-01</leafValues></_>
        <_>
          <internalNodes>
            0 -1 35 -2.9801398515701294e-02</internalNodes>
          <leafValues>
            4.7670111060142517e-01 -1.3088311254978180e-01</leafValues></_>
        <_>
          <internalNodes>
            0 -1 232 9.7468018531799316e-02</internalNodes>
          <leafValues>
            1.1176959425210953e-01 -6.6264861822128296e-01</leafValues></_>
        <_>
          <internalNodes>
            0 -1 227 3.9005540311336517e-02</internalNodes>
          <leafValues>
            -2.3576730489730835e-01 2.6160025596618652e-01</leafValues></_>
        <_>
          <internalNodes>
            0 -1 17 2.5589484721422195e-02</internalNodes>
          <leafValues>
            -1.3808943331241608e-01 4.3718346953392029e-01</leafValues></_>
        <_>
          <internalNodes>
            0 -1 36 4.3912592809647322e-04</internalNodes>
          <leafValues>
            1.9221259653568268e-01 -3.1265488266944885e-01</leafValues></_>
        <_>
          <internalNodes>
            0 -1 246 -3.5473339259624481e-02</internalNodes>
          <leafValues>
            7.8307265043258667e-01 -7.6553456485271454e-02</leafValues></_>
        <_>
          <internalNodes>
            0 -1 198 -2.8033403679728508e-02</internalNodes>
          <leafValues>
            6.3307690620422363e-01 -7.7755287289619446e-02</leafValues></_>
        <_>
          <internalNodes>
            0 -1 41 -8.7458521127700806e-02</internalNodes>
          <leafValues>
            -5.7697939872741699e-01 1.0582839697599411e-01</leafValues></_>
        <_>
          <internalNodes>
            0 -1 118 -2.2121926303952932e-03</internalNodes>
          <leafValues>
            -5.3692525625228882e-01 9.2917926609516144e-02</leafValues></_>
        <_>
          <internalNodes>
            0 -1 210 1.7146434634923935e-02</internalNodes>
          <leafValues>
            -1.6877277195453644e-01 3.1995758414268494e-01</leafValues></_>
        <_>
          <internalNodes>
            0 -1 72 1.3650964945554733e-02</internalNodes>
          <leafValues>
            -1.0536497831344604e-01 4.8738673329353333e-01</leafValues></_>
        <_>
          <internalNodes>
            0 -1 116 2.9109455645084381e-03</internalNodes>
          <leafValues>
            1.1210659146308899e-01 -5.1835954189300537e-01</leafValues></_>
        <_>
          <internalNodes>
            0 -1 298 -1.9860793836414814e-03</internalNodes>
          <leafValues>
            -7.7070277929306030e-01 5.7167265564203262e-02</leafValues></_>
        <_>
          <internalNodes>
            0 -1 148 -6.1241304501891136e-03</internalNodes>
          <leafValues>
            4.0539747476577759e-01 -1.3595901429653168e-01</leafValues></_>
        <_>
          <internalNodes>
            0 -1 85 2.0893008913844824e-03</internalNodes>
          <leafValues>
            -1.6345956921577454e-01 2.9382312297821045e-01</leafValues></_>
        <_>
          <internalNodes>
            0 -1 42 3.0646705999970436e-03</internalNodes>
          <leafValues>
            8.1538021564483643e-02 -6.3826996088027954e-01</leafValues></_></weakClassifiers></_>
    <!-- stage 7 -->
    <_>
      <maxWeakCount>26</maxWeakCount>
      <stageThreshold>-1.7227382659912109e+00</stageThreshold>
      <weakClassifiers>
        <_>
          <internalNodes>
            0 -1 235 -5.4641522467136383e-02</internalNodes>
          <leafValues>
            7.6785713434219360e-01 -5.9818083047866821e-01</leafValues></_>
        <_>
          <internalNodes>
            0 -1 262 -8.5311874747276306e-02</internalNodes>
          <leafValues>
            1.6951937973499298e-01 -3.4165143966674805e-01</leafValues></_>
        <_>
          <internalNodes>
            0 -1 146 1.2354954145848751e-02</internalNodes>
          <leafValues>
            -2.1532700955867767e-01 3.2332223653793335e-01</leafValues></_>
        <_>
          <internalNodes>
            0 -1 66 1.1400083079934120e-02</internalNodes>
          <leafValues>
            -3.5010766983032227e-01 1.9574075937271118e-01</leafValues></_>
        <_>
          <internalNodes>
            0 -1 274 5.7770654559135437e-02</internalNodes>
          <leafValues>
            -1.7123864591121674e-01 3.3579826354980469e-01</leafValues></_>
        <_>
          <internalNodes>
            0 -1 107 -5.7052314281463623e-02</internalNodes>
          <leafValues>
            4.7217872738838196e-01 -1.7320641875267029e-01</leafValues></_>
        <_>
          <internalNodes>
            0 -1 56 -6.5335378050804138e-02</internalNodes>
          <leafValues>
            1.3319444656372070e-01 -5.3185862302780151e-01</leafValues></_>
        <_>
          <internalNodes>
            0 -1 196 4.8738541081547737e-03</internalNodes>
          <leafValues>
            -1.5084253251552582e-01 3.6329099535942078e-01</leafValues></_>
        <_>
          <internalNodes>
            0 -1 155 -5.4374341852962971e-03</internalNodes>
          <leafValues>
            4.6332657337188721e-01 -1.5592658519744873e-01</leafValues></_>
        <_>
          <internalNodes>
            0 -1 26 -2.2431585937738419e-02</internalNodes>
          <leafValues>
            3.7529557943344116e-01 -1.3820624351501465e-01</leafValues></_>
        <_>
          <internalNodes>
            0 -1 48 1.9845766946673393e-02</internalNodes>
          <leafValues>
            1.0755387693643570e-01 -5.3839546442031860e-01</leafValues></_>
        <_>
          <internalNodes>
            0 -1 70 1.3565114699304104e-02</internalNodes>
          <leafValues>
            -2.0846991240978241e-01 2.4623766541481018e-01</leafValues></_>
        <_>
          <internalNodes>
            0 -1 37 1.8862476572394371e-02</internalNodes>
          <leafValues>
            -1.4940744638442993e-01 3.8517940044403076e-01</leafValues></_>
        <_>
          <internalNodes>
            0 -1 302 2.5622762739658356e-02</internalNodes>
          <leafValues>
            9.9276185035705566e-02 -4.9854895472526550e-01</leafValues></_>
        <_>
          <internalNodes>
            0 -1 192 2.3268091026693583e-03</internalNodes>
          <leafValues>
            6.2688171863555908e-02 -6.9090121984481812e-01</leafValues></_>
        <_>
          <internalNodes>
            0 -1 269 3.8832845166325569e-03</internalNodes>
          <leafValues>
            -1.3255667686462402e-01 3.7700816988945007e-01</leafValues></_>
        <_>
          <internalNodes>
            0 -1 153 -7.0865964516997337e-03</internalNodes>
          <leafValues>
            5.9163087606430054e-01 -7.7102005481719971e-02</leafValues></_>
        <_>
          <internalNodes>
            0 -1 216 2.6781842112541199e-02</internalNodes>
          <leafValues>
            -3.6784502863883972e-01 1.4341273903846741e-01</leafValues></_>
        <_>
          <internalNodes>
            0 -1 117 2.8318136930465698e-01</internalNodes>
          <leafValues>
            5.5635448545217514e-02 -7.9780930280685425e-01</leafValues></_>
        <_>
          <internalNodes>
            0 -1 58 8.8983832392841578e-04</internalNodes>
          <leafValues>
            7.3202267289161682e-02 -5.1703482866287231e-01</leafValues></_>
        <_>
          <internalNodes>
            0 -1 67 1.5802517533302307e-02</internalNodes>
          <leafValues>
            -1.0510833561420441e-01 4.6636664867401123e-01</leafValues></_>
        <_>
          <internalNodes>
            0 -1 152 3.5394772421568632e-03</internalNodes>
          <leafValues>
            7.3281303048133850e-02 -6.2655401229858398e-01</leafValues></_>
        <_>
          <internalNodes>
            0 -1 152 -3.2996775116771460e-03</internalNodes>
          <leafValues>
            -6.3923400640487671e-01 6.0401972383260727e-02</leafValues></_>
        <_>
          <internalNodes>
            0 -1 191 1.8589543178677559e-03</internalNodes>
          <leafValues>
            -1.5351501107215881e-01 3.2721814513206482e-01</leafValues></_>
        <_>
          <internalNodes>
            0 -1 162 -2.9082555323839188e-02</internalNodes>
          <leafValues>
            5.6232321262359619e-01 -7.6238155364990234e-02</leafValues></_>
        <_>
          <internalNodes>
            0 -1 2 1.5697492286562920e-02</internalNodes>
          <leafValues>
            6.9658845663070679e-02 -6.7672407627105713e-01</leafValues></_></weakClassifiers></_>
    <!-- stage 8 -->
    <_>
      <maxWeakCount>29</maxWeakCount>
      <stageThreshold>-1.6660290956497192e+00</stageThreshold>
      <weakClassifiers>
        <_>
          <internalNodes>
            0 -1 180 -6.8423576653003693e-02</internalNodes>
          <leafValues>
            4.7019866108894348e-01 -6.0043257474899292e-01</leafValues></_>
        <_>
          <internalNodes>
            0 -1 233 -3.1991399824619293e-02</internalNodes>
          <leafValues>
            1.5120203793048859e-01 -3.7146058678627014e-01</leafValues></_>
        <_>
          <internalNodes>
            0 -1 54 1.2476449832320213e-02</internalNodes>
          <leafValues>
            -3.0608621239662170e-01 2.1299332380294800e-01</leafValues></_>
        <_>
          <internalNodes>
            0 -1 94 -1.0055328905582428e-01</internalNodes>
          <leafValues>
            1.7498447000980377e-01 -3.6480367183685303e-01</leafValues></_>
        <_>
          <internalNodes>
            0 -1 9 1.1829920113086700e-02</internalNodes>
          <leafValues>
            -9.5181271433830261e-02 5.1014226675033569e-01</leafValues></_>
        <_>
          <internalNodes>
            0 -1 20 -5.7633060961961746e-02</internalNodes>
          <leafValues>
            -5.6701463460922241e-01 1.2814533710479736e-01</leafValues></_>
        <_>
          <internalNodes>
            0 -1 283 -1.1551208794116974e-02</internalNodes>
          <leafValues>
            4.7738417983055115e-01 -1.2143523991107941e-01</leafValues></_>
        <_>
          <internalNodes>
            0 -1 212 -7.7372305095195770e-03</internalNodes>
          <leafValues>
            1.6418106853961945e-01 -3.2521915435791016e-01</leafValues></_>
        <_>
          <internalNodes>
            0 -1 287 2.9610306955873966e-03</internalNodes>
          <leafValues>
            -1.7996741831302643e-01 2.8312021493911743e-01</leafValues></_>
        <_>
          <internalNodes>
            0 -1 160 -1.8399713560938835e-02</internalNodes>
          <leafValues>
            3.7643957138061523e-01 -1.5107235312461853e-01</leafValues></_>
        <_>
          <internalNodes>
            0 -1 123 1.2254321947693825e-02</internalNodes>
          <leafValues>
            1.4338324964046478e-01 -4.2333170771598816e-01</leafValues></_>
        <_>
          <internalNodes>
            0 -1 31 1.8733686208724976e-01</internalNodes>
          <leafValues>
            5.7552225887775421e-02 -8.3813905715942383e-01</leafValues></_>
        <_>
          <internalNodes>
            0 -1 39 -1.9488080870360136e-03</internalNodes>
          <leafValues>
            1.1495593190193176e-01 -4.2244538664817810e-01</leafValues></_>
        <_>
          <internalNodes>
            0 -1 200 -2.5001369416713715e-02</internalNodes>
          <leafValues>
            5.9353440999984741e-01 -8.5623569786548615e-02</leafValues></_>
        <_>
          <internalNodes>
            0 -1 165 3.1985305249691010e-02</internalNodes>
          <leafValues>
            -8.3647251129150391e-02 5.1734489202499390e-01</leafValues></_>
        <_>
          <internalNodes>
            0 -1 158 3.1463705003261566e-02</internalNodes>
          <leafValues>
            -8.0215439200401306e-02 5.4534846544265747e-01</leafValues></_>
        <_>
          <internalNodes>
            0 -1 100 3.6099683493375778e-02</internalNodes>
          <leafValues>
            -1.9190785288810730e-01 2.2912430763244629e-01</leafValues></_>
        <_>
          <internalNodes>
            0 -1 19 4.9172308295965195e-02</internalNodes>
          <leafValues>
            -2.8103166818618774e-01 1.4361545443534851e-01</leafValues></_>
        <_>
          <internalNodes>
            0 -1 149 3.0204061418771744e-02</internalNodes>
          <leafValues>
            -1.0337143391370773e-01 4.4198158383369446e-01</leafValues></_>
        <_>
          <internalNodes>
            0 -1 136 -1.4925140887498856e-02</internalNodes>
          <leafValues>
            4.6195736527442932e-01 -9.3927584588527679e-02</leafValues></_>
        <_>
          <internalNodes>
            0 -1 175 1.9686454907059669e-03</internalNodes>
          <leafValues>
            8.0116227269172668e-02 -5.0997817516326904e-01</leafValues></_>
        <_>
          <internalNodes>
            0 -1 125 -1.7636101692914963e-02</internalNodes>
          <leafValues>
            2.9017645120620728e-01 -1.4293844997882843e-01</leafValues></_>
        <_>
          <internalNodes>
            0 -1 202 -2.0786166191101074e-02</internalNodes>
          <leafValues>
            3.7770897150039673e-01 -1.2786401808261871e-01</leafValues></_>
        <_>
          <internalNodes>
            0 -1 238 -4.3612122535705566e-02</internalNodes>
          <leafValues>
            1.1896664649248123e-01 -3.8909775018692017e-01</leafValues></_>
        <_>
          <internalNodes>
            0 -1 171 1.2707173591479659e-03</internalNodes>
          <leafValues>
            1.1027839034795761e-01 -3.8086009025573730e-01</leafValues></_>
        <_>
          <internalNodes>
            0 -1 236 -2.1307850256562233e-02</internalNodes>
          <leafValues>
            4.6375426650047302e-01 -9.5593631267547607e-02</leafValues></_>
        <_>
          <internalNodes>
            0 -1 267 1.2686533853411674e-02</internalNodes>
          <leafValues>
            -1.1831248551607132e-01 3.7360817193984985e-01</leafValues></_>
        <_>
          <internalNodes>
            0 -1 280 -3.7926598452031612e-03</internalNodes>
          <leafValues>
            -5.1210415363311768e-01 9.2927008867263794e-02</leafValues></_>
        <_>
          <internalNodes>
            0 -1 279 -6.5635908395051956e-03</internalNodes>
          <leafValues>
            -6.5182006359100342e-01 5.5307500064373016e-02</leafValues></_></weakClassifiers></_>
    <!-- stage 9 -->
    <_>
      <maxWeakCount>31</maxWeakCount>
      <stageThreshold>-1.6274094581604004e+00</stageThreshold>
      <weakClassifiers>
        <_>
          <internalNodes>
            0 -1 184 -2.5240777060389519e-02</internalNodes>
          <leafValues>
            4.2857143282890320e-01 -6.0151803493499756e-01</leafValues></_>
        <_>
          <internalNodes>
            0 -1 32 2.2988026961684227e-02</internalNodes>
          <leafValues>
            -3.7657687067985535e-01 9.1067619621753693e-02</leafValues></_>
        <_>
          <internalNodes>
            0 -1 273 -2.0026445388793945e-02</internalNodes>
          <leafValues>
            2.0666520297527313e-01 -2.2920709848403931e-01</leafValues></_>
        <_>
          <internalNodes>
            0 -1 93 -9.5030128955841064e-02</internalNodes>
          <leafValues>
            1.5586015582084656e-01 -3.0277928709983826e-01</leafValues></_>
        <_>
          <internalNodes>
            0 -1 224 2.9752280563116074e-02</internalNodes>
          <leafValues>
            -1.1048237979412079e-01 3.7373495101928711e-01</leafValues></_>
        <_>
          <internalNodes>
            0 -1 79 4.5048031955957413e-02</internalNodes>
          <leafValues>
            -2.9611358046531677e-01 1.6207969188690186e-01</leafValues></_>
        <_>
          <internalNodes>
            0 -1 188 -6.8553565070033073e-03</internalNodes>
          <leafValues>
            4.3406561017036438e-01 -9.8951272666454315e-02</leafValues></_>
        <_>
          <internalNodes>
            0 -1 249 -2.0128831267356873e-02</internalNodes>
          <leafValues>
            5.4855108261108398e-01 -7.9363256692886353e-02</leafValues></_>
        <_>
          <internalNodes>
            0 -1 241 -2.0925410091876984e-02</internalNodes>
          <leafValues>
            4.5297363400459290e-01 -9.5735184848308563e-02</leafValues></_>
        <_>
          <internalNodes>
            0 -1 204 -1.0465452075004578e-01</internalNodes>
          <leafValues>
            1.3027210533618927e-01 -3.5315284132957458e-01</leafValues></_>
        <_>
          <internalNodes>
            0 -1 22 1.4672229066491127e-02</internalNodes>
          <leafValues>
            -1.3899037241935730e-01 3.2851022481918335e-01</leafValues></_>
        <_>
          <internalNodes>
            0 -1 91 3.5377964377403259e-03</internalNodes>
          <leafValues>
            -1.2863574922084808e-01 3.8134574890136719e-01</leafValues></_>
        <_>
          <internalNodes>
            0 -1 126 -2.7388039976358414e-02</internalNodes>
          <leafValues>
            4.0154534578323364e-01 -1.0075519233942032e-01</leafValues></_>
        <_>
          <internalNodes>
            0 -1 177 8.5876695811748505e-03</internalNodes>
          <leafValues>
            -1.0558771342039108e-01 4.0426576137542725e-01</leafValues></_>
        <_>
          <internalNodes>
            0 -1 288 1.2299674563109875e-03</internalNodes>
          <leafValues>
            8.8323339819908142e-02 -5.4916399717330933e-01</leafValues></_>
        <_>
          <internalNodes>
            0 -1 96 5.5235777981579304e-03</internalNodes>
          <leafValues>
            -1.2831497192382812e-01 3.4780001640319824e-01</leafValues></_>
        <_>
          <internalNodes>
            0 -1 95 4.9223147332668304e-02</internalNodes>
          <leafValues>
            -1.6552390158176422e-01 2.6564249396324158e-01</leafValues></_>
        <_>
          <internalNodes>
            0 -1 73 1.2449318543076515e-02</internalNodes>
          <leafValues>
            -9.3027882277965546e-02 4.5567640662193298e-01</leafValues></_>
        <_>
          <internalNodes>
            0 -1 259 8.5126012563705444e-03</internalNodes>
          <leafValues>
            -1.3899648189544678e-01 2.9100078344345093e-01</leafValues></_>
        <_>
          <internalNodes>
            0 -1 289 -1.0906562674790621e-03</internalNodes>
          <leafValues>
            -3.7653568387031555e-01 1.1221793293952942e-01</leafValues></_>
        <_>
          <internalNodes>
            0 -1 215 5.7472102344036102e-03</internalNodes>
          <leafValues>
            4.2651183903217316e-02 -8.8672560453414917e-01</leafValues></_>
        <_>
          <internalNodes>
            0 -1 99 -8.3367154002189636e-02</internalNodes>
          <leafValues>
            -7.7195745706558228e-01 4.2536538094282150e-02</leafValues></_>
        <_>
          <internalNodes>
            0 -1 140 1.1043453589081764e-02</internalNodes>
          <leafValues>
            -1.2932465970516205e-01 3.1158512830734253e-01</leafValues></_>
        <_>
          <internalNodes>
            0 -1 199 -6.1657661572098732e-03</internalNodes>
          <leafValues>
            4.2024898529052734e-01 -9.8243258893489838e-02</leafValues></_>
        <_>
          <internalNodes>
            0 -1 299 -1.2877898290753365e-02</internalNodes>
          <leafValues>
            4.2233428359031677e-01 -9.7772732377052307e-02</leafValues></_>
        <_>
          <internalNodes>
            0 -1 296 1.6589108854532242e-03</internalNodes>
          <leafValues>
            6.4422577619552612e-02 -6.5430510044097900e-01</leafValues></_>
        <_>
          <internalNodes>
            0 -1 300 3.3313008025288582e-03</internalNodes>
          <leafValues>
            -1.0869384557008743e-01 3.6839759349822998e-01</leafValues></_>
        <_>
          <internalNodes>
            0 -1 295 1.6134913312271237e-03</internalNodes>
          <leafValues>
            1.1066297441720963e-01 -3.6509263515472412e-01</leafValues></_>
        <_>
          <internalNodes>
            0 -1 164 3.0535511672496796e-02</internalNodes>
          <leafValues>
            -1.1683520674705505e-01 3.0405476689338684e-01</leafValues></_>
        <_>
          <internalNodes>
            0 -1 5 3.9335316419601440e-01</internalNodes>
          <leafValues>
            4.8326794058084488e-02 -7.5105524063110352e-01</leafValues></_>
        <_>
          <internalNodes>
            0 -1 63 3.5169646143913269e-03</internalNodes>
          <leafValues>
            4.4402543455362320e-02 -7.0364069938659668e-01</leafValues></_></weakClassifiers></_>
    <!-- stage 10 -->
    <_>
      <maxWeakCount>32</maxWeakCount>
      <stageThreshold>-1.5396950244903564e+00</stageThreshold>
      <weakClassifiers>
        <_>
          <internalNodes>
            0 -1 237 -7.5814172625541687e-02</internalNodes>
          <leafValues>
            3.6170211434364319e-01 -5.9342139959335327e-01</leafValues></_>
        <_>
          <internalNodes>
            0 -1 256 8.8383510708808899e-02</internalNodes>
          <leafValues>
            -4.0007680654525757e-01 8.7862350046634674e-02</leafValues></_>
        <_>
          <internalNodes>
            0 -1 150 -2.0099628716707230e-02</internalNodes>
          <leafValues>
            1.1834947019815445e-01 -3.8979703187942505e-01</leafValues></_>
        <_>
          <internalNodes>
            0 -1 8 6.8885497748851776e-02</internalNodes>
          <leafValues>
            -2.6265546679496765e-01 1.9012141227722168e-01</leafValues></_>
        <_>
          <internalNodes>
            0 -1 172 -2.0134948194026947e-02</internalNodes>
          <leafValues>
            -5.0472611188888550e-01 8.8379777967929840e-02</leafValues></_>
        <_>
          <internalNodes>
            0 -1 242 3.2242410816252232e-03</internalNodes>
          <leafValues>
            -1.2212698161602020e-01 3.3334505558013916e-01</leafValues></_>
        <_>
          <internalNodes>
            0 -1 276 -1.8904283642768860e-02</internalNodes>
          <leafValues>
            1.4499089121818542e-01 -2.8727030754089355e-01</leafValues></_>
        <_>
          <internalNodes>
            0 -1 27 7.6651629060506821e-03</internalNodes>
          <leafValues>
            8.1190139055252075e-02 -5.6102830171585083e-01</leafValues></_>
        <_>
          <internalNodes>
            0 -1 134 -3.7817182019352913e-03</internalNodes>
          <leafValues>
            2.9385533928871155e-01 -1.3385152816772461e-01</leafValues></_>
        <_>
          <internalNodes>
            0 -1 277 3.9907760918140411e-02</internalNodes>
          <leafValues>
            6.0409199446439743e-02 -6.6678041219711304e-01</leafValues></_>
        <_>
          <internalNodes>
            0 -1 156 1.2343477457761765e-02</internalNodes>
          <leafValues>
            -1.1268838495016098e-01 3.3632037043571472e-01</leafValues></_>
        <_>
          <internalNodes>
            0 -1 222 2.3697625845670700e-02</internalNodes>
          <leafValues>
            -1.0500329732894897e-01 3.6298778653144836e-01</leafValues></_>
        <_>
          <internalNodes>
            0 -1 161 2.3163206875324249e-02</internalNodes>
          <leafValues>
            -9.7701773047447205e-02 3.6549437046051025e-01</leafValues></_>
        <_>
          <internalNodes>
            0 -1 61 -7.0199253968894482e-03</internalNodes>
          <leafValues>
            9.7766421735286713e-02 -4.3924295902252197e-01</leafValues></_>
        <_>
          <internalNodes>
            0 -1 244 -1.0860275477170944e-02</internalNodes>
          <leafValues>
            1.6265395283699036e-01 -2.4328084290027618e-01</leafValues></_>
        <_>
          <internalNodes>
            0 -1 77 2.0110618788748980e-03</internalNodes>
          <leafValues>
            6.6790454089641571e-02 -5.6048595905303955e-01</leafValues></_>
        <_>
          <internalNodes>
            0 -1 78 5.1788655109703541e-03</internalNodes>
          <leafValues>
            -1.2023685127496719e-01 3.3839809894561768e-01</leafValues></_>
        <_>
          <internalNodes>
            0 -1 292 -4.4722426682710648e-03</internalNodes>
          <leafValues>
            -6.8353486061096191e-01 5.6042354553937912e-02</leafValues></_>
        <_>
          <internalNodes>
            0 -1 102 5.3507247939705849e-03</internalNodes>
          <leafValues>
            -1.5173576772212982e-01 2.7528941631317139e-01</leafValues></_>
        <_>
          <internalNodes>
            0 -1 111 2.0123932510614395e-02</internalNodes>
          <leafValues>
            -1.2824386358261108e-01 3.2148912549018860e-01</leafValues></_>
        <_>
          <internalNodes>
            0 -1 60 -7.0083653554320335e-03</internalNodes>
          <leafValues>
            2.8354421257972717e-01 -1.3218919932842255e-01</leafValues></_>
        <_>
          <internalNodes>
            0 -1 194 6.0813212767243385e-03</internalNodes>
          <leafValues>
            -9.8505698144435883e-02 3.9204460382461548e-01</leafValues></_>
        <_>
          <internalNodes>
            0 -1 301 1.5764331910759211e-03</internalNodes>
          <leafValues>
            6.6281832754611969e-02 -6.4952003955841064e-01</leafValues></_>
        <_>
          <internalNodes>
            0 -1 46 -4.7961305826902390e-03</internalNodes>
          <leafValues>
            -8.5436612367630005e-01 3.3870939165353775e-02</leafValues></_>
        <_>
          <internalNodes>
            0 -1 253 7.4512660503387451e-03</internalNodes>
          <leafValues>
            -1.2208867073059082e-01 3.2833027839660645e-01</leafValues></_>
        <_>
          <internalNodes>
            0 -1 44 4.4568061828613281e-02</internalNodes>
          <leafValues>
            -7.1349464356899261e-02 5.3213018178939819e-01</leafValues></_>
        <_>
          <internalNodes>
            0 -1 205 3.9406992495059967e-02</internalNodes>
          <leafValues>
            -1.1106028407812119e-01 3.4338662028312683e-01</leafValues></_>
        <_>
          <internalNodes>
            0 -1 186 -2.7481239521875978e-04</internalNodes>
          <leafValues>
            -2.8536939620971680e-01 1.4968718588352203e-01</leafValues></_>
        <_>
          <internalNodes>
            0 -1 218 -6.9106100127100945e-03</internalNodes>
          <leafValues>
            3.8892257213592529e-01 -1.0335127264261246e-01</leafValues></_>
        <_>
          <internalNodes>
            0 -1 260 -1.0572636500000954e-02</internalNodes>
          <leafValues>
            4.1268301010131836e-01 -8.6158201098442078e-02</leafValues></_>
        <_>
          <internalNodes>
            0 -1 168 -3.1550083076581359e-04</internalNodes>
          <leafValues>
            -2.5833716988563538e-01 1.4907056093215942e-01</leafValues></_>
        <_>
          <internalNodes>
            0 -1 211 -1.0004730575019494e-04</internalNodes>
          <leafValues>
            -2.8397199511528015e-01 1.4483545720577240e-01</leafValues></_></weakClassifiers></_>
    <!-- stage 11 -->
    <_>
      <maxWeakCount>34</maxWeakCount>
      <stageThreshold>-1.5364174842834473e+00</stageThreshold>
      <weakClassifiers>
        <_>
          <internalNodes>
            0 -1 112 8.3499163389205933e-02</internalNodes>
          <leafValues>
            -6.0153675079345703e-01 2.0388349890708923e-01</leafValues></_>
        <_>
          <internalNodes>
            0 -1 14 6.5842866897583008e-02</internalNodes>
          <leafValues>
            -2.2160755097866058e-01 2.6934337615966797e-01</leafValues></_>
        <_>
          <internalNodes>
            0 -1 53 4.3123397976160049e-02</internalNodes>
          <leafValues>
            -2.4788103997707367e-01 1.7175532877445221e-01</leafValues></_>
        <_>
          <internalNodes>
            0 -1 197 6.5218987874686718e-03</internalNodes>
          <leafValues>
            -1.0104321688413620e-01 3.9716991782188416e-01</leafValues></_>
        <_>
          <internalNodes>
            0 -1 127 -3.5304952412843704e-02</internalNodes>
          <leafValues>
            1.6354934871196747e-01 -2.1948698163032532e-01</leafValues></_>
        <_>
          <internalNodes>
            0 -1 110 2.6013514026999474e-02</internalNodes>
          <leafValues>
            -9.0652212500572205e-02 3.9876696467399597e-01</leafValues></_>
        <_>
          <internalNodes>
            0 -1 15 4.8478734679520130e-03</internalNodes>
          <leafValues>
            -9.4177387654781342e-02 4.6378782391548157e-01</leafValues></_>
        <_>
          <internalNodes>
            0 -1 115 -6.7480211146175861e-03</internalNodes>
          <leafValues>
            2.4602532386779785e-01 -1.6135060787200928e-01</leafValues></_>
        <_>
          <internalNodes>
            0 -1 275 -1.1410394683480263e-02</internalNodes>
          <leafValues>
            2.3635336756706238e-01 -1.6887506842613220e-01</leafValues></_>
        <_>
          <internalNodes>
            0 -1 139 3.3661961555480957e-02</internalNodes>
          <leafValues>
            -1.4238724112510681e-01 3.0917954444885254e-01</leafValues></_>
        <_>
          <internalNodes>
            0 -1 303 3.9059589616954327e-03</internalNodes>
          <leafValues>
            6.2288742512464523e-02 -5.7598090171813965e-01</leafValues></_>
        <_>
          <internalNodes>
            0 -1 209 -7.2487440775148571e-05</internalNodes>
          <leafValues>
            -2.8366094827651978e-01 1.2584932148456573e-01</leafValues></_>
        <_>
          <internalNodes>
            0 -1 49 3.7186950445175171e-02</internalNodes>
          <leafValues>
            -1.8183752894401550e-01 1.9746477901935577e-01</leafValues></_>
        <_>
          <internalNodes>
            0 -1 228 3.7970483303070068e-02</internalNodes>
          <leafValues>
            -9.7089581191539764e-02 3.9981347322463989e-01</leafValues></_>
        <_>
          <internalNodes>
            0 -1 266 7.9106828197836876e-03</internalNodes>
          <leafValues>
            -1.3034512102603912e-01 3.1359079480171204e-01</leafValues></_>
        <_>
          <internalNodes>
            0 -1 292 4.3161353096365929e-03</internalNodes>
          <leafValues>
            6.4800456166267395e-02 -5.6143885850906372e-01</leafValues></_>
        <_>
          <internalNodes>
            0 -1 185 -7.7765944297425449e-05</internalNodes>
          <leafValues>
            -2.3998743295669556e-01 1.4088304340839386e-01</leafValues></_>
        <_>
          <internalNodes>
            0 -1 174 3.3566199243068695e-02</internalNodes>
          <leafValues>
            -1.3470391929149628e-01 2.8139787912368774e-01</leafValues></_>
        <_>
          <internalNodes>
            0 -1 141 4.0816068649291992e-02</internalNodes>
          <leafValues>
            -8.0534607172012329e-02 4.8695763945579529e-01</leafValues></_>
        <_>
          <internalNodes>
            0 -1 16 -3.2432056032121181e-03</internalNodes>
          <leafValues>
            3.2833218574523926e-01 -1.1207797378301620e-01</leafValues></_>
        <_>
          <internalNodes>
            0 -1 74 -1.4873974025249481e-01</internalNodes>
          <leafValues>
            1.3382238149642944e-01 -2.7338176965713501e-01</leafValues></_>
        <_>
          <internalNodes>
            0 -1 131 2.1299013867974281e-02</internalNodes>
          <leafValues>
            -9.6576698124408722e-02 4.2230072617530823e-01</leafValues></_>
        <_>
          <internalNodes>
            0 -1 189 1.0055862367153168e-03</internalNodes>
          <leafValues>
            -9.5392301678657532e-02 3.7981551885604858e-01</leafValues></_>
        <_>
          <internalNodes>
            0 -1 142 3.4053422510623932e-02</internalNodes>
          <leafValues>
            -8.5951052606105804e-02 4.0929079055786133e-01</leafValues></_>
        <_>
          <internalNodes>
            0 -1 75 -2.3847119882702827e-03</internalNodes>
          <leafValues>
            2.9030165076255798e-01 -1.2107326835393906e-01</leafValues></_>
        <_>
          <internalNodes>
            0 -1 263 1.9888635724782944e-03</internalNodes>
          <leafValues>
            -9.3518063426017761e-02 3.3116218447685242e-01</leafValues></_>
        <_>
          <internalNodes>
            0 -1 119 -5.6226160377264023e-03</internalNodes>
          <leafValues>
            -5.6465101242065430e-01 5.9759449213743210e-02</leafValues></_>
        <_>
          <internalNodes>
            0 -1 230 -1.2074949336238205e-04</internalNodes>
          <leafValues>
            -2.6452288031578064e-01 1.2246246635913849e-01</leafValues></_>
        <_>
          <internalNodes>
            0 -1 178 -4.4894658029079437e-02</internalNodes>
          <leafValues>
            4.7808119654655457e-01 -7.1900002658367157e-02</leafValues></_>
        <_>
          <internalNodes>
            0 -1 86 4.5509692281484604e-03</internalNodes>
          <leafValues>
            -8.2235358655452728e-02 4.0314939618110657e-01</leafValues></_>
        <_>
          <internalNodes>
            0 -1 28 2.1570559591054916e-02</internalNodes>
          <leafValues>
            -3.3826848864555359e-01 1.0196325927972794e-01</leafValues></_>
        <_>
          <internalNodes>
            0 -1 65 7.5374498963356018e-02</internalNodes>
          <leafValues>
            4.4215295463800430e-02 -7.0935416221618652e-01</leafValues></_>
        <_>
          <internalNodes>
            0 -1 76 -1.6841322649270296e-03</internalNodes>
          <leafValues>
            2.9715290665626526e-01 -1.0881969332695007e-01</leafValues></_>
        <_>
          <internalNodes>
            0 -1 134 -4.5463843271136284e-03</internalNodes>
          <leafValues>
            2.5908240675926208e-01 -1.1834982037544250e-01</leafValues></_></weakClassifiers></_>
    <!-- stage 12 -->
    <_>
      <maxWeakCount>30</maxWeakCount>
      <stageThreshold>-1.3791142702102661e+00</stageThreshold>
      <weakClassifiers>
        <_>
          <internalNodes>
            0 -1 181 -7.4554577469825745e-02</internalNodes>
          <leafValues>
            8.9494161307811737e-02 -6.0478711128234863e-01</leafValues></_>
        <_>
          <internalNodes>
            0 -1 43 -7.9049989581108093e-02</internalNodes>
          <leafValues>
            6.3819572329521179e-02 -3.4576159715652466e-01</leafValues></_>
        <_>
          <internalNodes>
            0 -1 68 8.9003872126340866e-03</internalNodes>
          <leafValues>
            -2.3824754357337952e-01 1.4247208833694458e-01</leafValues></_>
        <_>
          <internalNodes>
            0 -1 55 -4.8181490274146199e-04</internalNodes>
          <leafValues>
            1.1330017447471619e-01 -3.7093415856361389e-01</leafValues></_>
        <_>
          <internalNodes>
            0 -1 257 -8.5187956690788269e-02</internalNodes>
          <leafValues>
            2.3057386279106140e-01 -1.6835628449916840e-01</leafValues></_>
        <_>
          <internalNodes>
            0 -1 62 1.4227497577667236e-01</internalNodes>
          <leafValues>
            6.5520890057086945e-02 -6.7859709262847900e-01</leafValues></_>
        <_>
          <internalNodes>
            0 -1 1 6.7841231822967529e-02</internalNodes>
          <leafValues>
            2.9464228078722954e-02 -7.4804097414016724e-01</leafValues></_>
        <_>
          <internalNodes>
            0 -1 59 -9.2886183410882950e-03</internalNodes>
          <leafValues>
            9.8729915916919708e-02 -3.0832442641258240e-01</leafValues></_>
        <_>
          <internalNodes>
            0 -1 234 5.6356973946094513e-03</internalNodes>
          <leafValues>
            -8.0158427357673645e-02 3.7100559473037720e-01</leafValues></_>
        <_>
          <internalNodes>
            0 -1 219 4.3314611539244652e-03</internalNodes>
          <leafValues>
            -2.4652759730815887e-01 1.3031741976737976e-01</leafValues></_>
        <_>
          <internalNodes>
            0 -1 207 2.9419898986816406e-02</internalNodes>
          <leafValues>
            -1.1648119240999222e-01 2.8170871734619141e-01</leafValues></_>
        <_>
          <internalNodes>
            0 -1 109 6.7395105957984924e-02</internalNodes>
          <leafValues>
            -1.0204619169235229e-01 3.9219591021537781e-01</leafValues></_>
        <_>
          <internalNodes>
            0 -1 151 1.8377922475337982e-02</internalNodes>
          <leafValues>
            -6.1936840415000916e-02 4.8228132724761963e-01</leafValues></_>
        <_>
          <internalNodes>
            0 -1 170 -2.1419793367385864e-02</internalNodes>
          <leafValues>
            -7.4609029293060303e-01 4.6091448515653610e-02</leafValues></_>
        <_>
          <internalNodes>
            0 -1 167 -2.6694495230913162e-02</internalNodes>
          <leafValues>
            6.0146826505661011e-01 -6.1731696128845215e-02</leafValues></_>
        <_>
          <internalNodes>
            0 -1 129 1.7522219568490982e-02</internalNodes>
          <leafValues>
            -1.3987299799919128e-01 2.7537664771080017e-01</leafValues></_>
        <_>
          <internalNodes>
            0 -1 291 -1.8006458412855864e-03</internalNodes>
          <leafValues>
            -4.8406019806861877e-01 7.0506401360034943e-02</leafValues></_>
        <_>
          <internalNodes>
            0 -1 80 -9.3145063146948814e-03</internalNodes>
          <leafValues>
            3.4496846795082092e-01 -9.7045153379440308e-02</leafValues></_>
        <_>
          <internalNodes>
            0 -1 47 6.6633364185690880e-03</internalNodes>
          <leafValues>
            7.3023840785026550e-02 -4.3951532244682312e-01</leafValues></_>
        <_>
          <internalNodes>
            0 -1 138 4.7934976220130920e-01</internalNodes>
          <leafValues>
            5.2408810704946518e-02 -5.7497167587280273e-01</leafValues></_>
        <_>
          <internalNodes>
            0 -1 231 7.3900948336813599e-05</internalNodes>
          <leafValues>
            1.2715221941471100e-01 -2.5679129362106323e-01</leafValues></_>
        <_>
          <internalNodes>
            0 -1 128 -2.8192464262247086e-02</internalNodes>
          <leafValues>
            7.8226816654205322e-01 -4.8842377960681915e-02</leafValues></_>
        <_>
          <internalNodes>
            0 -1 187 -1.6354606486856937e-04</internalNodes>
          <leafValues>
            -2.7342659235000610e-01 1.2463428825139999e-01</leafValues></_>
        <_>
          <internalNodes>
            0 -1 120 1.4576226240023971e-03</internalNodes>
          <leafValues>
            -1.4391601085662842e-01 2.2013574838638306e-01</leafValues></_>
        <_>
          <internalNodes>
            0 -1 152 3.5167594905942678e-03</internalNodes>
          <leafValues>
            6.1895307153463364e-02 -5.8120888471603394e-01</leafValues></_>
        <_>
          <internalNodes>
            0 -1 7 2.4029173073358834e-04</internalNodes>
          <leafValues>
            -1.8493428826332092e-01 1.7365686595439911e-01</leafValues></_>
        <_>
          <internalNodes>
            0 -1 0 2.3977088276296854e-03</internalNodes>
          <leafValues>
            8.1046514213085175e-02 -4.2678967118263245e-01</leafValues></_>
        <_>
          <internalNodes>
            0 -1 293 -4.2084334418177605e-03</internalNodes>
          <leafValues>
            -4.9840161204338074e-01 6.1858780682086945e-02</leafValues></_>
        <_>
          <internalNodes>
            0 -1 290 4.9292845651507378e-03</internalNodes>
          <leafValues>
            -9.0749852359294891e-02 3.7896305322647095e-01</leafValues></_>
        <_>
          <internalNodes>
            0 -1 294 -5.6711044162511826e-03</internalNodes>
          <leafValues>
            -5.2194237709045410e-01 5.9121530503034592e-02</leafValues></_></weakClassifiers></_>
    <!-- stage 13 -->
    <_>
      <maxWeakCount>42</maxWeakCount>
      <stageThreshold>-1.6080182790756226e+00</stageThreshold>
      <weakClassifiers>
        <_>
          <internalNodes>
            0 -1 144 -6.6534847021102905e-02</internalNodes>
          <leafValues>
            2.5874125957489014e-01 -5.8996492624282837e-01</leafValues></_>
        <_>
          <internalNodes>
            0 -1 103 -2.5847982615232468e-03</internalNodes>
          <leafValues>
            1.8941728770732880e-01 -2.0804099738597870e-01</leafValues></_>
        <_>
          <internalNodes>
            0 -1 146 1.3757154345512390e-02</internalNodes>
          <leafValues>
            -1.6775968670845032e-01 2.0182646811008453e-01</leafValues></_>
        <_>
          <internalNodes>
            0 -1 23 1.6745924949645996e-02</internalNodes>
          <leafValues>
            -1.2032441049814224e-01 2.4506039917469025e-01</leafValues></_>
        <_>
          <internalNodes>
            0 -1 34 4.7295663505792618e-02</internalNodes>
          <leafValues>
            5.0340246409177780e-02 -6.6255992650985718e-01</leafValues></_>
        <_>
          <internalNodes>
            0 -1 51 1.4184325933456421e-01</internalNodes>
          <leafValues>
            7.4081785976886749e-02 -4.6086728572845459e-01</leafValues></_>
        <_>
          <internalNodes>
            0 -1 145 3.0824141576886177e-02</internalNodes>
          <leafValues>
            -5.1883950829505920e-02 5.0296711921691895e-01</leafValues></_>
        <_>
          <internalNodes>
            0 -1 261 -1.9459012895822525e-02</internalNodes>
          <leafValues>
            7.0774175226688385e-02 -4.7457253932952881e-01</leafValues></_>
        <_>
          <internalNodes>
            0 -1 33 3.1732097268104553e-02</internalNodes>
          <leafValues>
            -2.8313252329826355e-01 1.1755266785621643e-01</leafValues></_>
        <_>
          <internalNodes>
            0 -1 179 -6.7904200404882431e-03</internalNodes>
          <leafValues>
            3.0608466267585754e-01 -1.0267440974712372e-01</leafValues></_>
        <_>
          <internalNodes>
            0 -1 203 3.4355483949184418e-02</internalNodes>
          <leafValues>
            -7.3630519211292267e-02 5.0614440441131592e-01</leafValues></_>
        <_>
          <internalNodes>
            0 -1 271 1.6854573041200638e-03</internalNodes>
          <leafValues>
            -9.4648368656635284e-02 3.0074280500411987e-01</leafValues></_>
        <_>
          <internalNodes>
            0 -1 3 -1.3976985355839133e-03</internalNodes>
          <leafValues>
            -3.7583664059638977e-01 7.9753801226615906e-02</leafValues></_>
        <_>
          <internalNodes>
            0 -1 268 1.1309510096907616e-02</internalNodes>
          <leafValues>
            -9.4533257186412811e-02 3.3637386560440063e-01</leafValues></_>
        <_>
          <internalNodes>
            0 -1 90 -2.6260444894433022e-02</internalNodes>
          <leafValues>
            1.7630416154861450e-01 -1.9664900004863739e-01</leafValues></_>
        <_>
          <internalNodes>
            0 -1 183 -7.4452662374824286e-05</internalNodes>
          <leafValues>
            -2.1267858147621155e-01 1.3833896815776825e-01</leafValues></_>
        <_>
          <internalNodes>
            0 -1 57 9.2554377624765038e-04</internalNodes>
          <leafValues>
            7.1161724627017975e-02 -4.1322019696235657e-01</leafValues></_>
        <_>
          <internalNodes>
            0 -1 135 2.4975428823381662e-03</internalNodes>
          <leafValues>
            -9.6338018774986267e-02 3.2775068283081055e-01</leafValues></_>
        <_>
          <internalNodes>
            0 -1 45 1.2387677095830441e-02</internalNodes>
          <leafValues>
            6.1489533632993698e-02 -5.2427327632904053e-01</leafValues></_>
        <_>
          <internalNodes>
            0 -1 147 -8.2098646089434624e-04</internalNodes>
          <leafValues>
            2.1127676963806152e-01 -1.6010195016860962e-01</leafValues></_>
        <_>
          <internalNodes>
            0 -1 281 -3.8603784050792456e-03</internalNodes>
          <leafValues>
            -4.1101256012916565e-01 7.8848116099834442e-02</leafValues></_>
        <_>
          <internalNodes>
            0 -1 104 -5.5707521736621857e-02</internalNodes>
          <leafValues>
            -4.6172881126403809e-01 6.4210779964923859e-02</leafValues></_>
        <_>
          <internalNodes>
            0 -1 122 7.8908214345574379e-03</internalNodes>
          <leafValues>
            -1.6255554556846619e-01 1.9446311891078949e-01</leafValues></_>
        <_>
          <internalNodes>
            0 -1 297 -9.8601896315813065e-03</internalNodes>
          <leafValues>
            2.3207506537437439e-01 -1.2974046170711517e-01</leafValues></_>
        <_>
          <internalNodes>
            0 -1 169 -2.1987948566675186e-03</internalNodes>
          <leafValues>
            2.3265932500362396e-01 -1.3379694521427155e-01</leafValues></_>
        <_>
          <internalNodes>
            0 -1 272 1.8995987251400948e-02</internalNodes>
          <leafValues>
            -1.1343808472156525e-01 2.4806356430053711e-01</leafValues></_>
        <_>
          <internalNodes>
            0 -1 254 -1.7066564410924911e-02</internalNodes>
          <leafValues>
            3.4597849845886230e-01 -8.6948744952678680e-02</leafValues></_>
        <_>
          <internalNodes>
            0 -1 105 -5.7515792548656464e-02</internalNodes>
          <leafValues>
            3.9324185252189636e-01 -7.7889792621135712e-02</leafValues></_>
        <_>
          <internalNodes>
            0 -1 143 -1.9777437672019005e-02</internalNodes>
          <leafValues>
            5.2811399102210999e-02 -6.5725678205490112e-01</leafValues></_>
        <_>
          <internalNodes>
            0 -1 40 -2.8298851102590561e-03</internalNodes>
          <leafValues>
            -4.6617504954338074e-01 6.1496399343013763e-02</leafValues></_>
        <_>
          <internalNodes>
            0 -1 182 -3.3716820180416107e-02</internalNodes>
          <leafValues>
            6.4390695095062256e-01 -5.5157896131277084e-02</leafValues></_>
        <_>
          <internalNodes>
            0 -1 124 3.4939614124596119e-03</internalNodes>
          <leafValues>
            -7.9253643751144409e-02 3.6862641572952271e-01</leafValues></_>
        <_>
          <internalNodes>
            0 -1 108 4.4941097497940063e-02</internalNodes>
          <leafValues>
            -6.4583063125610352e-02 5.0359523296356201e-01</leafValues></_>
        <_>
          <internalNodes>
            0 -1 240 -2.4132227525115013e-02</internalNodes>
          <leafValues>
            7.1032017469406128e-01 -3.7908613681793213e-02</leafValues></_>
        <_>
          <internalNodes>
            0 -1 245 1.5863268636167049e-03</internalNodes>
          <leafValues>
            -2.0566929876804352e-01 1.5341743826866150e-01</leafValues></_>
        <_>
          <internalNodes>
            0 -1 252 -3.5712646786123514e-04</internalNodes>
          <leafValues>
            -2.8545466065406799e-01 1.2609517574310303e-01</leafValues></_>
        <_>
          <internalNodes>
            0 -1 251 5.7011442258954048e-03</internalNodes>
          <leafValues>
            -1.0701904445886612e-01 3.0127722024917603e-01</leafValues></_>
        <_>
          <internalNodes>
            0 -1 282 -2.1983478218317032e-03</internalNodes>
          <leafValues>
            2.8577598929405212e-01 -1.1509190499782562e-01</leafValues></_>
        <_>
          <internalNodes>
            0 -1 285 3.4353276714682579e-03</internalNodes>
          <leafValues>
            -1.1311814188957214e-01 2.9577782750129700e-01</leafValues></_>
        <_>
          <internalNodes>
            0 -1 214 -4.4907126575708389e-03</internalNodes>
          <leafValues>
            2.7947646379470825e-01 -1.1103395372629166e-01</leafValues></_>
        <_>
          <internalNodes>
            0 -1 98 9.0078487992286682e-03</internalNodes>
          <leafValues>
            3.4913390874862671e-02 -8.7872773408889771e-01</leafValues></_>
        <_>
          <internalNodes>
            0 -1 25 5.5865747854113579e-03</internalNodes>
          <leafValues>
            4.6583835035562515e-02 -4.9969005584716797e-01</leafValues></_></weakClassifiers></_></stages>
  <features>
    <_>
      <rects>
        <_>
          0 0 2 3 -1.</_>
        <_>
          1 0 1 3 2.</_></rects>
      <tilted>0</tilted></_>
    <_>
      <rects>
        <_>
          0 0 2 18 -1.</_>
        <_>
          0 6 2 6 3.</_></rects>
      <tilted>0</tilted></_>
    <_>
      <rects>
        <_>
          0 0 12 1 -1.</_>
        <_>
          4 0 4 1 3.</_></rects>
      <tilted>0</tilted></_>
    <_>
      <rects>
        <_>
          0 1 2 2 -1.</_>
        <_>
          1 1 1 2 2.</_></rects>
      <tilted>0</tilted></_>
    <_>
      <rects>
        <_>
          0 2 12 7 -1.</_>
        <_>
          6 2 6 7 2.</_></rects>
      <tilted>0</tilted></_>
    <_>
      <rects>
        <_>
          0 2 15 15 -1.</_>
        <_>
          0 7 15 5 3.</_></rects>
      <tilted>0</tilted></_>
    <_>
      <rects>
        <_>
          0 3 20 10 -1.</_>
        <_>
          0 3 10 5 2.</_>
        <_>
          10 8 10 5 2.</_></rects>
      <tilted>0</tilted></_>
    <_>
      <rects>
        <_>
          0 4 3 4 -1.</_>
        <_>
          1 4 1 4 3.</_></rects>
      <tilted>0</tilted></_>
    <_>
      <rects>
        <_>
          0 4 8 10 -1.</_>
        <_>
          4 4 4 10 2.</_></rects>
      <tilted>0</tilted></_>
    <_>
      <rects>
        <_>
          0 5 2 8 -1.</_>
        <_>
          1 5 1 8 2.</_></rects>
      <tilted>0</tilted></_>
    <_>
      <rects>
        <_>
          0 5 8 7 -1.</_>
        <_>
          4 5 4 7 2.</_></rects>
      <tilted>0</tilted></_>
    <_>
      <rects>
        <_>
          0 6 6 8 -1.</_>
        <_>
          2 6 2 8 3.</_></rects>
      <tilted>0</tilted></_>
    <_>
      <rects>
        <_>
          0 6 6 6 -1.</_>
        <_>
          3 6 3 6 2.</_></rects>
      <tilted>0</tilted></_>
    <_>
      <rects>
        <_>
          0 6 6 8 -1.</_>
        <_>
          3 6 3 8 2.</_></rects>
      <tilted>0</tilted></_>
    <_>
      <rects>
        <_>
          0 6 9 8 -1.</_>
        <_>
          3 6 3 8 3.</_></rects>
      <tilted>0</tilted></_>
    <_>
      <rects>
        <_>
          0 7 2 2 -1.</_>
        <_>
          1 7 1 2 2.</_></rects>
      <tilted>0</tilted></_>
    <_>
      <rects>
        <_>
          0 7 2 6 -1.</_>
        <_>
          1 7 1 6 2.</_></rects>
      <tilted>0</tilted></_>
    <_>
      <rects>
        <_>
          0 7 4 5 -1.</_>
        <_>
          2 7 2 5 2.</_></rects>
      <tilted>0</tilted></_>
    <_>
      <rects>
        <_>
          0 7 6 5 -1.</_>
        <_>
          3 7 3 5 2.</_></rects>
      <tilted>0</tilted></_>
    <_>
      <rects>
        <_>
          0 7 16 5 -1.</_>
        <_>
          8 7 8 5 2.</_></rects>
      <tilted>0</tilted></_>
    <_>
      <rects>
        <_>
          0 7 20 8 -1.</_>
        <_>
          10 7 10 8 2.</_></rects>
      <tilted>0</tilted></_>
    <_>
      <rects>
        <_>
          0 7 20 12 -1.</_>
        <_>
          0 13 20 6 2.</_></rects>
      <tilted>0</tilted></_>
    <_>
      <rects>
        <_>
          0 9 4 3 -1.</_>
        <_>
          2 9 2 3 2.</_></rects>
      <tilted>0</tilted></_>
    <_>
      <rects>
        <_>
          0 9 4 4 -1.</_>
        <_>
          2 9 2 4 2.</_></rects>
      <tilted>0</tilted></_>
    <_>
      <rects>
        <_>
          0 9 16 7 -1.</_>
        <_>
          8 9 8 7 2.</_></rects>
      <tilted>0</tilted></_>
    <_>
      <rects>
        <_>
          0 15 4 4 -1.</_>
        <_>
          0 15 2 2 2.</_>
        <_>
          2 17 2 2 2.</_></rects>
      <tilted>0</tilted></_>
    <_>
      <rects>
        <_>
          0 15 12 4 -1.</_>
        <_>
          0 15 6 2 2.</_>
        <_>
          6 17 6 2 2.</_></rects>
      <tilted>0</tilted></_>
    <_>
      <rects>
        <_>
          0 19 8 1 -1.</_>
        <_>
          4 19 4 1 2.</_></rects>
      <tilted>0</tilted></_>
    <_>
      <rects>
        <_>
          1 0 12 9 -1.</_>
        <_>
          7 0 6 9 2.</_></rects>
      <tilted>0</tilted></_>
    <_>
      <rects>
        <_>
          1 0 18 9 -1.</_>
        <_>
          10 0 9 9 2.</_></rects>
      <tilted>0</tilted></_>
    <_>
      <rects>
        <_>
          1 2 6 16 -1.</_>
        <_>
          1 10 6 8 2.</_></rects>
      <tilted>0</tilted></_>
    <_>
      <rects>
        <_>
          1 2 18 16 -1.</_>
        <_>
          1 2 9 8 2.</_>
        <_>
          10 10 9 8 2.</_></rects>
      <tilted>0</tilted></_>
    <_>
      <rects>
        <_>
          1 3 10 3 -1.</_>
        <_>
          6 3 5 3 2.</_></rects>
      <tilted>0</tilted></_>
    <_>
      <rects>
        <_>
          1 4 8 5 -1.</_>
        <_>
          5 4 4 5 2.</_></rects>
      <tilted>0</tilted></_>
    <_>
      <rects>
        <_>
          1 4 4 10 -1.</_>
        <_>
          1 9 4 5 2.</_></rects>
      <tilted>0</tilted></_>
    <_>
      <rects>
        <_>
          1 5 6 10 -1.</_>
        <_>
          3 5 2 10 3.</_></rects>
      <tilted>0</tilted></_>
    <_>
      <rects>
        <_>
          1 7 2 1 -1.</_>
        <_>
          2 7 1 1 2.</_></rects>
      <tilted>0</tilted></_>
    <_>
      <rects>
        <_>
          1 7 6 4 -1.</_>
        <_>
          3 7 2 4 3.</_></rects>
      <tilted>0</tilted></_>
    <_>
      <rects>
        <_>
          1 7 9 5 -1.</_>
        <_>
          4 7 3 5 3.</_></rects>
      <tilted>0</tilted></_>
    <_>
      <rects>
        <_>
          1 8 4 8 -1.</_>
        <_>
          1 12 4 4 2.</_></rects>
      <tilted>0</tilted></_>
    <_>
      <rects>
        <_>
          1 9 2 3 -1.</_>
        <_>
          1 10 2 1 3.</_></rects>
      <tilted>0</tilted></_>
    <_>
      <rects>
        <_>
          1 9 18 11 -1.</_>
        <_>
          10 9 9 11 2.</_></rects>
      <tilted>0</tilted></_>
    <_>
      <rects>
        <_>
          1 11 2 3 -1.</_>
        <_>
          1 12 2 1 3.</_></rects>
      <tilted>0</tilted></_>
    <_>
      <rects>
        <_>
          1 13 17 6 -1.</_>
        <_>
          1 16 17 3 2.</_></rects>
      <tilted>0</tilted></_>
    <_>
      <rects>
        <_>
          1 14 8 3 -1.</_>
        <_>
          5 14 4 3 2.</_></rects>
      <tilted>0</tilted></_>
    <_>
      <rects>
        <_>
          1 19 12 1 -1.</_>
        <_>
          7 19 6 1 2.</_></rects>
      <tilted>0</tilted></_>
    <_>
      <rects>
        <_>
          2 0 2 4 -1.</_>
        <_>
          2 0 1 2 2.</_>
        <_>
          3 2 1 2 2.</_></rects>
      <tilted>0</tilted></_>
    <_>
      <rects>
        <_>
          2 0 9 1 -1.</_>
        <_>
          5 0 3 1 3.</_></rects>
      <tilted>0</tilted></_>
    <_>
      <rects>
        <_>
          2 0 18 1 -1.</_>
        <_>
          8 0 6 1 3.</_></rects>
      <tilted>0</tilted></_>
    <_>
      <rects>
        <_>
          2 1 4 16 -1.</_>
        <_>
          4 1 2 16 2.</_></rects>
      <tilted>0</tilted></_>
    <_>
      <rects>
        <_>
          2 2 18 14 -1.</_>
        <_>
          8 2 6 14 3.</_></rects>
      <tilted>0</tilted></_>
    <_>
      <rects>
        <_>
          2 3 18 16 -1.</_>
        <_>
          2 3 9 8 2.</_>
        <_>
          11 11 9 8 2.</_></rects>
      <tilted>0</tilted></_>
    <_>
      <rects>
        <_>
          2 4 6 4 -1.</_>
        <_>
          5 4 3 4 2.</_></rects>
      <tilted>0</tilted></_>
    <_>
      <rects>
        <_>
          2 4 18 2 -1.</_>
        <_>
          8 4 6 2 3.</_></rects>
      <tilted>0</tilted></_>
    <_>
      <rects>
        <_>
          2 5 4 5 -1.</_>
        <_>
          4 5 2 5 2.</_></rects>
      <tilted>0</tilted></_>
    <_>
      <rects>
        <_>
          2 7 3 8 -1.</_>
        <_>
          2 11 3 4 2.</_></rects>
      <tilted>0</tilted></_>
    <_>
      <rects>
        <_>
          2 7 10 12 -1.</_>
        <_>
          2 13 10 6 2.</_></rects>
      <tilted>0</tilted></_>
    <_>
      <rects>
        <_>
          2 9 1 2 -1.</_>
        <_>
          2 10 1 1 2.</_></rects>
      <tilted>0</tilted></_>
    <_>
      <rects>
        <_>
          2 10 1 2 -1.</_>
        <_>
          2 11 1 1 2.</_></rects>
      <tilted>0</tilted></_>
    <_>
      <rects>
        <_>
          2 11 5 6 -1.</_>
        <_>
          2 14 5 3 2.</_></rects>
      <tilted>0</tilted></_>
    <_>
      <rects>
        <_>
          2 12 6 3 -1.</_>
        <_>
          4 12 2 3 3.</_></rects>
      <tilted>0</tilted></_>
    <_>
      <rects>
        <_>
          2 12 7 6 -1.</_>
        <_>
          2 15 7 3 2.</_></rects>
      <tilted>0</tilted></_>
    <_>
      <rects>
        <_>
          2 13 18 7 -1.</_>
        <_>
          11 13 9 7 2.</_></rects>
      <tilted>0</tilted></_>
    <_>
      <rects>
        <_>
          2 15 2 4 -1.</_>
        <_>
          2 15 1 2 2.</_>
        <_>
          3 17 1 2 2.</_></rects>
      <tilted>0</tilted></_>
    <_>
      <rects>
        <_>
          3 0 17 18 -1.</_>
        <_>
          3 6 17 6 3.</_></rects>
      <tilted>0</tilted></_>
    <_>
      <rects>
        <_>
          3 2 6 7 -1.</_>
        <_>
          6 2 3 7 2.</_></rects>
      <tilted>0</tilted></_>
    <_>
      <rects>
        <_>
          3 2 8 4 -1.</_>
        <_>
          7 2 4 4 2.</_></rects>
      <tilted>0</tilted></_>
    <_>
      <rects>
        <_>
          3 3 4 6 -1.</_>
        <_>
          3 3 2 3 2.</_>
        <_>
          5 6 2 3 2.</_></rects>
      <tilted>0</tilted></_>
    <_>
      <rects>
        <_>
          3 4 4 4 -1.</_>
        <_>
          5 4 2 4 2.</_></rects>
      <tilted>0</tilted></_>
    <_>
      <rects>
        <_>
          3 4 6 4 -1.</_>
        <_>
          6 4 3 4 2.</_></rects>
      <tilted>0</tilted></_>
    <_>
      <rects>
        <_>
          3 5 9 2 -1.</_>
        <_>
          6 5 3 2 3.</_></rects>
      <tilted>0</tilted></_>
    <_>
      <rects>
        <_>
          3 5 8 14 -1.</_>
        <_>
          3 12 8 7 2.</_></rects>
      <tilted>0</tilted></_>
    <_>
      <rects>
        <_>
          3 7 3 6 -1.</_>
        <_>
          4 7 1 6 3.</_></rects>
      <tilted>0</tilted></_>
    <_>
      <rects>
        <_>
          3 8 3 5 -1.</_>
        <_>
          4 8 1 5 3.</_></rects>
      <tilted>0</tilted></_>
    <_>
      <rects>
        <_>
          3 9 13 10 -1.</_>
        <_>
          3 14 13 5 2.</_></rects>
      <tilted>0</tilted></_>
    <_>
      <rects>
        <_>
          3 10 2 4 -1.</_>
        <_>
          3 10 1 2 2.</_>
        <_>
          4 12 1 2 2.</_></rects>
      <tilted>0</tilted></_>
    <_>
      <rects>
        <_>
          3 11 3 1 -1.</_>
        <_>
          4 11 1 1 3.</_></rects>
      <tilted>0</tilted></_>
    <_>
      <rects>
        <_>
          3 12 1 3 -1.</_>
        <_>
          3 13 1 1 3.</_></rects>
      <tilted>0</tilted></_>
    <_>
      <rects>
        <_>
          3 18 12 2 -1.</_>
        <_>
          3 18 6 1 2.</_>
        <_>
          9 19 6 1 2.</_></rects>
      <tilted>0</tilted></_>
    <_>
      <rects>
        <_>
          4 0 5 15 -1.</_>
        <_>
          4 5 5 5 3.</_></rects>
      <tilted>0</tilted></_>
    <_>
      <rects>
        <_>
          4 0 13 2 -1.</_>
        <_>
          4 1 13 1 2.</_></rects>
      <tilted>0</tilted></_>
    <_>
      <rects>
        <_>
          4 0 13 18 -1.</_>
        <_>
          4 6 13 6 3.</_></rects>
      <tilted>0</tilted></_>
    <_>
      <rects>
        <_>
          4 1 11 6 -1.</_>
        <_>
          4 4 11 3 2.</_></rects>
      <tilted>0</tilted></_>
    <_>
      <rects>
        <_>
          4 1 12 6 -1.</_>
        <_>
          4 4 12 3 2.</_></rects>
      <tilted>0</tilted></_>
    <_>
      <rects>
        <_>
          4 1 13 6 -1.</_>
        <_>
          4 4 13 3 2.</_></rects>
      <tilted>0</tilted></_>
    <_>
      <rects>
        <_>
          4 3 4 2 -1.</_>
        <_>
          4 3 2 1 2.</_>
        <_>
          6 4 2 1 2.</_></rects>
      <tilted>0</tilted></_>
    <_>
      <rects>
        <_>
          4 4 4 2 -1.</_>
        <_>
          4 4 2 1 2.</_>
        <_>
          6 5 2 1 2.</_></rects>
      <tilted>0</tilted></_>
    <_>
      <rects>
        <_>
          4 4 4 6 -1.</_>
        <_>
          4 4 2 3 2.</_>
        <_>
          6 7 2 3 2.</_></rects>
      <tilted>0</tilted></_>
    <_>
      <rects>
        <_>
          4 8 6 12 -1.</_>
        <_>
          4 14 6 6 2.</_></rects>
      <tilted>0</tilted></_>
    <_>
      <rects>
        <_>
          4 9 2 8 -1.</_>
        <_>
          4 13 2 4 2.</_></rects>
      <tilted>0</tilted></_>
    <_>
      <rects>
        <_>
          4 9 2 10 -1.</_>
        <_>
          4 14 2 5 2.</_></rects>
      <tilted>0</tilted></_>
    <_>
      <rects>
        <_>
          4 11 2 2 -1.</_>
        <_>
          5 11 1 2 2.</_></rects>
      <tilted>0</tilted></_>
    <_>
      <rects>
        <_>
          4 11 14 8 -1.</_>
        <_>
          4 15 14 4 2.</_></rects>
      <tilted>0</tilted></_>
    <_>
      <rects>
        <_>
          4 12 11 8 -1.</_>
        <_>
          4 16 11 4 2.</_></rects>
      <tilted>0</tilted></_>
    <_>
      <rects>
        <_>
          4 12 12 8 -1.</_>
        <_>
          4 16 12 4 2.</_></rects>
      <tilted>0</tilted></_>
    <_>
      <rects>
        <_>
          4 14 15 4 -1.</_>
        <_>
          9 14 5 4 3.</_></rects>
      <tilted>0</tilted></_>
    <_>
      <rects>
        <_>
          5 0 10 2 -1.</_>
        <_>
          5 0 5 1 2.</_>
        <_>
          10 1 5 1 2.</_></rects>
      <tilted>0</tilted></_>
    <_>
      <rects>
        <_>
          5 0 11 6 -1.</_>
        <_>
          5 2 11 2 3.</_></rects>
      <tilted>0</tilted></_>
    <_>
      <rects>
        <_>
          5 2 3 3 -1.</_>
        <_>
          6 2 1 3 3.</_></rects>
      <tilted>0</tilted></_>
    <_>
      <rects>
        <_>
          5 2 12 7 -1.</_>
        <_>
          11 2 6 7 2.</_></rects>
      <tilted>0</tilted></_>
    <_>
      <rects>
        <_>
          5 2 11 4 -1.</_>
        <_>
          5 4 11 2 2.</_></rects>
      <tilted>0</tilted></_>
    <_>
      <rects>
        <_>
          5 3 12 2 -1.</_>
        <_>
          9 3 4 2 3.</_></rects>
      <tilted>0</tilted></_>
    <_>
      <rects>
        <_>
          5 4 1 6 -1.</_>
        <_>
          5 6 1 2 3.</_></rects>
      <tilted>0</tilted></_>
    <_>
      <rects>
        <_>
          5 4 2 4 -1.</_>
        <_>
          5 4 1 2 2.</_>
        <_>
          6 6 1 2 2.</_></rects>
      <tilted>0</tilted></_>
    <_>
      <rects>
        <_>
          5 4 12 6 -1.</_>
        <_>
          11 4 6 6 2.</_></rects>
      <tilted>0</tilted></_>
    <_>
      <rects>
        <_>
          5 4 8 9 -1.</_>
        <_>
          5 7 8 3 3.</_></rects>
      <tilted>0</tilted></_>
    <_>
      <rects>
        <_>
          5 5 6 6 -1.</_>
        <_>
          5 5 3 3 2.</_>
        <_>
          8 8 3 3 2.</_></rects>
      <tilted>0</tilted></_>
    <_>
      <rects>
        <_>
          5 5 9 10 -1.</_>
        <_>
          8 5 3 10 3.</_></rects>
      <tilted>0</tilted></_>
    <_>
      <rects>
        <_>
          5 5 8 6 -1.</_>
        <_>
          5 5 4 3 2.</_>
        <_>
          9 8 4 3 2.</_></rects>
      <tilted>0</tilted></_>
    <_>
      <rects>
        <_>
          5 6 9 9 -1.</_>
        <_>
          8 6 3 9 3.</_></rects>
      <tilted>0</tilted></_>
    <_>
      <rects>
        <_>
          5 6 8 6 -1.</_>
        <_>
          5 6 4 3 2.</_>
        <_>
          9 9 4 3 2.</_></rects>
      <tilted>0</tilted></_>
    <_>
      <rects>
        <_>
          5 7 8 6 -1.</_>
        <_>
          5 9 8 2 3.</_></rects>
      <tilted>0</tilted></_>
    <_>
      <rects>
        <_>
          5 8 9 5 -1.</_>
        <_>
          8 8 3 5 3.</_></rects>
      <tilted>0</tilted></_>
    <_>
      <rects>
        <_>
          5 8 9 8 -1.</_>
        <_>
          8 8 3 8 3.</_></rects>
      <tilted>0</tilted></_>
    <_>
      <rects>
        <_>
          5 11 13 8 -1.</_>
        <_>
          5 15 13 4 2.</_></rects>
      <tilted>0</tilted></_>
    <_>
      <rects>
        <_>
          5 15 6 4 -1.</_>
        <_>
          5 15 3 2 2.</_>
        <_>
          8 17 3 2 2.</_></rects>
      <tilted>0</tilted></_>
    <_>
      <rects>
        <_>
          6 0 3 3 -1.</_>
        <_>
          7 0 1 3 3.</_></rects>
      <tilted>0</tilted></_>
    <_>
      <rects>
        <_>
          6 0 8 15 -1.</_>
        <_>
          6 5 8 5 3.</_></rects>
      <tilted>0</tilted></_>
    <_>
      <rects>
        <_>
          6 1 3 2 -1.</_>
        <_>
          7 1 1 2 3.</_></rects>
      <tilted>0</tilted></_>
    <_>
      <rects>
        <_>
          6 1 3 4 -1.</_>
        <_>
          7 1 1 4 3.</_></rects>
      <tilted>0</tilted></_>
    <_>
      <rects>
        <_>
          6 1 4 2 -1.</_>
        <_>
          6 1 2 1 2.</_>
        <_>
          8 2 2 1 2.</_></rects>
      <tilted>0</tilted></_>
    <_>
      <rects>
        <_>
          6 1 9 4 -1.</_>
        <_>
          6 3 9 2 2.</_></rects>
      <tilted>0</tilted></_>
    <_>
      <rects>
        <_>
          6 3 1 9 -1.</_>
        <_>
          6 6 1 3 3.</_></rects>
      <tilted>0</tilted></_>
    <_>
      <rects>
        <_>
          6 3 12 5 -1.</_>
        <_>
          12 3 6 5 2.</_></rects>
      <tilted>0</tilted></_>
    <_>
      <rects>
        <_>
          6 4 4 2 -1.</_>
        <_>
          6 4 2 1 2.</_>
        <_>
          8 5 2 1 2.</_></rects>
      <tilted>0</tilted></_>
    <_>
      <rects>
        <_>
          6 4 6 10 -1.</_>
        <_>
          8 4 2 10 3.</_></rects>
      <tilted>0</tilted></_>
    <_>
      <rects>
        <_>
          6 7 8 6 -1.</_>
        <_>
          6 9 8 2 3.</_></rects>
      <tilted>0</tilted></_>
    <_>
      <rects>
        <_>
          6 8 2 12 -1.</_>
        <_>
          6 14 2 6 2.</_></rects>
      <tilted>0</tilted></_>
    <_>
      <rects>
        <_>
          6 9 9 1 -1.</_>
        <_>
          9 9 3 1 3.</_></rects>
      <tilted>0</tilted></_>
    <_>
      <rects>
        <_>
          6 10 5 6 -1.</_>
        <_>
          6 12 5 2 3.</_></rects>
      <tilted>0</tilted></_>
    <_>
      <rects>
        <_>
          6 11 9 4 -1.</_>
        <_>
          9 11 3 4 3.</_></rects>
      <tilted>0</tilted></_>
    <_>
      <rects>
        <_>
          6 12 3 6 -1.</_>
        <_>
          6 14 3 2 3.</_></rects>
      <tilted>0</tilted></_>
    <_>
      <rects>
        <_>
          6 14 7 4 -1.</_>
        <_>
          6 16 7 2 2.</_></rects>
      <tilted>0</tilted></_>
    <_>
      <rects>
        <_>
          6 14 9 4 -1.</_>
        <_>
          6 16 9 2 2.</_></rects>
      <tilted>0</tilted></_>
    <_>
      <rects>
        <_>
          6 18 10 2 -1.</_>
        <_>
          6 18 5 1 2.</_>
        <_>
          11 19 5 1 2.</_></rects>
      <tilted>0</tilted></_>
    <_>
      <rects>
        <_>
          7 0 2 3 -1.</_>
        <_>
          7 1 2 1 3.</_></rects>
      <tilted>0</tilted></_>
    <_>
      <rects>
        <_>
          7 0 9 4 -1.</_>
        <_>
          7 2 9 2 2.</_></rects>
      <tilted>0</tilted></_>
    <_>
      <rects>
        <_>
          7 1 7 4 -1.</_>
        <_>
          7 3 7 2 2.</_></rects>
      <tilted>0</tilted></_>
    <_>
      <rects>
        <_>
          7 1 13 18 -1.</_>
        <_>
          7 7 13 6 3.</_></rects>
      <tilted>0</tilted></_>
    <_>
      <rects>
        <_>
          7 3 7 6 -1.</_>
        <_>
          7 5 7 2 3.</_></rects>
      <tilted>0</tilted></_>
    <_>
      <rects>
        <_>
          7 4 9 3 -1.</_>
        <_>
          7 5 9 1 3.</_></rects>
      <tilted>0</tilted></_>
    <_>
      <rects>
        <_>
          7 5 7 6 -1.</_>
        <_>
          7 7 7 2 3.</_></rects>
      <tilted>0</tilted></_>
    <_>
      <rects>
        <_>
          7 6 6 8 -1.</_>
        <_>
          9 6 2 8 3.</_></rects>
      <tilted>0</tilted></_>
    <_>
      <rects>
        <_>
          7 6 7 14 -1.</_>
        <_>
          7 13 7 7 2.</_></rects>
      <tilted>0</tilted></_>
    <_>
      <rects>
        <_>
          7 7 12 2 -1.</_>
        <_>
          11 7 4 2 3.</_></rects>
      <tilted>0</tilted></_>
    <_>
      <rects>
        <_>
          7 9 10 6 -1.</_>
        <_>
          7 9 5 3 2.</_>
        <_>
          12 12 5 3 2.</_></rects>
      <tilted>0</tilted></_>
    <_>
      <rects>
        <_>
          7 11 4 6 -1.</_>
        <_>
          7 13 4 2 3.</_></rects>
      <tilted>0</tilted></_>
    <_>
      <rects>
        <_>
          8 0 1 3 -1.</_>
        <_>
          8 1 1 1 3.</_></rects>
      <tilted>0</tilted></_>
    <_>
      <rects>
        <_>
          8 0 3 3 -1.</_>
        <_>
          8 1 3 1 3.</_></rects>
      <tilted>0</tilted></_>
    <_>
      <rects>
        <_>
          8 0 5 6 -1.</_>
        <_>
          8 2 5 2 3.</_></rects>
      <tilted>0</tilted></_>
    <_>
      <rects>
        <_>
          8 0 12 9 -1.</_>
        <_>
          14 0 6 9 2.</_></rects>
      <tilted>0</tilted></_>
    <_>
      <rects>
        <_>
          8 0 10 2 -1.</_>
        <_>
          8 1 10 1 2.</_></rects>
      <tilted>0</tilted></_>
    <_>
      <rects>
        <_>
          8 1 3 2 -1.</_>
        <_>
          9 1 1 2 3.</_></rects>
      <tilted>0</tilted></_>
    <_>
      <rects>
        <_>
          8 1 5 2 -1.</_>
        <_>
          8 2 5 1 2.</_></rects>
      <tilted>0</tilted></_>
    <_>
      <rects>
        <_>
          8 2 5 4 -1.</_>
        <_>
          8 4 5 2 2.</_></rects>
      <tilted>0</tilted></_>
    <_>
      <rects>
        <_>
          8 3 4 3 -1.</_>
        <_>
          8 4 4 1 3.</_></rects>
      <tilted>0</tilted></_>
    <_>
      <rects>
        <_>
          8 3 6 3 -1.</_>
        <_>
          8 4 6 1 3.</_></rects>
      <tilted>0</tilted></_>
    <_>
      <rects>
        <_>
          8 3 12 12 -1.</_>
        <_>
          14 3 6 12 2.</_></rects>
      <tilted>0</tilted></_>
    <_>
      <rects>
        <_>
          8 4 6 6 -1.</_>
        <_>
          8 4 3 3 2.</_>
        <_>
          11 7 3 3 2.</_></rects>
      <tilted>0</tilted></_>
    <_>
      <rects>
        <_>
          8 5 6 1 -1.</_>
        <_>
          10 5 2 1 3.</_></rects>
      <tilted>0</tilted></_>
    <_>
      <rects>
        <_>
          8 5 6 7 -1.</_>
        <_>
          10 5 2 7 3.</_></rects>
      <tilted>0</tilted></_>
    <_>
      <rects>
        <_>
          8 6 6 6 -1.</_>
        <_>
          8 6 3 3 2.</_>
        <_>
          11 9 3 3 2.</_></rects>
      <tilted>0</tilted></_>
    <_>
      <rects>
        <_>
          8 6 4 6 -1.</_>
        <_>
          8 8 4 2 3.</_></rects>
      <tilted>0</tilted></_>
    <_>
      <rects>
        <_>
          8 6 8 4 -1.</_>
        <_>
          8 6 4 2 2.</_>
        <_>
          12 8 4 2 2.</_></rects>
      <tilted>0</tilted></_>
    <_>
      <rects>
        <_>
          8 6 9 6 -1.</_>
        <_>
          8 8 9 2 3.</_></rects>
      <tilted>0</tilted></_>
    <_>
      <rects>
        <_>
          8 7 8 6 -1.</_>
        <_>
          8 7 4 3 2.</_>
        <_>
          12 10 4 3 2.</_></rects>
      <tilted>0</tilted></_>
    <_>
      <rects>
        <_>
          8 8 9 7 -1.</_>
        <_>
          11 8 3 7 3.</_></rects>
      <tilted>0</tilted></_>
    <_>
      <rects>
        <_>
          8 10 3 6 -1.</_>
        <_>
          8 12 3 2 3.</_></rects>
      <tilted>0</tilted></_>
    <_>
      <rects>
        <_>
          8 13 3 1 -1.</_>
        <_>
          9 13 1 1 3.</_></rects>
      <tilted>0</tilted></_>
    <_>
      <rects>
        <_>
          8 16 2 3 -1.</_>
        <_>
          8 17 2 1 3.</_></rects>
      <tilted>0</tilted></_>
    <_>
      <rects>
        <_>
          9 0 3 14 -1.</_>
        <_>
          10 0 1 14 3.</_></rects>
      <tilted>0</tilted></_>
    <_>
      <rects>
        <_>
          9 0 4 1 -1.</_>
        <_>
          11 0 2 1 2.</_></rects>
      <tilted>0</tilted></_>
    <_>
      <rects>
        <_>
          9 0 10 2 -1.</_>
        <_>
          14 0 5 2 2.</_></rects>
      <tilted>0</tilted></_>
    <_>
      <rects>
        <_>
          9 0 5 4 -1.</_>
        <_>
          9 2 5 2 2.</_></rects>
      <tilted>0</tilted></_>
    <_>
      <rects>
        <_>
          9 0 7 4 -1.</_>
        <_>
          9 2 7 2 2.</_></rects>
      <tilted>0</tilted></_>
    <_>
      <rects>
        <_>
          9 1 3 1 -1.</_>
        <_>
          10 1 1 1 3.</_></rects>
      <tilted>0</tilted></_>
    <_>
      <rects>
        <_>
          9 1 3 6 -1.</_>
        <_>
          9 3 3 2 3.</_></rects>
      <tilted>0</tilted></_>
    <_>
      <rects>
        <_>
          9 2 4 3 -1.</_>
        <_>
          9 3 4 1 3.</_></rects>
      <tilted>0</tilted></_>
    <_>
      <rects>
        <_>
          9 5 6 10 -1.</_>
        <_>
          9 5 3 5 2.</_>
        <_>
          12 10 3 5 2.</_></rects>
      <tilted>0</tilted></_>
    <_>
      <rects>
        <_>
          9 5 5 3 -1.</_>
        <_>
          9 6 5 1 3.</_></rects>
      <tilted>0</tilted></_>
    <_>
      <rects>
        <_>
          9 7 9 3 -1.</_>
        <_>
          12 7 3 3 3.</_></rects>
      <tilted>0</tilted></_>
    <_>
      <rects>
        <_>
          9 7 9 5 -1.</_>
        <_>
          12 7 3 5 3.</_></rects>
      <tilted>0</tilted></_>
    <_>
      <rects>
        <_>
          9 8 2 9 -1.</_>
        <_>
          9 11 2 3 3.</_></rects>
      <tilted>0</tilted></_>
    <_>
      <rects>
        <_>
          9 9 1 3 -1.</_>
        <_>
          9 10 1 1 3.</_></rects>
      <tilted>0</tilted></_>
    <_>
      <rects>
        <_>
          9 9 9 1 -1.</_>
        <_>
          12 9 3 1 3.</_></rects>
      <tilted>0</tilted></_>
    <_>
      <rects>
        <_>
          9 11 1 3 -1.</_>
        <_>
          9 12 1 1 3.</_></rects>
      <tilted>0</tilted></_>
    <_>
      <rects>
        <_>
          9 13 3 1 -1.</_>
        <_>
          10 13 1 1 3.</_></rects>
      <tilted>0</tilted></_>
    <_>
      <rects>
        <_>
          9 14 2 1 -1.</_>
        <_>
          10 14 1 1 2.</_></rects>
      <tilted>0</tilted></_>
    <_>
      <rects>
        <_>
          9 16 3 3 -1.</_>
        <_>
          9 17 3 1 3.</_></rects>
      <tilted>0</tilted></_>
    <_>
      <rects>
        <_>
          9 16 5 2 -1.</_>
        <_>
          9 17 5 1 2.</_></rects>
      <tilted>0</tilted></_>
    <_>
      <rects>
        <_>
          10 0 10 15 -1.</_>
        <_>
          15 0 5 15 2.</_></rects>
      <tilted>0</tilted></_>
    <_>
      <rects>
        <_>
          10 1 1 2 -1.</_>
        <_>
          10 2 1 1 2.</_></rects>
      <tilted>0</tilted></_>
    <_>
      <rects>
        <_>
          10 1 3 1 -1.</_>
        <_>
          11 1 1 1 3.</_></rects>
      <tilted>0</tilted></_>
    <_>
      <rects>
        <_>
          10 1 2 3 -1.</_>
        <_>
          10 2 2 1 3.</_></rects>
      <tilted>0</tilted></_>
    <_>
      <rects>
        <_>
          10 1 3 3 -1.</_>
        <_>
          10 2 3 1 3.</_></rects>
      <tilted>0</tilted></_>
    <_>
      <rects>
        <_>
          10 3 6 8 -1.</_>
        <_>
          12 3 2 8 3.</_></rects>
      <tilted>0</tilted></_>
    <_>
      <rects>
        <_>
          10 3 3 3 -1.</_>
        <_>
          10 4 3 1 3.</_></rects>
      <tilted>0</tilted></_>
    <_>
      <rects>
        <_>
          10 3 6 2 -1.</_>
        <_>
          10 3 3 1 2.</_>
        <_>
          13 4 3 1 2.</_></rects>
      <tilted>0</tilted></_>
    <_>
      <rects>
        <_>
          10 3 4 6 -1.</_>
        <_>
          10 5 4 2 3.</_></rects>
      <tilted>0</tilted></_>
    <_>
      <rects>
        <_>
          10 4 3 3 -1.</_>
        <_>
          10 5 3 1 3.</_></rects>
      <tilted>0</tilted></_>
    <_>
      <rects>
        <_>
          10 5 4 8 -1.</_>
        <_>
          10 5 2 4 2.</_>
        <_>
          12 9 2 4 2.</_></rects>
      <tilted>0</tilted></_>
    <_>
      <rects>
        <_>
          10 5 6 8 -1.</_>
        <_>
          12 5 2 8 3.</_></rects>
      <tilted>0</tilted></_>
    <_>
      <rects>
        <_>
          10 5 6 10 -1.</_>
        <_>
          12 5 2 10 3.</_></rects>
      <tilted>0</tilted></_>
    <_>
      <rects>
        <_>
          10 5 6 6 -1.</_>
        <_>
          10 5 3 3 2.</_>
        <_>
          13 8 3 3 2.</_></rects>
      <tilted>0</tilted></_>
    <_>
      <rects>
        <_>
          10 6 7 14 -1.</_>
        <_>
          10 13 7 7 2.</_></rects>
      <tilted>0</tilted></_>
    <_>
      <rects>
        <_>
          10 7 6 8 -1.</_>
        <_>
          12 7 2 8 3.</_></rects>
      <tilted>0</tilted></_>
    <_>
      <rects>
        <_>
          10 7 6 9 -1.</_>
        <_>
          12 7 2 9 3.</_></rects>
      <tilted>0</tilted></_>
    <_>
      <rects>
        <_>
          10 9 6 8 -1.</_>
        <_>
          12 9 2 8 3.</_></rects>
      <tilted>0</tilted></_>
    <_>
      <rects>
        <_>
          10 10 6 10 -1.</_>
        <_>
          10 15 6 5 2.</_></rects>
      <tilted>0</tilted></_>
    <_>
      <rects>
        <_>
          10 12 2 1 -1.</_>
        <_>
          11 12 1 1 2.</_></rects>
      <tilted>0</tilted></_>
    <_>
      <rects>
        <_>
          10 12 5 6 -1.</_>
        <_>
          10 14 5 2 3.</_></rects>
      <tilted>0</tilted></_>
    <_>
      <rects>
        <_>
          10 13 2 1 -1.</_>
        <_>
          11 13 1 1 2.</_></rects>
      <tilted>0</tilted></_>
    <_>
      <rects>
        <_>
          10 13 10 2 -1.</_>
        <_>
          15 13 5 2 2.</_></rects>
      <tilted>0</tilted></_>
    <_>
      <rects>
        <_>
          10 13 10 6 -1.</_>
        <_>
          10 13 5 3 2.</_>
        <_>
          15 16 5 3 2.</_></rects>
      <tilted>0</tilted></_>
    <_>
      <rects>
        <_>
          10 15 3 3 -1.</_>
        <_>
          10 16 3 1 3.</_></rects>
      <tilted>0</tilted></_>
    <_>
      <rects>
        <_>
          10 18 3 2 -1.</_>
        <_>
          11 18 1 2 3.</_></rects>
      <tilted>0</tilted></_>
    <_>
      <rects>
        <_>
          11 0 8 15 -1.</_>
        <_>
          11 5 8 5 3.</_></rects>
      <tilted>0</tilted></_>
    <_>
      <rects>
        <_>
          11 2 2 6 -1.</_>
        <_>
          11 4 2 2 3.</_></rects>
      <tilted>0</tilted></_>
    <_>
      <rects>
        <_>
          11 2 6 2 -1.</_>
        <_>
          11 2 3 1 2.</_>
        <_>
          14 3 3 1 2.</_></rects>
      <tilted>0</tilted></_>
    <_>
      <rects>
        <_>
          11 2 3 4 -1.</_>
        <_>
          11 4 3 2 2.</_></rects>
      <tilted>0</tilted></_>
    <_>
      <rects>
        <_>
          11 3 8 6 -1.</_>
        <_>
          11 3 4 3 2.</_>
        <_>
          15 6 4 3 2.</_></rects>
      <tilted>0</tilted></_>
    <_>
      <rects>
        <_>
          11 4 6 11 -1.</_>
        <_>
          13 4 2 11 3.</_></rects>
      <tilted>0</tilted></_>
    <_>
      <rects>
        <_>
          11 4 4 6 -1.</_>
        <_>
          11 6 4 2 3.</_></rects>
      <tilted>0</tilted></_>
    <_>
      <rects>
        <_>
          11 5 2 9 -1.</_>
        <_>
          11 8 2 3 3.</_></rects>
      <tilted>0</tilted></_>
    <_>
      <rects>
        <_>
          11 5 6 5 -1.</_>
        <_>
          13 5 2 5 3.</_></rects>
      <tilted>0</tilted></_>
    <_>
      <rects>
        <_>
          11 6 6 5 -1.</_>
        <_>
          13 6 2 5 3.</_></rects>
      <tilted>0</tilted></_>
    <_>
      <rects>
        <_>
          11 6 6 9 -1.</_>
        <_>
          13 6 2 9 3.</_></rects>
      <tilted>0</tilted></_>
    <_>
      <rects>
        <_>
          11 6 9 5 -1.</_>
        <_>
          14 6 3 5 3.</_></rects>
      <tilted>0</tilted></_>
    <_>
      <rects>
        <_>
          11 9 6 6 -1.</_>
        <_>
          13 9 2 6 3.</_></rects>
      <tilted>0</tilted></_>
    <_>
      <rects>
        <_>
          11 10 7 10 -1.</_>
        <_>
          11 15 7 5 2.</_></rects>
      <tilted>0</tilted></_>
    <_>
      <rects>
        <_>
          11 11 2 1 -1.</_>
        <_>
          12 11 1 1 2.</_></rects>
      <tilted>0</tilted></_>
    <_>
      <rects>
        <_>
          11 11 1 2 -1.</_>
        <_>
          11 12 1 1 2.</_></rects>
      <tilted>0</tilted></_>
    <_>
      <rects>
        <_>
          12 2 8 14 -1.</_>
        <_>
          12 9 8 7 2.</_></rects>
      <tilted>0</tilted></_>
    <_>
      <rects>
        <_>
          12 3 8 4 -1.</_>
        <_>
          16 3 4 4 2.</_></rects>
      <tilted>0</tilted></_>
    <_>
      <rects>
        <_>
          12 4 4 2 -1.</_>
        <_>
          12 4 2 1 2.</_>
        <_>
          14 5 2 1 2.</_></rects>
      <tilted>0</tilted></_>
    <_>
      <rects>
        <_>
          12 4 2 9 -1.</_>
        <_>
          12 7 2 3 3.</_></rects>
      <tilted>0</tilted></_>
    <_>
      <rects>
        <_>
          12 4 3 6 -1.</_>
        <_>
          12 6 3 2 3.</_></rects>
      <tilted>0</tilted></_>
    <_>
      <rects>
        <_>
          12 4 3 9 -1.</_>
        <_>
          12 7 3 3 3.</_></rects>
      <tilted>0</tilted></_>
    <_>
      <rects>
        <_>
          12 4 8 9 -1.</_>
        <_>
          16 4 4 9 2.</_></rects>
      <tilted>0</tilted></_>
    <_>
      <rects>
        <_>
          12 5 8 11 -1.</_>
        <_>
          16 5 4 11 2.</_></rects>
      <tilted>0</tilted></_>
    <_>
      <rects>
        <_>
          12 6 1 9 -1.</_>
        <_>
          12 9 1 3 3.</_></rects>
      <tilted>0</tilted></_>
    <_>
      <rects>
        <_>
          12 7 6 5 -1.</_>
        <_>
          14 7 2 5 3.</_></rects>
      <tilted>0</tilted></_>
    <_>
      <rects>
        <_>
          12 15 4 2 -1.</_>
        <_>
          12 15 2 1 2.</_>
